tree
version=v3
num_class=1
num_tree_per_iteration=1
label_index=0
max_feature_idx=5
objective=poisson
feature_names=x y bus subway pawn tobacco
feature_infos=[972719.66918945196:1030519.669189452] [146872.03179924132:208472.03179924132] [2.8471322226630207:17020.9134934916] [2.7778144296686289:25254.32690978979] [3.0599599201525667:22311.361441133678] [2.3878189878632097:17157.155264065565]
tree_sizes=2174 2252 2256 2248 2255 2257 2256 2248 2256 2259 2256 2254 2253 2261 2257 2258 2259 2260 2261 2263 2260 2256 2252 2259 2266 2258 2262 2250 2251 2258 2261 2268 2258 2266 2270 2270 2260 2267 2274 2269 2262 2271 2262 2263 2267 2262 2266 2264 2268 2272 2275 2272 2273 2272 2265 2264 2272 2277 2270 2269 2270 2271 2270 2264 2269 2270 2274 2272 2271 2274 2269 2268 2271 2265 2269 2276 2272 2269 2269 2272 2282 2270 2276 2270 2270 2275 2273 2267 2279 2271 2271 2267 2269 2276 2274 2278 2272 2272 2279 2277 2277 2275 2278 2281 2278 2274 2276 2275 2279 2276 2274 2277 2275 2274 2271 2276 2268 2278 2280 2271 2272 2279 2273 2277 2281 2275 2275 2273 2276 2268 2274 2277 2271 2278 2274 2268 2272 2282 2277 2271 2272 2274 2273 2280 2278 2283 2278 2283 2273 2283 2286 2282 2280 2278 2276 2282 2283 2285 2278 2276 2282 2280 2287 2294 2285 2291 2290 2289 2288 2284 2278 2286 2284 2284 2275 2286 2290 2290 2292 2288 2285 2279 2287 2278 2285 2290 2279 2286 2282 2290 2273 2278 2267 2275 2269 2278 2276 2264 2277 2270 2281 2278 2286 2287 2283 2285 2282 2285 2285 2279 2286 2297 2289 2292 2291 2273 2278 2295 2280 2279 2281 2274 2278 2283 2275 2282 2280 2288 2277 2280 2277 2287 2286 2284 2279 2281 2283 2287 2284 2282 2287 2279 2285 2291 2289 2288 2294 2290 2290 2294 2283 2290 2287 2288 2279 2289 2287 2288 2284 2284 2282 2279 2278 2286 2288 2291 2289 2290 2293 2286 2297 2296 2291 2287 2291 2299 2294 2298 2290 2296 2290 2286 2278 2289 2288 2278 2287 2286 2292 2282 2293 2294 2289 2294 2286 2290 2296 2290 2290 2291 2295 2286 2287 2292 2290 2292 2292 2287 2283 2290 2288 2290 2285 2285 2294 2285 2284 2289 2278 2291 2286 2285 2294 2295 2290 2290 2292 2286 2288 2293 2287 2290 2291 2280 2294 2289 2289 2287 2292 2285 2286 2285 2286 2281 2278 2286 2288 2282 2286 2284 2281 2285 2274 2289 2286 2288 2280 2281 2286 2278 2287 2294 2285 2286 2286 2289 2286 2285 2287 2286 2294 2293 2291 2292 2295 2287 2290 2287 2289 2293 2293 2294 2299 2295 2289 2295 2291 2300 2301 2290 2284 2284 2294 2285 2286 2280 2292 2283 2284 2288 2288 2291 2289 2285 2292 2291 2290 2288 2293 2296 2292 2290 2293 2292 2297 2297 2294 2291 2295 2289 2278 2280 2285 2285 2287 2279 2284 2274 2281 2283 2287 2279 2283 2285 2283 2289 2285 2282 2283 2294 2300 2294 2290 2296 2300 2296 2299 2293 2300 2294 2296 2303 2295 2295 2301 2298 2298 2294 2298 2292 2281 2284 2281 2292 2283 2284 2283 2287 2292 2279 2292 2293 2289 2283 2295 2296 2294 2295 2286 2288 2299 2298 2289 2295 2287 2294 2289 2294 2290 2285 2301 2292 2291 2302 2297 2292 2295 2301 2300 2303 2301 2299 2306 2294 2298 2298 2295 2302 2291 2299 2292 2289 2288 2284 2283 2284 2286 2285 2290 2290 2289 2292 2295 2299 2291 2294 2293 2298 2292 2300 2294 2302 2299 2298 2286 2296 2294 2300 2302 2295 2287 2283 2286 2285 2286 2290 2294 2291 2284 2289 2300 2295 2302 2304 2310 2304 2309 2198 2307 2314 2286 2287 2286 2283 2287 2289 2292 2293 2289 2289 2074 2185 2303 2080 2299 2189 2078 2301 2186 2296 2297 2283 2296 2294 2286 2297 2289 2288 2289 2293 2299 2296 2305 2305 2292 2296 2295 2294 2293 2301 2290 2288 2293 2288 2291 2289 2284 2290 2281 2288 2288 2291 2289 2292 2289 2293 2294 2297 2290 2304 2282 2281 2285 2284 2287 2286 2288 2292 2287 2302 2286 2296 2293 2293 2299 2293 2294 2290 2294 2285 2293 2303 2297 2297 2292 2293 2291 2295 2295 2296 2292 2288 2283 2292 2284 2292 2291 2290 2280 2286 2297 2300 2293 2299 2298 2291 2293 2295 2297 2299 2293 2306 2295 2303 2298 2299 2189 2301 2194 2302 2292 2293 2294 2287 2292 2291 2290 2287 2284 2289 2280 2291 2286 2283 2281 2285 2286 2284 2286 2281 2274 2288 2291 2286 2289 2286 2285 2288 2290 2284 2278 2288 2275 2278 2280 2289 2281 2283 2287 2282 2291 2298 2300 2303 2302 2300 2300 2298 2296 2296 2291 2284 2282 2285 2185 2295 2295 1965 2072 2196 2295 2300 2291 2289 2290 2290 2295 2301 2293 2295 2189 2300 2297 2304 2308 2298 2302 2294 2197 2300 2277 2286 2277 2281 2283 2278 2288 2280 2288 2286 2192 2181 2079 2205 2306 2078 2082 2194 2197 2203 2287 2282 2288 2287 2290 2291 2291 2294 2289 2281 2303 2296 2295 2300 2290 2292 2298 2301 2300 2301 2283 2291 2288 2286 2288 2293 2294 2284 2298 2283 2281 2282 2284 2286 2282 2285 2285 2283 2283 2293 2285 2287 2286 2298 2295 2285 2290 2288 2284 2299 2282 2286 2287 2284 2293 2295 2295 2293 2292 2290 2306 2304 2299 2297 2299 2299 2302 2305 2298 2300 2295 2294 2292 2295 2292 2295 2298 2293 2291 2298 2287 2287 2288 2292 2295 2295 2289 2291 2288 2286 2271 2276 2277 2269 2291 2275 2294 2278 2281 2292 2290 2287 2291 2279 2292 2284 2291 2289 2288 2291 2299 2301 2296 2301 2296 2284 2293 2285 2294 2293 2287 2286 2291 2290 2274 2278 2289 2292 2293 2300 2293 2301 2298 2306 2297 2307 2085 2300 2298 2303 2304 2298 2295 2293 2292 2291 2285 2285 2288 2289 2293 2296 2292 2294 2295 2290 2290 2292 2290 2296 2285 2292 2290 2284 2283 2294 2285 2291 2286 2289 2297 2297 2305 2299 2298 2299 2298 2301 2295 2300 2284 2284 2282 2281 2281 2282 2286 2286 2279 2285 2290 2287 2288 2287 2291 2287 2288 2293 2285 2294 2285 2296 2292 2294 2287 2289 2281 2296 2293 2291 2294 2291 2295 2288 2287 2295 2293 2289 2288 2297

Tree=0
num_leaves=20
num_cat=0
split_feature=5 3 5 1 4 4 5 3 0 4 0 0 5 0 0 1 4 0 2
split_gain=869.526 457.462 205.198 101.075 86.7772 84.8152 32.441 32.3546 27.296 24.8573 23.5661 22.039 20.4674 17.4802 16.6323 16.6052 14.4643 14.1542 10.6164
threshold=99.143222152776474 432.48796374724105 467.5402542262155 172572.03179924135 1192.4452792565705 1076.0050424846993 127.52590330816328 592.60939325180243 999419.66918945208 436.53367033644525 1000219.6691894521 991619.66918945208 1547.2097495725427 1013219.6691894521 997619.66918945208 183572.03179924135 1838.287499176334 1010019.6691894521 404.10658375377676
decision_type=2 2 2 2 2 2 2 2 2 2 2 2 2 2 2 2 2 2 2
left_child=1 -1 3 -2 6 8 -5 10 -3 15 -6 -7 13 -4 -9 -8 -15 -11 -16
right_child=2 5 12 4 7 11 9 14 -10 17 -12 -13 -14 16 18 -17 -18 -19 -20
leaf_value=-2.4747433482350449 -2.5289902436184399 -2.5124414843153855 -2.5300525179913387 -2.5115060918430436 -2.5241700216739011 -2.52487423790389 -2.5106220623863744 -2.5285730365170505 -2.5002772947542513 -2.5235095164028301 -2.5138552799840221 -2.516122127755688 -2.5318592502055033 -2.5217104738189917 -2.5219242488714926 -2.5202125061456977 -2.5284587888834573 -2.5182500685269114 -2.5262658745903845
leaf_weight=34.431923270225525 606.58107817173004 33.305645406246185 1306.9650127291679 37.649860024452209 66.772187650203705 43.76393985748291 32.34026437997818 301.35977703332901 41.350487291812897 252.12534469366074 33.144748568534851 83.988149285316467 609.47722125053406 44.89021772146225 71.759989619255066 40.867796778678894 108.6053654551506 64.197838246822357 261.77915495634079
leaf_count=214 3770 207 8123 234 415 272 201 1873 257 1567 206 522 3788 279 446 254 675 399 1627
internal_value=-2.52699 -2.50844 -2.52818 -2.52568 -2.52395 -2.51417 -2.52037 -2.52604 -2.5057 -2.52123 -2.52075 -2.51912 -2.53032 -2.52968 -2.52687 -2.51598 -2.52649 -2.52244 -2.52533
internal_weight=0 236.84 3838.52 1768.58 1162 202.408 427.181 734.816 74.6561 389.531 99.9169 127.752 2069.94 1460.46 634.899 73.2081 153.496 316.323 333.539
internal_count=25329 1472 23857 10992 7222 1258 2655 4567 464 2421 621 794 12865 9077 3946 455 954 1966 2073
is_linear=0
shrinkage=1


Tree=1
num_leaves=20
num_cat=0
split_feature=5 3 5 4 1 4 1 2 4 0 5 4 5 0 0 3 2 2 2
split_gain=848.004 520.413 163.359 111.677 89.2201 72.7895 61.5592 41.1334 32.9373 23.2504 25.1818 19.2419 17.6042 14.9084 14.7403 15.0432 12.0973 17.3656 10.8872
threshold=124.20839529323412 352.91220395647878 501.50367183420047 1349.2297660385254 172572.03179924135 603.44357330099422 172772.03179924135 339.44798463228392 2417.3423304096582 991619.66918945208 87.517677593159362 746.69385008813481 1547.2097495725427 1020619.6691894521 1000019.6691894521 803.42692843978898 504.12991067809554 333.04835214911009 391.75780949302322
decision_type=2 2 2 2 2 2 2 2 2 2 2 2 2 2 2 2 2 2 2
left_child=1 -1 4 6 -2 16 -3 -8 14 -5 -11 -9 13 18 -7 -16 17 -6 -4
right_child=2 3 12 9 5 8 7 11 -10 10 -12 -13 -14 -15 15 -17 -18 -19 -20
leaf_value=0.049526789350128518 -0.0022827966701359022 0.0050751888917658959 0.0004367724426948107 0.00040754818261417832 0.0071192913515961322 0.00098480127603975203 0.030043155956397817 0.02181308463840137 -0.0013771818448393019 0.012461947909790222 0.0027906310431224531 0.011793640745239633 -0.0048669276893531345 0.003826746901088353 0.0073605475588202464 0.0027978248533603585 0.0062849913714069896 0.017181499918702558 -0.0032250287834267588
leaf_weight=38.35380132496357 629.87869143486023 32.865115314722061 86.994742006063461 65.135654866695404 34.75341235101223 312.57067811489105 32.848687633872032 37.342780932784081 292.58742001652718 57.953381031751633 50.280513629317284 39.380664423108101 606.51789140701294 32.982279285788536 94.918221741914749 302.69159713387489 75.549886181950569 33.864092379808426 1217.8139898777008
leaf_count=229 3923 202 542 404 214 1941 200 227 1819 356 311 241 3788 205 586 1876 466 209 7590
internal_value=0 0.0147427 -0.00145078 0.0105183 0.000740991 0.00240161 0.0170789 0.0206794 0.0014464 0.00512819 0.0079691 0.0166703 -0.00345375 -0.00281305 0.00260969 0.00388705 0.00904564 0.0120852 -0.00298089
internal_weight=0 354.161 3721.12 315.807 1776.81 1146.94 142.437 109.572 1002.77 173.37 108.234 76.7234 1944.31 1337.79 710.18 397.61 144.167 68.6175 1304.81
internal_count=25329 2170 23159 1941 11034 7111 870 668 6222 1071 667 468 12125 8337 4403 2462 889 423 8132
is_linear=0
shrinkage=0.01


Tree=2
num_leaves=20
num_cat=0
split_feature=5 3 5 4 1 4 1 2 4 0 5 5 5 0 0 3 2 2 2
split_gain=828.365 477.712 162.415 106.976 88.2587 71.1385 58.3737 38.0443 32.5233 22.7093 24.357 18.5233 17.6253 14.7899 14.4849 14.6854 11.6507 16.5749 10.8419
threshold=124.20839529323412 352.91220395647878 501.50367183420047 1349.2297660385254 172572.03179924135 603.44357330099422 172772.03179924135 339.44798463228392 2417.3423304096582 991619.66918945208 87.517677593159362 82.867695799113648 1547.2097495725427 1020619.6691894521 1000019.6691894521 803.42692843978898 504.12991067809554 333.04835214911009 391.75780949302322
decision_type=2 2 2 2 2 2 2 2 2 2 2 2 2 2 2 2 2 2 2
left_child=1 -1 4 6 -2 16 -3 -8 14 -5 -11 -9 13 18 -7 -16 17 -6 -4
right_child=2 3 12 9 5 8 7 11 -10 10 -12 -13 -14 -15 15 -17 -18 -19 -20
leaf_value=0.046893685969046688 -0.0022766645028940626 0.0050243579772794554 0.00043441302416868743 0.00040535867336008495 0.0070335592473178676 0.00097894383828958176 0.029007017513666251 0.021069134593137945 -0.0013722363510637373 0.012246111128975851 0.0027690157343547911 0.01132083363081029 -0.0048664449243296564 0.0037931642263766348 0.0072701515277507735 0.0027761335334528848 0.0062145013969471313 0.016804225722083406 -0.0032194056345392135
leaf_weight=40.301167696714401 628.44247342646122 33.032334968447685 87.032749444246292 65.162203386425972 35.001714050769806 312.87865088880062 33.85053938627243 39.946245074272156 292.18474364280701 58.680112406611443 50.421023800969124 38.067902281880379 603.57318097352982 33.108737871050835 95.619446739554405 303.53965719044209 76.026212275028229 34.450954124331474 1213.8928618133068
leaf_count=229 3923 202 542 404 214 1941 200 239 1819 356 311 229 3788 205 586 1876 466 209 7590
internal_value=0 0.0144521 -0.0014457 0.0103556 0.000736723 0.00238388 0.0167047 0.0201538 0.00143711 0.00507642 0.00786628 0.0163123 -0.00344852 -0.00280699 0.00258993 0.00385269 0.00891932 0.0118802 -0.00297496
internal_weight=0 359.462 3715.75 319.16 1778.14 1149.7 144.897 111.865 1004.22 174.263 109.101 78.0141 1937.61 1334.03 712.038 399.159 145.479 69.4527 1300.93
internal_count=25329 2170 23159 1941 11034 7111 870 668 6222 1071 667 468 12125 8337 4403 2462 889 423 8132
is_linear=0
shrinkage=0.01


Tree=3
num_leaves=20
num_cat=0
split_feature=5 3 5 4 1 4 1 2 4 0 5 4 5 0 1 3 2 2 2
split_gain=809.424 439.895 161.476 102.535 87.3091 69.5359 55.4066 35.2561 32.1154 22.1843 23.5673 17.7884 17.6462 14.6726 14.244 11.7745 11.2252 15.8309 10.7966
threshold=124.20839529323412 352.91220395647878 501.50367183420047 1349.2297660385254 172572.03179924135 603.44357330099422 172772.03179924135 339.44798463228392 2417.3423304096582 991619.66918945208 87.517677593159362 746.69385008813481 1547.2097495725427 1020619.6691894521 197572.03179924135 534.01187567011141 504.12991067809554 333.04835214911009 391.75780949302322
decision_type=2 2 2 2 2 2 2 2 2 2 2 2 2 2 2 2 2 2 2
left_child=1 -1 4 6 -2 16 -3 -8 14 -5 -11 -9 13 18 15 -7 17 -6 -4
right_child=2 3 12 9 5 8 7 11 -10 10 -12 -13 -14 -15 -16 -17 -18 -19 -20
leaf_value=0.044517940182796888 -0.0022705355597493972 0.0049742893601786974 0.00043206772114050995 0.00040318186442919713 0.0069494567275178876 0.0065971885723663179 0.028035721035908297 0.020806452013912468 -0.0013673016495211294 0.012036615979854264 0.0027476271468368407 0.011331740808868345 -0.0048659601989581251 0.0037600029348433613 -0.0024674470061558768 0.0024764407155594896 0.0061452365556598611 0.016441453021392417 -0.0032137742193238312
leaf_weight=42.236050948500633 627.01332874596119 33.198720425367355 87.070563614368439 65.1886225938797 35.248769313097 78.699016556143761 34.846822455525398 38.801340967416763 291.78407166898251 59.403137788176537 50.560834467411041 40.496775940060616 600.64303350448608 33.234561711549759 52.0331751704216 583.15354107320309 76.50014753639698 35.034767851233482 1209.9910762310028
leaf_count=229 3923 202 542 404 214 482 200 227 1819 356 311 241 3788 205 322 3599 466 209 7590
internal_value=0 0.0141715 -0.00144063 0.0101971 0.000732483 0.00236633 0.0163449 0.019652 0.0014279 0.00502543 0.00776559 0.0159678 -0.00344328 -0.00280092 0.00257037 0.00296643 0.00879589 0.011681 -0.00296903
internal_weight=0 364.732 3710.41 322.496 1779.47 1152.45 147.344 114.145 1005.67 175.153 109.964 79.2981 1930.94 1330.3 713.886 661.853 146.784 70.2835 1297.06
internal_count=25329 2170 23159 1941 11034 7111 870 668 6222 1071 667 468 12125 8337 4403 4081 889 423 8132
is_linear=0
shrinkage=0.01


Tree=4
num_leaves=20
num_cat=0
split_feature=5 3 5 4 1 4 1 2 4 0 5 5 5 0 0 3 2 2 2
split_gain=791.144 406.235 160.541 98.3355 86.3711 67.9796 52.6389 32.7327 31.7133 21.6748 22.8109 17.667 17.1582 14.5566 14.1733 14.1894 10.8195 15.1301 10.7515
threshold=124.20839529323412 352.91220395647878 501.50367183420047 1349.2297660385254 172572.03179924135 603.44357330099422 172772.03179924135 339.44798463228392 2417.3423304096582 991619.66918945208 87.517677593159362 1547.2097495725427 82.867695799113648 1020619.6691894521 1000019.6691894521 803.42692843978898 504.12991067809554 333.04835214911009 391.75780949302322
decision_type=2 2 2 2 2 2 2 2 2 2 2 2 2 2 2 2 2 2 2
left_child=1 -1 4 6 -2 16 -3 -8 14 -5 -11 13 -9 18 -7 -16 17 -6 -4
right_child=2 3 11 9 5 8 7 12 -10 10 -12 -13 -14 -15 15 -17 -18 -19 -20
leaf_value=0.042363337731407213 -0.002264408646090886 0.0049249667616795539 0.00042973573352251654 0.00040101759739127494 0.0068669383184487955 0.00095899656949599912 0.027123347842587169 0.020118110647455084 -0.0013623778258244452 0.011833191029533544 0.0027264626551507781 -0.0048654725829803576 0.010884985911995928 0.0037272551617568541 0.0071327514387567702 0.0027368687637367136 0.0060771658939190254 0.016092362679475988 -0.0032081338546424212
leaf_weight=44.158794090151787 625.59125748276711 33.364271745085716 87.108191221952438 65.214911714196205 35.494583606719971 313.93201592564583 35.837602004408836 41.46075239777565 291.38539800047874 60.122468203306198 50.699947863817215 597.72744899988174 39.114648342132568 33.359759822487831 96.705367535352707 305.08695784211159 76.97170501947403 35.615552991628647 1206.1087462306023
leaf_count=229 3923 202 542 404 214 1941 200 239 1819 356 311 3788 229 205 586 1876 466 209 7590
internal_value=0 0.0139004 -0.00143557 0.0100427 0.000728272 0.00234895 0.0159986 0.0191723 0.00141875 0.00497522 0.00766697 -0.00343803 0.015636 -0.00279485 0.00255101 0.00379489 0.00867525 0.0114875 -0.0029631
internal_weight=0 369.973 3705.09 325.815 1780.78 1155.19 149.777 116.413 1007.11 176.037 110.822 1924.3 80.5754 1326.58 715.724 401.792 148.082 71.1101 1293.22
internal_count=25329 2170 23159 1941 11034 7111 870 668 6222 1071 667 12125 468 8337 4403 2462 889 423 8132
is_linear=0
shrinkage=0.01


Tree=5
num_leaves=20
num_cat=0
split_feature=5 3 5 4 1 4 1 1 4 0 5 5 1 0 1 3 2 2 2
split_gain=773.492 376.138 159.611 94.361 85.4445 66.4682 50.0539 31.6876 31.317 21.1802 22.0859 17.6876 15.0405 14.4418 13.9974 11.4007 10.7064 10.4326 14.4696
threshold=124.20839529323412 352.91220395647878 501.50367183420047 1349.2297660385254 172572.03179924135 603.44357330099422 172772.03179924135 188772.03179924135 2417.3423304096582 991619.66918945208 87.517677593159362 1547.2097495725427 181772.03179924135 1020619.6691894521 197572.03179924135 534.01187567011141 391.75780949302322 504.12991067809554 333.04835214911009
decision_type=2 2 2 2 2 2 2 2 2 2 2 2 2 2 2 2 2 2 2
left_child=1 -1 4 6 -2 17 -3 12 14 -5 -11 13 -8 16 15 -7 -4 18 -6
right_child=2 3 11 9 5 8 7 -9 -10 10 -12 -13 -14 -15 -16 -17 -18 -19 -20
leaf_value=0.040400192278185684 -0.0022582845469329149 0.0048763747596724605 0.00042741773048303629 0.00039886574976518173 0.0067859620139594911 0.0064746596180535465 0.018193772411731632 0.011950637508754431 -0.0013574651978930847 0.011635576109613337 0.0027055183407163619 -0.0048649834606942508 0.027154649204756857 0.0036949141688512235 -0.0024653906522282875 0.0024400168409635077 -0.0032024860773168101 0.0060102591615810129 0.015756198562268536
leaf_weight=46.06969790160656 624.17631258070469 33.528994530439377 87.145633071660995 65.241070866584778 35.739160150289536 79.541889309883118 37.565374121069908 43.744297593832016 290.98869240283966 60.838135167956352 50.838367193937302 594.82625812292099 37.359316140413284 33.484331712126732 51.990385249257088 586.02163660526276 1202.2455444037914 77.440900817513466 36.193327307701111
leaf_count=229 3923 202 542 404 214 482 212 246 1819 356 311 3788 210 205 322 3599 7590 466 209
internal_value=0 0.0136383 -0.00143052 0.00989215 0.000724088 0.00233174 0.0156652 0.0187135 0.00140968 0.00492576 0.00757036 -0.00343277 0.0226619 -0.00278878 0.00253184 0.0029222 -0.00295715 0.00855731 0.0112994
internal_weight=0 375.185 3699.79 329.116 1782.09 1157.92 152.198 118.669 1008.54 176.918 111.677 1917.7 74.9247 1322.88 717.554 665.564 1289.39 149.373 71.9325
internal_count=25329 2170 23159 1941 11034 7111 870 668 6222 1071 667 12125 422 8337 4403 4081 8132 889 423
is_linear=0
shrinkage=0.01


Tree=6
num_leaves=20
num_cat=0
split_feature=5 3 5 4 1 4 1 4 2 0 5 5 4 0 0 3 2 4 2
split_gain=756.436 349.113 158.686 90.5964 84.5293 64.9998 47.6364 30.9264 29.8279 20.7001 21.3907 17.708 16.2122 14.3282 13.8706 13.7146 10.6614 10.1426 10.0633
threshold=124.20839529323412 352.91220395647878 501.50367183420047 1349.2297660385254 172572.03179924135 603.44357330099422 172772.03179924135 2417.3423304096582 339.44798463228392 991619.66918945208 87.517677593159362 1547.2097495725427 746.69385008813481 1020619.6691894521 1000019.6691894521 803.42692843978898 391.75780949302322 925.31247907658474 504.12991067809554
decision_type=2 2 2 2 2 2 2 2 2 2 2 2 2 2 2 2 2 2 2
left_child=1 -1 4 6 -2 18 -3 14 -8 -5 -11 13 -10 16 17 -16 -4 -7 -6
right_child=2 3 11 9 5 7 8 -9 12 10 -12 -13 -14 -15 15 -17 -18 -19 -20
leaf_value=0.038603924685213432 -0.0022521633597623286 0.0048284971767699253 0.00042511316974024212 0.00039672651030688033 0.011116483640393762 0.0049559524095546389 0.025677495885675632 -0.0013525636401062243 0.019425314097357163 0.011443528901109952 0.0026847911529040607 -0.0048644913994174126 0.010605324663235308 0.0036629721200463249 0.0069993213231617259 0.0026983672206984124 -0.0031968299101355112 0.00013772206708419143 0.0059444877206843438
leaf_weight=47.969031274318695 622.7683295160532 33.6928940564394 87.182888835668564 65.267095789313316 72.750622630119324 52.409816071391106 37.528534919023514 290.5939456820488 40.998447969555855 61.550154700875282 50.976098999381065 591.93946087360382 42.386003836989403 33.608282849192619 97.783781960606575 306.61957955360413 1198.401569545269 262.56104376912117 77.907741621136665
leaf_count=229 3923 202 542 404 423 322 200 1819 227 356 311 3788 241 205 586 1876 7590 1619 466
internal_value=0 0.0133848 -0.00142548 0.00974537 0.000719932 0.0023147 0.0153439 0.00140068 0.018274 0.00487703 0.00747569 -0.0034275 0.0149419 -0.0027827 0.00251287 0.00373833 -0.00295121 0.000939455 0.00844197
internal_weight=0 380.368 3694.53 332.399 1783.39 1160.63 154.606 1009.97 120.913 177.793 112.526 1911.13 83.3845 1319.19 719.374 404.403 1285.58 314.971 150.658
internal_count=25329 2170 23159 1941 11034 7111 870 6222 668 1071 667 12125 468 8337 4403 2462 8132 1941 889
is_linear=0
shrinkage=0.01


Tree=7
num_leaves=20
num_cat=0
split_feature=5 3 5 4 1 4 1 4 1 0 5 5 0 1 1 3 2 2 2
split_gain=739.947 324.755 157.764 87.0277 83.6251 63.5739 45.3728 30.5413 29.1789 20.2338 20.7238 17.7282 14.2157 13.7535 13.643 11.0361 10.6166 9.7112 13.6932
threshold=124.20839529323412 352.91220395647878 501.50367183420047 1349.2297660385254 172572.03179924135 603.44357330099422 172772.03179924135 2417.3423304096582 188772.03179924135 991619.66918945208 87.517677593159362 1547.2097495725427 1020619.6691894521 197572.03179924135 181772.03179924135 534.01187567011141 391.75780949302322 504.12991067809554 333.04835214911009
decision_type=2 2 2 2 2 2 2 2 2 2 2 2 2 2 2 2 2 2 2
left_child=1 -1 4 6 -2 17 -3 13 14 -5 -11 12 16 15 -8 -7 -4 18 -6
right_child=2 3 11 9 5 7 8 -9 -10 10 -12 -13 -14 -15 -16 -17 -18 -19 -20
leaf_value=0.036954012005398211 -0.0022460447608552477 0.0047813190696047916 0.0004228217889148019 0.00039459947621702586 0.006577447755435153 0.0063543881273667091 0.017364073198271938 -0.0013476732230019144 0.011447645049372766 0.011256817311319903 0.0026642784851325127 -0.0048639968763024488 0.0036314228905733859 -0.0024629726952177184 0.025725315323986912 0.0024043330341271645 -0.0031911656116413167 0.005879823513987862 0.01520675702302138
leaf_weight=49.85703082382679 621.367302775383 33.855973899364471 87.219959169626236 65.292996719479561 36.38474029302597 80.386980503797531 38.961167678236961 290.20116589963436 45.084843412041664 62.258553221821785 51.113141804933548 589.06700080633163 33.731615006923676 51.940158098936081 39.099195405840874 588.85893979668617 1194.5765978693962 78.372243508696556 37.179125279188156
leaf_count=229 3923 202 542 404 214 482 212 1819 246 356 311 3788 205 322 210 3599 7590 466 209
internal_value=0 0.0131394 -0.00142045 0.00960221 0.000715804 0.00229782 0.015034 0.00139175 0.0178527 0.00482903 0.00738291 -0.00342222 -0.00277662 0.00249408 0.0215521 0.0028788 -0.00294525 0.00832921 0.0109387
internal_weight=0 385.523 3689.29 335.666 1784.69 1163.32 157.001 1011.39 123.145 178.665 113.372 1904.6 1315.53 721.186 78.0604 669.246 1281.8 151.936 73.5639
internal_count=25329 2170 23159 1941 11034 7111 870 6222 668 1071 667 12125 8337 4403 422 4081 8132 889 423
is_linear=0
shrinkage=0.01


Tree=8
num_leaves=20
num_cat=0
split_feature=5 3 5 4 1 4 1 4 1 0 5 5 0 1 1 3 2 2 3
split_gain=723.998 302.723 156.847 83.6424 82.7318 62.1871 39.3335 30.1618 27.1528 19.7808 20.0838 17.7482 14.1044 13.5777 13.0222 10.7997 10.5718 9.43222 11.0223
threshold=124.20839529323412 352.91220395647878 501.50367183420047 1349.2297660385254 172572.03179924135 603.44357330099422 172972.03179924135 2417.3423304096582 188772.03179924135 991619.66918945208 87.517677593159362 1547.2097495725427 1020619.6691894521 197572.03179924135 181772.03179924135 534.01187567011141 391.75780949302322 451.72366258099794 824.00435359042285
decision_type=2 2 2 2 2 2 2 2 2 2 2 2 2 2 2 2 2 2 2
left_child=1 -1 4 6 -2 17 -3 13 14 -5 -11 12 16 15 -8 -7 -4 -6 -19
right_child=2 3 11 9 5 7 8 -9 -10 10 -12 -13 -14 -15 -16 -17 -18 18 -20
leaf_value=0.035433177692962725 -0.002239928973386381 0.0054555662869456775 0.00042054387569135667 0.00039248451515570566 0.011151990746253249 0.0062826831387865099 0.016785790306215981 -0.0013427938222649036 0.01126082068577265 0.011075225724954497 0.0026439767513315531 -0.0048635007973667791 0.0036002589847923716 -0.0024568005240381383 0.024945844364020267 0.0023866340083237188 -0.0031854933279320298 0.0017947881390380819 0.0089735894356246966
leaf_weight=51.733914747834206 619.97328041493893 35.503801196813583 87.256843417882919 65.318766191601753 63.904330343008041 80.899414926767349 38.158036574721336 289.81033785641193 45.603924453258514 62.963346853852272 51.249503836035728 586.20870858430862 33.854330748319626 51.812389388680458 40.118084326386452 590.27645918726921 1190.7705211043358 35.499591633677483 53.804160535335541
leaf_count=229 3923 210 542 404 365 482 204 1819 246 356 311 3788 205 322 210 3599 7590 208 316
internal_value=0 0.0129018 -0.00141543 0.00946252 0.000711702 0.0022811 0.014735 0.00138289 0.0173945 0.00478173 0.00729196 -0.00341693 -0.00277053 0.00247548 0.020968 0.00285624 -0.00293929 0.00821883 0.00611991
internal_weight=0 390.649 3684.07 338.915 1785.98 1166.01 159.384 1012.8 123.88 179.532 114.213 1898.09 1311.88 722.988 78.2761 671.176 1278.03 153.208 89.3038
internal_count=25329 2170 23159 1941 11034 7111 870 6222 660 1071 667 12125 8337 4403 414 4081 8132 889 524
is_linear=0
shrinkage=0.01


Tree=9
num_leaves=20
num_cat=0
split_feature=5 3 5 1 4 4 1 1 4 0 5 0 3 5 0 0 1 1 2
split_gain=708.564 282.731 155.935 81.8494 80.4289 61.1953 37.4967 25.5707 21.9188 19.3408 19.4693 18.5762 18.8372 17.7681 14.5461 13.9943 12.3781 12.1018 10.5271
threshold=124.20839529323412 352.91220395647878 501.50367183420047 172572.03179924135 1349.2297660385254 1192.4452792565705 172972.03179924135 188772.03179924135 436.53367033644525 991619.66918945208 87.517677593159362 999419.66918945208 606.601946619454 1547.2097495725427 1010019.6691894521 1020619.6691894521 183572.03179924135 181772.03179924135 391.75780949302322
decision_type=2 2 2 2 2 2 2 2 2 2 2 2 2 2 2 2 2 2 2
left_child=1 -1 3 -2 6 8 -3 17 16 -6 -11 -7 -13 15 -10 18 -5 -8 -4
right_child=2 4 13 5 9 11 7 -9 14 10 -12 12 -14 -15 -16 -17 -18 -19 -20
leaf_value=0.034026776194555478 -0.0022338164378120796 0.0053988666506556713 0.00041827892088847822 0.014377778283961435 0.00039038191853380281 -0.00088172026237755068 0.016423719217081773 0.011079120035070207 0.0031399912215074634 0.010898547392559098 0.0026238831191128307 0.0093176252314182331 0.0014856204851351959 -0.0048630012685269668 0.0081816564124816658 0.0035694743679118386 0.0064741734865287207 0.02420890189768593 -0.0031798130498669848
leaf_weight=53.599873706698418 618.58610813319683 35.698022603988647 87.293549507856369 35.670654982328415 65.344405293464661 413.79653999209404 38.803954795002937 46.120364308357239 275.11014495790005 63.664556816220284 51.38518525660038 34.305369287729263 292.95632311701775 583.36464065313339 72.257031604647636 33.976436033844948 44.580316379666328 41.131450966000557 1186.9833414852619
leaf_count=229 3923 210 542 204 404 2573 204 246 1652 356 311 201 1795 3788 429 205 257 210 7590
internal_value=0 0.0126716 -0.00141042 0.000707628 0.00932621 0.00226455 0.0144464 0.0170085 0.00527693 0.00473513 0.0072028 0.000526293 0.00230661 -0.00341163 0.00418873 -0.00276444 0.00998724 0.0204297 -0.00293333
internal_weight=0 395.748 3678.88 1787.26 342.148 1168.68 161.754 126.056 427.618 180.394 115.05 741.058 327.262 1891.62 347.367 1308.25 80.251 79.9354 1274.28
internal_count=25329 2170 23159 11034 1941 7111 870 660 2542 1071 667 4569 1996 12125 2081 8337 461 414 8132
is_linear=0
shrinkage=0.01


Tree=10
num_leaves=20
num_cat=0
split_feature=5 3 1 4 4 5 1 2 1 0 5 1 0 4 5 0 5 1 3
split_gain=714.287 307.195 194.835 137.058 72.5687 55.6117 45.4107 51.1532 34.9092 31.8284 29.2854 27.1907 26.6884 30.2443 18.6258 15.6426 17.4956 15.493 13.8441
threshold=120.81026563590613 352.91220395647878 178172.03179924135 1031.1770044829229 1349.2297660385254 615.70837903702807 171772.03179924135 339.44798463228392 192572.03179924135 995219.66918945208 523.88182055459845 193772.03179924135 997619.66918945208 524.55196974649323 78.592260838936781 994419.66918945208 91.399148044012477 171172.03179924135 803.42692843978898
decision_type=2 2 2 2 2 2 2 2 2 2 2 2 2 2 2 2 2 2 2
left_child=1 -1 10 8 6 9 -3 -8 12 -5 17 -11 -4 -14 -9 -6 -17 -2 -15
right_child=2 4 3 5 15 -7 7 14 -10 11 -12 -13 13 18 -16 16 -18 -19 -20
leaf_value=0.034018354473754772 -0.0026667743620032748 0.0041769195709431819 0.0033177897050294986 -0.0014062254350817173 0.0013808908712563239 -0.0033444976459167598 0.026142259884773714 0.017382360954716396 0.0010014386259093911 0.004273762980923696 -0.0040846791077284554 -0.001087350233152739 0.017069599614179528 0.013579034332427305 0.0079158432562894017 0.01066225955037821 0.0021417407018751232 0.00013861167997881186 0.0062513701312576003
leaf_weight=58.22870734333992 604.58999362587929 36.094083532691002 57.945521712303162 255.64472676813602 77.204941406846046 351.55778595805168 40.503903463482857 39.824211657047272 65.356283366680145 376.63902705907822 1350.4717186391354 126.3374117910862 58.088209912180901 36.128555849194527 43.472535744309425 62.067634925246239 39.394485533237457 291.90132197737694 90.040110185742378
leaf_count=240 3842 212 346 1599 471 2250 200 207 388 2298 8704 786 331 212 232 345 238 1790 544
internal_value=0 0.0128017 -0.00132299 0.00157979 0.00915269 -5.67344e-05 0.0140467 0.0169242 0.00748706 0.00146687 -0.00315452 0.00292716 0.00923714 0.0110987 0.0124418 0.00477293 0.00735402 -0.00175333 0.00834966
internal_weight=0 396.791 3664.7 1417.74 338.562 1110.18 159.895 123.801 307.559 758.621 2246.96 502.976 242.202 184.257 83.2967 178.667 101.462 896.491 126.169
internal_count=25235 2145 23090 8754 1905 6933 851 639 1821 4683 14336 3084 1433 1087 439 1054 583 5632 756
is_linear=0
shrinkage=0.01


Tree=11
num_leaves=20
num_cat=0
split_feature=5 3 1 4 4 5 1 2 1 0 4 5 5 0 1 3 1 1 3
split_gain=698.993 287.442 193.461 134.751 70.3186 49.5583 47.9974 39.0883 30.4325 32.6602 40.2095 30.0533 29.2577 27.0304 23.2449 18.1461 15.4055 13.7935 13.5352
threshold=120.81026563590613 352.91220395647878 178172.03179924135 1234.8230801276761 1822.5997917197199 615.70837903702807 171772.03179924135 333.04835214911009 192972.03179924135 997619.66918945208 524.55196974649323 78.592260838936781 523.88182055459845 995219.66918945208 193772.03179924135 658.15180383335178 171172.03179924135 189172.03179924135 720.64309979352572
decision_type=2 2 2 2 2 2 2 2 2 2 2 2 2 2 2 2 2 2 2
left_child=1 -1 12 8 6 13 -3 -8 9 -4 -11 -9 16 -5 15 -15 -2 -6 -12
right_child=2 4 3 5 17 -7 7 11 -10 10 18 -13 -14 14 -16 -17 -18 -19 -20
leaf_value=0.032714480524102113 -0.0026606351863502509 0.0035219315794372662 0.0021601428989831569 -0.0015023601667618236 0.0011690668989340867 -0.0035357824323291919 0.022664265663889266 0.017159727644767225 0.00083210820250590204 0.016669117456434946 0.012792085329237781 0.0070656503619024097 -0.004081072715712614 0.0094007691127998075 -0.0012344671966218539 0.0029866056339432575 0.00013790420114810346 0.0084158117604131166 0.0059928250925235429
leaf_weight=60.243628710508347 602.97986471652985 45.948385387659073 79.988817885518074 242.52971982955933 92.910748273134232 335.64779669046402 48.135877177119255 57.399623259902 79.338233515620232 59.625687718391418 36.040219753980637 60.674046620726585 1344.9666849523783 52.900396317243576 112.55871483683586 265.32675096392632 291.94178678095341 36.61726738512516 156.04071891307831
leaf_count=240 3842 270 481 1521 554 2156 238 301 475 334 209 332 8704 314 702 1623 1790 210 939
internal_value=0 0.0125745 -0.0013182 0.00156937 0.0090236 -0.000396807 0.0125683 0.0150691 0.00639575 0.00772651 0.00949543 0.0119727 -0.0031488 0.00116797 0.00267135 0.00405286 -0.00174769 0.0032177 0.00726857
internal_weight=0 401.93 3659.89 1420 341.686 1008.96 212.158 166.21 411.034 331.695 251.707 118.074 2239.89 673.316 430.786 318.227 894.922 129.528 192.081
internal_count=25235 2145 23090 8754 1905 6316 1141 871 2438 1963 1482 633 14336 4160 2639 1937 5632 764 1148
is_linear=0
shrinkage=0.01


Tree=12
num_leaves=20
num_cat=0
split_feature=5 3 1 4 4 5 1 2 1 0 4 5 5 0 1 3 1 1 3
split_gain=684.185 269.413 192.097 132.402 67.9015 49.2033 46.0535 36.809 29.6809 31.712 38.4929 29.2297 28.6903 26.6996 22.8881 17.6717 15.3184 13.4823 13.0542
threshold=120.81026563590613 352.91220395647878 178172.03179924135 1234.8230801276761 1822.5997917197199 615.70837903702807 171772.03179924135 333.04835214911009 192972.03179924135 997619.66918945208 524.55196974649323 523.88182055459845 78.592260838936781 995219.66918945208 193772.03179924135 658.15180383335178 171172.03179924135 189172.03179924135 720.64309979352572
decision_type=2 2 2 2 2 2 2 2 2 2 2 2 2 2 2 2 2 2 2
left_child=1 -1 11 8 6 13 -3 -8 9 -4 -11 16 -9 -5 15 -15 -2 -6 -12
right_child=2 4 3 5 17 -7 7 12 -10 10 18 -13 -14 14 -16 -17 -18 -19 -20
leaf_value=0.031501732825020445 -0.0026544936392451359 0.0034920909346482943 0.002144766405721232 -0.0014971526012698788 0.0011618989127141783 -0.0035307171919967866 0.02204509202781308 0.016783297685776976 0.00082728561448913111 0.016311470930547016 0.012566370945185873 -0.0040774543296350418 0.0069809394607326606 0.0092663444885454169 -0.0012298579892713684 0.0029628900680837866 0.0001372004111445945 0.0083036664854189406 0.0059273479875807771
leaf_weight=62.24705958366394 601.37769632041454 46.110497370362282 80.161792248487473 242.16563521325588 93.019429191946983 334.46310013532639 49.23929899930954 58.393084600567818 79.404279053211212 60.627924546599388 36.504210457205772 1339.4889870882034 61.104266569018364 53.400045678019524 112.4198492616415 266.12036414444447 291.98205134272575 36.926732897758484 156.9786501377821
leaf_count=240 3842 270 481 1521 554 2156 238 301 475 334 209 8704 332 314 702 1623 1790 210 939
internal_value=0 0.0123543 -0.00131342 0.00155904 0.00889752 -0.00039502 0.0123488 0.014769 0.00632315 0.00762866 0.00935861 -0.00314307 0.0117709 0.00116078 0.00265094 0.00401636 -0.00174207 0.00319137 0.00717993
internal_weight=0 407.04 3655.09 1422.25 344.793 1008.57 214.847 168.737 413.677 334.273 254.111 2232.85 119.497 674.106 431.94 319.52 893.36 129.946 193.483
internal_count=25235 2145 23090 8754 1905 6316 1141 871 2438 1963 1482 14336 633 4160 2639 1937 5632 764 1148
is_linear=0
shrinkage=0.01


Tree=13
num_leaves=20
num_cat=0
split_feature=5 3 1 4 4 5 1 2 5 1 0 4 0 1 3 4 1 0 5
split_gain=669.84 252.915 190.743 130.105 65.6 48.8508 38.3507 37.9614 29.2012 28.9529 30.7991 36.8713 26.3735 22.538 17.2131 15.4277 15.2315 14.6966 16.5263
threshold=120.81026563590613 352.91220395647878 178172.03179924135 1234.8230801276761 1349.2297660385254 615.70837903702807 172172.03179924135 346.22755038725762 523.88182055459845 192972.03179924135 997619.66918945208 524.55196974649323 995219.66918945208 193772.03179924135 658.15180383335178 813.35837429767673 171172.03179924135 994419.66918945208 91.399148044012477
decision_type=2 2 2 2 2 2 2 2 2 2 2 2 2 2 2 2 2 2 2
left_child=1 -1 8 9 6 12 -3 -8 16 10 -4 -12 -5 14 -14 -9 -2 -6 -19
right_child=2 4 3 5 17 -7 7 15 -10 -11 11 -13 13 -15 -16 -17 -18 18 -20
leaf_value=0.030370846985389683 -0.0026483498502822876 0.0043945057472567833 0.0021295321201717206 -0.0014919557962185263 0.0013323398330760629 -0.0035256412264149961 0.023377001141516845 0.016207530660977441 -0.0040738246336429994 0.00082249506562001628 0.015967221434233608 0.0070929913900851047 0.0091350736507790197 -0.0012252604466041807 0.0029394328365398722 0.0076606434874366795 0.00013650035557086007 0.010240819309803913 0.0020397737876159954
leaf_weight=64.239162504673004 599.78343586623669 37.391728937625885 80.333905145525932 241.80333453416824 77.800094842910767 333.28429149091244 44.45564977824688 42.506196215748787 1334.0383615493774 79.469996124505997 61.624966025352478 194.87771145999432 53.897166669368744 112.28167493641376 266.91001290082932 41.975222215056419 292.02211490273476 63.787787795066833 39.967872396111488
leaf_count=240 3842 217 481 1521 471 2156 205 212 8704 475 334 1148 314 702 1623 217 1790 345 238
internal_value=0 0.0121407 -0.00130865 0.00154879 0.00877434 -0.000393241 0.0133112 0.015897 -0.00313733 0.00625184 0.00753279 0.00922503 0.00115364 0.00263074 0.00398033 0.0119609 -0.00173645 0.00461798 0.00708168
internal_weight=0 412.124 3650.33 1424.48 347.885 1008.18 166.329 128.937 2225.84 416.307 336.837 256.503 674.892 433.089 320.807 84.4814 891.806 181.556 103.756
internal_count=25235 2145 23090 8754 1905 6316 851 634 14336 2438 1963 1482 4160 2639 1937 429 5632 1054 583
is_linear=0
shrinkage=0.01


Tree=14
num_leaves=20
num_cat=0
split_feature=5 3 1 4 4 5 1 1 5 1 0 4 4 0 1 3 1 1 3
split_gain=655.937 237.781 189.398 127.858 63.7026 48.5009 42.6596 34.0067 29.1723 28.2479 29.9201 35.3378 27.6657 26.0519 22.1944 16.7696 15.145 13.0425 12.5061
threshold=120.81026563590613 352.91220395647878 178172.03179924135 1234.8230801276761 1822.5997917197199 615.70837903702807 171772.03179924135 187372.03179924135 523.88182055459845 192972.03179924135 997619.66918945208 524.55196974649323 746.69385008813481 995219.66918945208 193772.03179924135 658.15180383335178 171172.03179924135 189172.03179924135 720.64309979352572
decision_type=2 2 2 2 2 2 2 2 2 2 2 2 2 2 2 2 2 2 2
left_child=1 -1 8 9 6 13 -3 12 16 10 -4 -12 -8 -5 15 -15 -2 -6 -13
right_child=2 4 3 5 17 -7 7 -9 -10 -11 11 18 -14 14 -16 -17 -18 -19 -20
leaf_value=0.029313775569330493 -0.0026422041110543784 0.0034290697113509207 0.0021144383074116662 -0.0014867688414119176 0.0011326303755983366 -0.0035205545646105969 0.023931958222219257 0.0086306633631603336 -0.0040701834464956796 0.00081773616361602839 0.015635632824243278 0.012225064346794295 0.013545660656188974 0.0090068471087538082 -0.0012206744956269468 0.0029162299863805335 0.00013580388286974244 0.0081166461147031375 0.0057864341707713112
leaf_weight=66.22008740901947 598.19712799787521 46.456651538610458 80.505161955952644 241.44284629821777 93.465859115123749 332.11131435632706 42.90982411801815 66.928908184170723 1328.614770963788 79.535386517643929 62.616842836141586 37.22896134853363 63.74411179125309 54.391778171062469 112.14418555796146 267.69573211669922 292.0619782358408 37.454617038369179 159.03592842817307
leaf_count=240 3842 270 481 1521 554 2156 201 342 8704 475 334 209 328 314 702 1623 1790 210 939
internal_value=0 0.0119333 -0.00130389 0.00153863 0.00865393 -0.000391469 0.0119402 0.0142181 -0.00313159 0.0061818 0.00743887 0.00909462 0.0177244 0.00114656 0.00261075 0.00394477 -0.00173084 0.00313066 0.00700776
internal_weight=0 417.18 3645.58 1426.71 350.96 1007.79 220.039 173.583 2218.87 418.922 339.387 258.882 106.654 675.675 434.232 322.088 890.259 130.92 196.265
internal_count=25235 2145 23090 8754 1905 6316 1141 871 14336 2438 1963 1482 529 4160 2639 1937 5632 764 1148
is_linear=0
shrinkage=0.01


Tree=15
num_leaves=20
num_cat=0
split_feature=5 3 1 4 4 5 1 1 5 1 0 4 1 0 1 3 1 1 3
split_gain=642.456 223.868 188.063 125.66 61.5808 48.1535 40.9971 32.3195 29.143 27.5646 29.0731 33.8872 27.1732 25.7348 21.8572 16.3407 15.0588 12.7536 12.0742
threshold=120.81026563590613 352.91220395647878 178172.03179924135 1234.8230801276761 1822.5997917197199 615.70837903702807 171772.03179924135 187372.03179924135 523.88182055459845 192972.03179924135 997619.66918945208 524.55196974649323 182572.03179924135 995219.66918945208 193772.03179924135 658.15180383335178 171172.03179924135 189172.03179924135 720.64309979352572
decision_type=2 2 2 2 2 2 2 2 2 2 2 2 2 2 2 2 2 2 2
left_child=1 -1 8 9 6 13 -3 12 16 10 -4 -12 -8 -5 15 -15 -2 -6 -13
right_child=2 4 3 5 17 -7 7 -9 -10 -11 11 18 -14 14 -16 -17 -18 -19 -20
leaf_value=0.028323494829615541 -0.0026360566372278849 0.0034003320966562744 0.0020994832841146329 -0.0014815924998220435 0.001125727079932239 -0.003515457263590439 0.012942614686356888 0.0085138213220946109 -0.0040665302553107071 0.00081300866039605072 0.01531602057519098 0.01201618359383588 0.023036371291947053 0.0088815620618411494 -0.0012161000343124397 0.0028932774693364804 0.00013511114203878494 0.0080108900234161524 0.0057243963989165826
leaf_weight=68.189980924129486 596.61861631274223 46.616228237748146 80.675564303994179 241.08414821326733 93.571781575679779 330.94415467977524 61.423456892371178 67.509049087762833 1323.2180589735508 79.600451618432999 63.603591248393059 37.686881110072136 47.139112174510956 54.883889243006706 112.00737775862217 268.47753468155861 292.10164326429367 37.759859457612038 159.95884887874126
leaf_count=240 3842 270 481 1521 554 2156 305 342 8704 475 334 209 224 314 702 1623 1790 210 939
internal_value=0 0.011732 -0.00129914 0.00152855 0.00853623 -0.000389703 0.0117391 0.0139469 -0.00312584 0.00611296 0.00734679 0.0089672 0.0173254 0.00113952 0.00259096 0.00390966 -0.00172524 0.00310532 0.00692411
internal_weight=0 422.209 3640.86 1428.92 354.019 1007.4 222.688 176.072 2211.94 421.525 341.925 261.249 108.563 676.453 435.369 323.361 888.72 131.332 197.646
internal_count=25235 2145 23090 8754 1905 6316 1141 871 14336 2438 1963 1482 529 4160 2639 1937 5632 764 1148
is_linear=0
shrinkage=0.01


Tree=16
num_leaves=20
num_cat=0
split_feature=5 3 1 4 4 5 1 2 5 1 0 4 5 0 1 3 1 1 3
split_gain=629.38 211.048 186.737 123.51 59.5506 47.8086 39.4193 31.3307 29.1133 26.9024 28.2567 32.5136 26.1045 25.4222 21.5262 15.9256 14.973 12.4729 11.8122
threshold=120.81026563590613 352.91220395647878 178172.03179924135 1234.8230801276761 1822.5997917197199 615.70837903702807 171772.03179924135 333.04835214911009 523.88182055459845 192972.03179924135 997619.66918945208 524.55196974649323 78.592260838936781 995219.66918945208 193772.03179924135 658.15180383335178 171172.03179924135 189172.03179924135 779.75096253404638
decision_type=2 2 2 2 2 2 2 2 2 2 2 2 2 2 2 2 2 2 2
left_child=1 -1 8 9 6 13 -3 -8 16 10 18 -12 -9 -5 15 -15 -2 -6 -4
right_child=2 4 3 5 17 -7 7 12 -10 -11 11 -13 -14 14 -16 -17 -18 -19 -20
leaf_value=0.027393851981420761 -0.0026299070082839793 0.0033719328785753069 0.0061733379727826254 -0.0014764264125364504 0.0011188733967072066 -0.0035103497236741049 0.020132657523538405 0.015597512209502331 -0.0040628656411971593 0.00080831226410028021 0.015007749933619597 0.0068420287032269133 0.0064768730765805338 0.0087591199802299312 -0.0012115372146120247 0.0028705716314360958 0.00013442193870489034 0.0079073499280557426 -0.0014888344495563458
leaf_weight=70.148971438407898 595.04799690842628 46.77500781416893 37.704712614417076 240.72721832990646 93.67717781662941 329.78277054429054 52.99119208753109 61.760318845510483 1317.8481010198593 79.665194734930992 64.585242941975594 199.01960849761963 63.795986890792847 55.373515143990517 111.87124635279179 269.25544400513172 292.14110647141933 38.06356543302536 43.140406370162964
leaf_count=240 3842 270 221 1521 554 2156 238 301 8704 475 334 1148 332 314 702 1623 1790 210 260
internal_value=0 0.0115365 -0.0012944 0.00151855 0.00842113 -0.000387945 0.0115438 0.0136846 -0.00312008 0.00604531 0.00725653 0.00884269 0.0109633 0.00113254 0.00257137 0.00387501 -0.00171965 0.00308025 0.00208467
internal_weight=0 427.212 3636.16 1431.13 357.063 1007.01 225.323 178.547 2205.04 424.115 344.45 263.605 125.556 677.227 436.5 324.629 887.189 131.741 80.8451
internal_count=25235 2145 23090 8754 1905 6316 1141 871 14336 2438 1963 1482 633 4160 2639 1937 5632 764 481
is_linear=0
shrinkage=0.01


Tree=17
num_leaves=20
num_cat=0
split_feature=5 3 1 4 4 5 1 1 0 5 2 0 0 2 1 2 5 1 3
split_gain=617.902 259.454 159.611 101.327 57.3528 43.8599 35.7172 42.8028 24.2482 22.9228 21.9713 20.4021 19.3512 30.3803 18.1745 15.1968 14.0701 15.7716 13.6282
threshold=150.01738503927854 352.91220395647878 178172.03179924135 1162.5891476168483 1349.2297660385254 615.70837903702807 171772.03179924135 187372.03179924135 994819.66918945208 523.88182055459845 372.55528257523662 1007419.6691894521 1002819.6691894521 451.72366258099794 193772.03179924135 890.71260346505881 99.143222152776474 172972.03179924135 577.81481682654214
decision_type=2 2 2 2 2 2 2 2 2 2 2 2 2 2 2 2 2 2 2
left_child=1 -1 9 12 6 8 -3 10 -5 -2 -8 16 15 -14 18 -4 17 -6 -10
right_child=2 4 3 5 11 -7 7 -9 14 -11 -12 -13 13 -15 -16 -17 -18 -19 -20
leaf_value=0.025767460827824232 -0.0019343200164215397 0.0031274916055429652 0.0047675726162501285 -0.0017317179745796019 4.5598671225209115e-05 -0.0034146559172814955 0.021787355509090018 0.0062669452331855068 0.0087719580202197008 -0.0040591895569369683 0.012791936281789658 0.010364186525101906 0.014512063417609387 0.005567027770957386 -0.001077456464493611 -0.0028899539543757687 -0.00012999387071530982 0.0077911017125939447 0.0027704666613177138
leaf_weight=84.598751977086067 827.96395365893841 53.13007415831089 111.98523934185505 213.34915615618229 41.904026508331299 335.22492352128029 43.359285414218903 70.329759433865547 43.675080522894859 1312.5047138780355 72.644177779555321 37.834214299917221 50.313389629125595 154.75348503887653 113.15718372166157 33.720328569412231 109.5978973954916 70.549752771854401 283.08034406602383
leaf_count=312 5268 315 651 1350 246 2197 196 354 245 8704 362 212 271 877 712 204 673 387 1699
internal_value=0 0.00957311 -0.00154317 0.0011644 0.0068295 -0.000474139 0.0103601 0.0124224 0.0010348 -0.00323726 0.0161542 0.00357636 0.00578186 0.0077617 0.00237651 0.00299541 0.00241982 0.00490487 0.00357264
internal_weight=0 583.948 3479.73 1339.26 499.349 988.487 239.463 186.333 653.262 2140.47 116.003 259.886 350.772 205.067 439.913 145.706 222.052 112.454 326.755
internal_count=25235 3057 22178 8206 2745 6203 1227 912 4006 13972 558 1518 2003 1148 2656 855 1306 633 1944
is_linear=0
shrinkage=0.01


Tree=18
num_leaves=20
num_cat=0
split_feature=5 3 1 4 4 1 1 0 4 5 5 2 0 2 3 1 5 1 1
split_gain=606.795 246.194 158.6 100.053 55.6082 34.4524 40.9167 33.8861 29.2085 22.9067 21.7566 20.6678 19.8706 18.4698 17.6249 18.8016 13.8302 15.417 12.5262
threshold=150.01738503927854 352.91220395647878 178172.03179924135 2055.5245638587758 1349.2297660385254 171772.03179924135 187372.03179924135 1000419.6691894521 524.55196974649323 523.88182055459845 534.30389721350241 372.55528257523662 1007419.6691894521 890.71260346505881 803.42692843978898 185972.03179924135 99.143222152776474 172972.03179924135 171172.03179924135
decision_type=2 2 2 2 2 2 2 2 2 2 2 2 2 2 2 2 2 2 2
left_child=1 -1 9 7 5 -3 11 13 -9 18 -5 -7 16 -4 15 -10 17 -6 -2
right_child=2 4 3 10 12 6 -8 8 14 -11 -12 -13 -14 -15 -16 -17 -18 -19 -20
leaf_value=0.024985658028211413 -0.0027947538736226313 0.0031022191373667363 0.0027650640719963323 4.7109650731886784e-05 4.5370199520884312e-05 0.021210777621709486 0.0061967700221493942 0.011428586338656139 0.013169421293352232 -0.0040555017993965884 -0.0036811024451410268 0.01256622635566854 0.010206123526295663 -0.002839264146631305 0.0030785590188878395 0.0041956949130589772 -0.00012936517379278636 0.0076920970395215919 -0.00017869042184505261
leaf_weight=86.806972563266754 552.71544575691223 53.29649829864502 172.03651130199432 323.16218329966068 41.905937179923058 44.314335972070694 70.771896049380302 67.705883100628853 40.804455995559692 1307.1878136098385 303.56086687743664 73.579406782984734 38.228374436497688 89.344960063695908 289.64204573631287 54.575930267572403 109.5836516469717 71.101559951901436 273.64852733910084
leaf_count=312 3587 315 1030 2012 246 196 354 351 228 8704 1993 362 212 561 1723 308 673 387 1681
internal_value=0 0.00943402 -0.00153791 0.00115721 0.00674897 0.0102018 0.0122074 0.00371629 0.00537147 -0.00323166 -0.00175869 0.0158156 0.00354578 0.000849402 0.00430633 0.00803472 0.00240192 0.0048565 -0.00192845
internal_weight=0 589.589 3474.38 1340.83 502.782 241.962 188.666 714.11 452.728 2133.55 626.723 117.894 260.82 261.381 385.022 95.3804 222.591 113.007 826.364
internal_count=25235 3057 22178 8206 2745 1227 912 4201 2610 13972 4005 558 1518 1591 2259 536 1306 633 5268
is_linear=0
shrinkage=0.01


Tree=19
num_leaves=20
num_cat=0
split_feature=5 3 1 4 4 1 1 0 4 5 5 4 0 2 3 1 5 1 1
split_gain=595.969 233.848 157.596 98.7513 53.9315 33.2459 39.1385 33.2168 28.3118 22.8902 21.6579 19.6338 19.357 18.2728 17.1811 18.1457 13.5952 15.0725 12.4632
threshold=150.01738503927854 352.91220395647878 178172.03179924135 2055.5245638587758 1349.2297660385254 171772.03179924135 187372.03179924135 1000419.6691894521 524.55196974649323 523.88182055459845 534.30389721350241 565.28221728319704 1007419.6691894521 890.71260346505881 803.42692843978898 185972.03179924135 99.143222152776474 172972.03179924135 171172.03179924135
decision_type=2 2 2 2 2 2 2 2 2 2 2 2 2 2 2 2 2 2 2
left_child=1 -1 9 7 5 -3 11 13 -9 18 -5 -7 16 -4 15 -10 17 -6 -2
right_child=2 4 3 10 12 6 -8 8 14 -11 -12 -13 -14 -15 -16 -17 -18 -19 -20
leaf_value=0.024246572222956286 -0.0027886776730566103 0.0030772290575246061 0.0027437170786114317 4.6873671131388382e-05 4.5142720626205724e-05 0.020645478237476467 0.0061278116577951746 0.011242287544412626 0.012932156003089376 -0.0040518023715972974 -0.0036763644165073851 0.012310136965141999 0.010052063942824808 -0.0028332176423386595 0.0030538320774848617 0.0041573363484884015 -0.00012873953555586046 0.0075951042745243712 -0.000177834965890935
leaf_weight=89.003222838044167 551.17290355265141 53.462091580033302 172.51286067068577 323.17740777134895 41.907838419079781 45.682904541492462 71.211814746260643 68.484104946255684 41.345380827784538 1301.8972309529781 302.4454752355814 74.091267660260201 38.620535641908646 89.091644003987312 290.53509674966335 54.805395096540451 109.56947675347328 71.650590151548386 273.59963843226433
leaf_count=312 3587 315 1030 2012 246 204 354 351 228 8704 1993 354 212 561 1723 308 673 387 1681
internal_value=0 0.00929827 -0.00153265 0.00115007 0.00666994 0.0100476 0.0119987 0.00368401 0.00531602 -0.00322604 -0.00175305 0.0154893 0.00351557 0.000844444 0.00426645 0.00793056 0.00238419 0.00480885 -0.00192259
internal_weight=0 595.2 3469.07 1342.4 506.197 244.448 190.986 716.774 455.17 2126.67 625.623 119.774 261.748 261.605 386.686 96.1508 223.128 113.558 824.773
internal_count=25235 3057 22178 8206 2745 1227 912 4201 2610 13972 4005 558 1518 1591 2259 536 1306 633 5268
is_linear=0
shrinkage=0.01


Tree=20
num_leaves=20
num_cat=0
split_feature=5 3 5 1 4 0 5 0 0 4 3 4 0 2 2 0 1 2 2
split_gain=504.322 156.847 135.685 64.8076 46.1583 42.8823 23.8807 23.2226 22.3197 19.7206 19.7084 15.1295 13.8314 14.0513 13.7628 12.9146 19.2645 13.3987 8.68092
threshold=134.10500223770705 352.91220395647878 529.37721586324017 175372.03179924135 909.03280463243766 998819.66918945208 82.867695799113648 995619.66918945208 1004419.6691894521 1852.8935413902536 606.601946619454 2675.0169331802194 1012819.6691894521 469.89806291871986 391.75780949302322 1014219.6691894521 183972.03179924135 1210.630429719726 475.92569424638003
decision_type=2 2 2 2 2 2 2 2 2 2 2 2 2 2 2 2 2 2 2
left_child=1 -1 3 10 8 -5 7 -6 14 12 -2 15 13 -4 -3 17 -17 -7 -8
right_child=2 4 9 5 6 11 18 -9 -10 -11 -12 -13 -14 -15 -16 16 -18 -19 -20
leaf_value=0.022761133873173422 0.0027276698157514181 0.013087107882015343 0.0042493101489343875 -0.00033554439586990609 0.002999145896634981 0.0040206845645067192 0.0051649313525627127 0.011643543138046185 0.017689470445387427 -0.0040401049496980156 -0.0023947740819702918 -0.0019819549629830004 0.0041183303434634468 -0.002760717339543976 0.0052748836643603039 0.012551466466366011 0.0040755041854844045 -0.001140209112985647 0.00021318205660660422
leaf_weight=73.935188159346581 84.48665551841259 42.652283132076263 31.469871073961258 457.85285757482052 55.241689547896385 401.71200293302536 55.277062475681305 71.044123977422714 43.25694115459919 1371.8633554577827 676.75871853530407 43.5671726167202 39.629319414496422 312.90588514506817 47.848119929432869 41.673042729496956 75.209947571158409 57.506660029292107 98.473942026495934
leaf_count=240 543 204 201 2815 313 2292 316 351 194 9185 4362 270 250 2072 240 235 417 337 570
internal_value=0 0.00934536 -0.00149123 0.000407313 0.00694828 0.00198528 0.00464003 0.00786219 0.0117809 -0.00347941 -0.00182626 0.00370007 -0.00147632 -0.00212012 0.00895674 0.00412976 0.00709749 0.0033744 0.00199345
internal_weight=0 487.729 3594.64 1838.77 413.794 1077.52 280.037 126.286 133.757 1755.87 761.245 619.669 384.005 344.376 90.5004 576.102 116.883 459.219 153.751
internal_count=25407 2428 22979 11271 2188 6366 1550 664 638 11708 4905 3551 2523 2273 444 3281 652 2629 886
is_linear=0
shrinkage=0.01


Tree=21
num_leaves=20
num_cat=0
split_feature=5 3 5 1 4 0 5 0 5 4 3 3 4 0 0 2 1 5 2
split_gain=495.476 149.301 134.956 64.1285 44.6379 42.2294 23.3016 22.4782 21.7742 19.702 19.5424 14.9129 18.0727 14.2717 13.6872 13.9209 12.4186 10.9256 8.53153
threshold=134.10500223770705 352.91220395647878 529.37721586324017 175372.03179924135 909.03280463243766 998819.66918945208 82.867695799113648 995619.66918945208 102.75901184655733 1852.8935413902536 606.601946619454 1149.5909723951934 1192.4452792565705 1000619.6691894521 1012819.6691894521 469.89806291871986 186372.03179924135 250.647959920087 475.92569424638003
decision_type=2 2 2 2 2 2 2 2 2 2 2 2 2 2 2 2 2 2 2
left_child=1 -1 3 10 8 -5 7 -6 13 14 -2 16 -13 -3 15 -4 17 -7 -8
right_child=2 4 9 5 6 11 18 -9 -10 -11 -12 12 -14 -15 -16 -17 -18 -19 -20
leaf_value=0.022137164259106289 0.0027067130268960305 0.010434704141705551 0.004210235049748926 -0.00033399055782289995 0.0029752934057684761 0.011129574239604936 0.0051127414094841095 0.011451272350208 0.0057798242957489351 -0.0040363571937294118 -0.0023886096646135759 0.0051421173655031363 0.00046559338688406524 0.018329046734314017 0.0040809953975482222 -0.0027546208154629308 0.0034081815348141254 0.0052216774967372235 0.00021207805532889309
leaf_weight=75.637334927916527 84.717417880892754 46.102228060364723 31.603881493210793 457.69925102591515 55.4076177328825 53.431324735283852 55.563303455710411 71.876164689660072 43.738517805933952 1366.3320767730474 675.13993944227695 135.53660653531551 211.72996957600117 45.503522664308548 39.792863056063652 312.04324102401733 145.68843647837639 75.582595497369766 98.494937494397163
leaf_count=240 543 223 201 2815 313 288 316 351 220 9185 4362 751 1273 195 250 2072 822 417 570
internal_value=0 0.00921181 -0.00148606 0.000405097 0.00686559 0.00197146 0.00459546 0.00776161 0.0115845 -0.00347423 -0.00182053 0.00366802 0.00229082 0.0143561 -0.00147117 -0.00211409 0.00540901 0.00766844 0.00197957
internal_weight=0 492.324 3589.3 1839.53 416.686 1079.67 281.342 127.284 135.344 1749.77 759.857 621.969 347.267 91.6058 383.44 343.647 274.702 129.014 154.058
internal_count=25407 2428 22979 11271 2188 6366 1550 664 638 11708 4905 3551 2024 418 2523 2273 1527 705 886
is_linear=0
shrinkage=0.01


Tree=22
num_leaves=20
num_cat=0
split_feature=5 3 5 1 4 0 5 0 5 4 3 4 0 2 0 0 1 2 2
split_gain=486.849 142.239 134.229 63.4572 43.1817 41.5883 22.7402 21.7646 20.8806 19.683 19.378 14.7484 13.5449 13.7921 13.5293 12.5067 18.5772 13.1101 8.38527
threshold=134.10500223770705 352.91220395647878 529.37721586324017 175372.03179924135 909.03280463243766 998819.66918945208 82.867695799113648 995619.66918945208 102.75901184655733 1852.8935413902536 606.601946619454 2675.0169331802194 1012819.6691894521 469.89806291871986 1000619.6691894521 1014219.6691894521 183972.03179924135 1210.630429719726 475.92569424638003
decision_type=2 2 2 2 2 2 2 2 2 2 2 2 2 2 2 2 2 2 2
left_child=1 -1 3 10 8 -5 7 -6 14 12 -2 15 13 -4 -3 17 -17 -7 -8
right_child=2 4 9 5 6 11 18 -9 -10 -11 -12 -13 -14 -15 -16 16 -18 -19 -20
leaf_value=0.02154377239046781 0.0026859735736199869 0.010274839391785615 0.0041716828767757556 -0.00033244323785831483 0.0029517012987396946 0.0039502832656863945 0.0050613435401180374 0.011264347632515569 0.0057178953323530389 -0.0040325977666262856 -0.0023824462919872246 -0.00197858459016089 0.0040441505597264352 -0.0027485213020541593 0.017905962529356837 0.012263750260659477 0.0039973663816884851 -0.0011477938882538132 0.00021098003266069001
leaf_weight=77.330402791500092 84.947036907076836 46.58581006526947 31.737220540642738 457.54640623927116 55.57271620631218 404.88389775156975 55.84811207652092 72.703968614339828 43.992050692439079 1360.8281889408827 673.5292231887579 43.51801572740078 39.955588579177856 311.18486720323563 46.345249399542809 42.368938282132149 75.865597873926163 57.620898589491844 98.515828058123589
leaf_count=240 543 223 201 2815 313 2292 316 351 220 9185 4362 270 250 2072 195 235 417 337 570
internal_value=0 0.0090814 -0.00148091 0.000402895 0.00678445 0.00195777 0.00455153 0.0076631 0.0113937 -0.00346904 -0.0018148 0.00363637 -0.00146604 -0.00210806 0.0140805 0.00405713 0.0069596 0.00331514 0.00196582
internal_weight=0 496.894 3583.99 1840.28 419.564 1081.8 282.641 128.277 136.923 1743.71 758.476 624.257 382.878 342.922 92.9311 580.739 118.235 462.505 154.364
internal_count=25407 2428 22979 11271 2188 6366 1550 664 638 11708 4905 3551 2523 2273 418 3281 652 2629 886
is_linear=0
shrinkage=0.01


Tree=23
num_leaves=20
num_cat=0
split_feature=5 3 5 1 4 0 5 0 0 4 3 3 4 0 2 2 1 5 2
split_gain=478.433 135.621 133.506 62.7935 41.7864 40.9587 22.1958 21.0802 20.1274 19.6639 19.2151 14.5293 17.6001 13.4044 13.6648 12.9861 11.9835 10.5078 8.24208
threshold=134.10500223770705 352.91220395647878 529.37721586324017 175372.03179924135 909.03280463243766 998819.66918945208 82.867695799113648 995619.66918945208 1004419.6691894521 1852.8935413902536 606.601946619454 1149.5909723951934 1192.4452792565705 1012819.6691894521 469.89806291871986 391.75780949302322 186372.03179924135 250.647959920087 475.92569424638003
decision_type=2 2 2 2 2 2 2 2 2 2 2 2 2 2 2 2 2 2 2
left_child=1 -1 3 10 8 -5 7 -6 15 13 -2 16 -13 14 -4 -3 17 -7 -8
right_child=2 4 9 5 6 11 18 -9 -10 -11 -12 12 -14 -15 -16 -17 -18 -19 -20
leaf_value=0.020978763503875699 0.0026654487770074327 0.012489055284698783 0.0041336433845762929 -0.00033090265794538323 0.0029283653939507067 0.010881794545302879 0.0050107208105915988 0.011082550702573021 0.016678015429301425 -0.0040288268440660611 -0.0023762842650641167 0.0050453478813186296 0.00044695553338961797 0.0040077862663737201 -0.0027424187559019946 0.0050134238003445601 0.00335274277781346 0.0051255415420267628 0.0002098879609759451
leaf_weight=79.014465570449829 85.17550690472126 44.113666251301765 31.869895547628403 457.39432026445866 55.736992806196213 54.266729280352592 56.131494864821434 73.527562022209167 45.27841217815876 1355.3515368402004 671.92647437751293 136.84671866893768 212.45901982486248 40.117502629756927 310.33073472976685 49.101754784584045 146.65936717391014 76.302635550498962 98.536615446209908
leaf_count=240 543 204 201 2815 313 288 316 351 194 9185 4362 751 1273 250 2072 240 822 417 570
internal_value=0 0.00895403 -0.00147576 0.000400706 0.00670482 0.00194419 0.00450822 0.00756658 0.0112082 -0.00346384 -0.00180908 0.0036051 0.00224846 -0.00146092 -0.00210204 0.00855122 0.00531447 0.00751793 0.00195219
internal_weight=0 501.441 3578.7 1841.03 422.426 1083.93 283.933 129.265 138.494 1737.67 757.102 626.534 349.306 382.318 342.201 93.2154 277.229 130.569 154.668
internal_count=25407 2428 22979 11271 2188 6366 1550 664 638 11708 4905 3551 2024 2523 2273 444 1527 705 886
is_linear=0
shrinkage=0.01


Tree=24
num_leaves=20
num_cat=0
split_feature=5 5 3 1 0 4 5 0 3 5 4 1 3 0 2 4 0 2 2
split_gain=470.221 132.785 129.412 62.1398 43.0517 40.4488 21.6679 20.4236 19.9444 19.7953 19.6444 15.042 16.5294 13.2657 13.5391 13.0213 12.3893 11.2259 8.10186
threshold=134.10500223770705 529.37721586324017 352.91220395647878 176372.03179924135 998819.66918945208 909.03280463243766 82.867695799113648 995619.66918945208 606.601946619454 102.75901184655733 1852.8935413902536 195172.03179924135 1149.5909723951934 1012819.6691894521 469.89806291871986 1177.3926924083266 1000619.6691894521 391.75780949302322 475.92569424638003
decision_type=2 2 2 2 2 2 2 2 2 2 2 2 2 2 2 2 2 2 2
left_child=2 3 -1 8 -5 9 7 -7 -2 16 13 12 17 14 -3 -14 -4 -6 -8
right_child=1 10 5 4 11 6 18 -9 -10 -11 -12 -13 15 -15 -16 -17 -18 -19 -20
leaf_value=0.020440146448041315 0.002690358798404647 0.0040961068651538509 0.009985058170787325 -0.00039739064128638003 0.010316501956995537 0.0029052821334736691 0.0049608559763325575 0.010905675474309949 -0.0022735325387461588 0.0055400202771447651 -0.0040250440825682597 -0.00045945248830349535 0.0052364208712210019 0.0039718938686150972 -0.0027363126781935077 0.00095209894465464646 0.017195565827750336 0.0051048215145198354 0.00020880177616112251
leaf_weight=80.689602300524712 91.42902934551239 32.001907184720039 47.488744452595711 435.59514056146145 53.002302497625351 55.900449648499489 56.413459464907646 74.346965909004211 705.71091905236244 44.736880481243134 1349.9020628780127 75.448240801692009 120.56135822832584 40.278607919812202 309.48084008693695 172.35692369937897 47.830872684717178 187.67362432181835 98.557299762964249
leaf_count=240 579 201 223 2684 283 313 316 351 4575 220 9185 455 653 250 2072 1021 195 1021 570
internal_value=0 -0.00147062 0.00882959 0.00039853 0.00200307 0.00662665 0.00446552 0.00747201 -0.00170419 0.0110277 -0.00345863 0.00371991 0.00431086 -0.00145581 -0.00209602 0.00271547 0.0136033 0.00625255 0.00193868
internal_weight=0 3573.44 505.964 1841.78 1044.64 425.275 285.218 130.247 797.14 140.056 1731.66 609.042 533.594 381.761 341.483 292.918 95.3196 240.676 154.971
internal_count=25407 22979 2428 11271 6117 2188 1550 664 5154 638 11708 3433 2978 2523 2273 1674 418 1304 886
is_linear=0
shrinkage=0.01


Tree=25
num_leaves=20
num_cat=0
split_feature=5 5 3 1 0 4 5 0 4 5 3 4 0 2 0 1 2 0 0
split_gain=462.205 132.067 123.58 61.5144 39.7278 39.166 21.1557 19.7933 19.6247 19.0128 18.8941 14.2442 13.1287 13.4149 12.0289 17.8945 12.7314 11.7727 8.01506
threshold=134.10500223770705 529.37721586324017 352.91220395647878 175372.03179924135 998819.66918945208 909.03280463243766 82.867695799113648 995619.66918945208 1852.8935413902536 102.75901184655733 606.601946619454 2675.0169331802194 1012819.6691894521 469.89806291871986 1014219.6691894521 183972.03179924135 1210.630429719726 1000619.6691894521 988219.66918945208
decision_type=2 2 2 2 2 2 2 2 2 2 2 2 2 2 2 2 2 2 2
left_child=2 3 -1 10 18 9 7 -7 12 17 -2 14 13 -3 16 -16 -6 -4 -5
right_child=1 8 5 4 11 6 -8 -9 -10 -11 -12 -13 -14 -15 15 -17 -18 -19 -20
leaf_value=0.019926116237007789 0.0026246862788485048 0.004059064340063586 0.0098365153426960873 -0.0023998923355178893 0.0038478956636090384 0.0028824474219180892 0.001925284633232994 0.010733526144597761 -0.0040212498884023059 0.0054819785172740129 -0.0023642148701085524 -0.0019774559478925842 0.0039364645046899797 -0.0027302037935069113 0.011923722794625769 0.0038811568053016485 -0.0011633982039469647 0.016817745344512091 0.00051876353117967912
leaf_weight=82.355877593159676 85.632914304733276 32.133258849382401 47.96529732644558 132.50397992134094 409.58735363185406 56.063091486692429 155.27189464867115 75.162207916378975 1344.479546174407 44.985411375761032 668.80943159759045 43.501579001545906 40.43890817463398 308.63515351712704 43.221926257014275 76.862127482891083 57.857361480593681 48.660463616251945 324.54411132633686
leaf_count=240 543 201 223 825 2292 313 886 351 9185 220 4362 270 250 2072 235 417 337 195 1990
internal_value=0 -0.0014655 0.00870797 0.000396366 0.00191784 0.00654992 0.00442342 0.00737933 -0.00345341 0.0108521 -0.00179795 0.00354404 -0.00145071 -0.00209 0.00395286 0.00677592 0.00322763 0.0133522 -0.000327391
internal_weight=0 3568.21 510.464 1842.52 1088.08 428.108 286.497 131.225 1725.69 141.611 754.442 631.03 381.207 340.768 587.529 120.084 467.445 96.6258 457.048
internal_count=25407 22979 2428 11271 6366 2188 1550 664 11708 638 4905 3551 2523 2273 3281 652 2629 418 2815
is_linear=0
shrinkage=0.01


Tree=26
num_leaves=20
num_cat=0
split_feature=5 5 3 1 0 4 5 4 0 3 5 4 0 2 0 1 2 0 0
split_gain=454.381 131.352 118.096 60.8728 39.1315 37.935 20.6586 19.6048 19.188 18.7358 18.2701 14.0253 12.9935 13.2921 11.7434 17.3194 12.5308 11.1955 7.95327
threshold=134.10500223770705 529.37721586324017 352.91220395647878 175372.03179924135 998819.66918945208 909.03280463243766 82.867695799113648 1852.8935413902536 995619.66918945208 606.601946619454 102.75901184655733 2675.0169331802194 1012819.6691894521 469.89806291871986 1014219.6691894521 183972.03179924135 1210.630429719726 1000619.6691894521 988219.66918945208
decision_type=2 2 2 2 2 2 2 2 2 2 2 2 2 2 2 2 2 2 2
left_child=2 3 -1 9 18 10 8 12 -7 -2 17 14 13 -3 16 -16 -6 -4 -5
right_child=1 7 5 4 11 6 -8 -9 -10 -11 -12 -13 -14 -15 15 -17 -18 -19 -20
leaf_value=0.01943502464367778 0.0026047897102687658 0.0040225057550539456 0.0096916251916759483 -0.0023937269924238997 0.0038140464260526599 0.0028598577065768417 0.0019120299671166394 -0.0040174434075380587 0.010565917518186339 -0.0023580569173394981 0.0054248603878408273 -0.0019715404665034152 0.0039014896832166935 -0.0027240915284262842 0.011723532111236747 0.0038468867704996986 -0.0011589718893117477 0.016454457763801073 0.00051591904250001142
leaf_weight=84.013372451066971 85.857968434691429 32.263954594731331 48.439437389373779 132.18636234104633 411.16643929481506 56.224924832582474 155.57112540304661 1339.0839404314756 75.973308578133583 667.23006220161915 45.2326979637146 43.415642186999321 40.598408490419388 307.79366865754128 43.740376979112625 77.161020830273628 57.790089294314384 49.485743194818497 324.71251441538334
leaf_count=240 543 201 223 825 2292 313 886 9185 351 4362 220 270 250 2072 235 417 337 195 1990
internal_value=0 -0.00146038 0.00858911 0.000394214 0.00190462 0.00647459 0.00438191 -0.00344818 0.00728847 -0.00179225 0.0106812 0.00351389 -0.00144561 -0.00208399 0.00391764 0.00669654 0.00320122 0.0131092 -0.000325877
internal_weight=0 3563 514.941 1843.26 1090.17 430.927 287.769 1719.74 132.198 753.088 143.158 633.274 380.656 340.058 589.858 120.901 468.957 97.9252 456.899
internal_count=25407 22979 2428 11271 6366 2188 1550 11708 664 4905 638 3551 2523 2273 3281 652 2629 418 2815
is_linear=0
shrinkage=0.01


Tree=27
num_leaves=20
num_cat=0
split_feature=5 5 3 1 0 4 5 0 4 3 0 4 0 2 2 0 1 2 1
split_gain=446.74 130.64 112.933 60.2385 38.5458 36.7534 20.1761 22.4904 19.5846 18.5789 17.78 13.8106 12.86 13.1708 12.1619 11.4662 16.768 12.3341 9.22523
threshold=134.10500223770705 529.37721586324017 352.91220395647878 175372.03179924135 998819.66918945208 909.03280463243766 87.517677593159362 1002419.6691894521 1852.8935413902536 606.601946619454 1004419.6691894521 2675.0169331802194 1012819.6691894521 469.89806291871986 391.75780949302322 1014219.6691894521 183972.03179924135 1210.630429719726 186572.03179924135
decision_type=2 2 2 2 2 2 2 2 2 2 2 2 2 2 2 2 2 2 2
left_child=2 3 -1 9 -5 10 7 18 12 -2 14 15 13 -3 -4 17 -17 -6 -7
right_child=1 8 5 4 11 6 -8 -9 -10 -11 -12 -13 -14 -15 -16 16 -18 -19 -20
leaf_value=0.018965371935566584 0.0025850952303833937 0.0039864227844649183 0.011774802954726651 -0.00032436838343577408 0.0037806232792169142 0.0020355543098007616 0.0016728664745458649 0.013059528280237282 -0.0040136256074226623 -0.0023519003305652966 0.015498899741944204 -0.001965631209477348 0.0038669613292022266 -0.0027179763135999476 0.0046772271141505882 0.011529015935838927 0.0038130502430422453 -0.001154557268156573 0.0081616757771517199
leaf_weight=85.66214182972908 86.081903651356697 32.393997758626938 45.995807856321335 456.75040467083454 412.73764036595821 62.844507530331612 143.09988464415073 42.717542797327042 1333.7150223553181 665.6585498303175 47.887214168906212 43.330130204558372 40.757111594080925 306.95635810494423 50.813639432191849 44.256186351180077 77.458422109484673 57.723151087760925 40.373173639178276
leaf_count=240 543 201 204 2815 2292 340 819 194 9185 4362 194 270 250 2072 240 235 417 337 197
internal_value=0 -0.00145528 0.00847289 0.000392075 0.00189151 0.00640062 0.00434097 0.00695725 -0.00344294 -0.00178656 0.0105148 0.00348411 -0.00144053 -0.00207798 0.00804941 0.00388288 0.00661862 0.0031751 0.00443176
internal_weight=0 3557.82 519.394 1844 1092.26 433.732 289.035 145.935 1713.82 751.74 144.697 635.506 380.107 339.35 96.8094 592.175 121.715 470.461 103.218
internal_count=25407 22979 2428 11271 6366 2188 1550 731 11708 4905 638 3551 2523 2273 444 3281 652 2629 537
is_linear=0
shrinkage=0.01


Tree=28
num_leaves=20
num_cat=0
split_feature=5 5 3 1 0 4 5 0 4 3 3 4 0 0 2 2 1 1 5
split_gain=439.36 127.148 109.851 58.4614 38.1568 35.4416 20.5768 31.9968 19.5641 17.6073 14.9732 16.4317 14.2851 12.7281 13.0509 12.0748 11.7477 11.0059 10.5267
threshold=137.52521625179739 529.37721586324017 352.91220395647878 175372.03179924135 998819.66918945208 746.69385008813481 87.517677593159362 1003419.6691894521 1852.8935413902536 606.601946619454 1149.5909723951934 1192.4452792565705 1003219.6691894521 1012819.6691894521 469.89806291871986 292.45437804636163 187372.03179924135 186372.03179924135 250.647959920087
decision_type=2 2 2 2 2 2 2 2 2 2 2 2 2 2 2 2 2 2 2
left_child=2 3 -1 9 -5 12 7 16 13 -2 17 -12 -4 14 -3 -8 -7 18 -6
right_child=1 8 5 4 10 6 15 -9 -10 -11 11 -13 -14 -15 -16 -17 -18 -19 -20
leaf_value=0.018362727372553986 0.0025059115091482487 0.003950806109937444 0.0079566155812922004 -0.00037646842135966035 0.010619281725658895 0.0019854521966578614 0.0071075359327127116 0.01437797785789994 -0.0040097958286355907 -0.0023467049002691542 0.004742510676923376 0.00031019162630989807 0.014977113946450293 0.0038328710951275285 -0.0027118584891694308 0.00073341110771022952 0.0085488160054888688 0.003274126412964061 0.0048938729265284829
leaf_weight=88.732360079884529 84.31743411719799 32.52339181303978 69.646135240793228 451.04086335003376 54.53914974629879 74.806094124913216 38.100321590900421 43.941658139228821 1328.3727770149708 660.52004991471767 138.02531982958317 212.28023155033588 49.641559898853302 40.915022805333138 306.1231949031353 135.10516104102135 42.91633041203022 146.84502652287483 78.09547683596611
leaf_count=248 531 201 323 2781 281 395 206 194 9185 4339 741 1260 197 250 2072 771 206 809 417
internal_value=0 -0.00147649 0.00818599 0.000358238 0.00184375 0.00619768 0.00453038 0.0070962 -0.00343769 -0.00179738 0.00343384 0.00205659 0.0108782 -0.00143546 -0.00207198 0.00213554 0.00437816 0.00516011 0.00724815
internal_weight=0 3533.6 542.89 1825.66 1080.83 454.157 334.87 161.664 1707.93 744.837 629.785 350.306 119.288 379.562 338.647 173.205 117.722 279.48 132.635
internal_count=25407 22867 2540 11159 6289 2292 1772 795 11708 4870 3508 2001 520 2523 2273 977 601 1507 698
is_linear=0
shrinkage=0.01


Tree=29
num_leaves=20
num_cat=0
split_feature=5 5 3 1 0 4 5 0 4 3 3 4 0 0 2 2 1 1 5
split_gain=432.153 126.464 105.236 57.8582 37.5928 34.3364 20.0922 30.8664 19.5434 17.4616 14.6669 16.1532 13.67 12.5979 12.9324 11.8359 11.4583 10.7263 10.1865
threshold=137.52521625179739 529.37721586324017 352.91220395647878 175372.03179924135 998819.66918945208 746.69385008813481 87.517677593159362 1003419.6691894521 1852.8935413902536 606.601946619454 1149.5909723951934 1192.4452792565705 1003219.6691894521 1012819.6691894521 469.89806291871986 292.45437804636163 187372.03179924135 186372.03179924135 250.647959920087
decision_type=2 2 2 2 2 2 2 2 2 2 2 2 2 2 2 2 2 2 2
left_child=2 3 -1 9 -5 12 7 16 13 -2 17 -12 -4 14 -3 -8 -7 18 -6
right_child=1 8 5 4 10 6 15 -9 -10 -11 11 -13 -14 -15 -16 -17 -18 -19 -20
leaf_value=0.017938260073749601 0.002487211423133608 0.0039156475716947301 0.0078542045357674218 -0.00037474036998842275 0.010454654445636371 0.0019716645100156254 0.0070220280596457567 0.014101842711289536 -0.0040059547108061882 -0.0023405512216802178 0.0046965776834272293 0.00030855536119912152 0.014680651552308218 0.0037992111662042789 -0.002705737733501697 0.00072923273903911204 0.0084337738347408306 0.0032471917902665037 0.0048457386109020915
leaf_weight=90.376780614256859 84.528986915946007 32.652139872312546 70.202493593096733 450.87109133601189 55.121402561664581 74.954765737056732 38.372085452079773 44.578013867139816 1323.0569371283054 658.97184655070305 138.68146003782749 212.34609034657478 50.390642955899239 41.072146326303482 305.29414628446102 135.20428487658501 43.284787431359291 147.32660333812237 78.478602677583694
leaf_count=248 531 201 323 2781 281 395 206 194 9185 4339 741 1260 197 250 2072 771 206 809 417
internal_value=0 -0.00147135 0.00807849 0.000356307 0.00183118 0.00612855 0.00448735 0.00701074 -0.00343243 -0.00179168 0.00340501 0.00204214 0.0107067 -0.00143041 -0.00206598 0.00212036 0.00433729 0.00510795 0.0071599
internal_weight=0 3528.4 547.364 1826.33 1082.83 456.987 336.394 162.818 1702.08 743.501 631.954 351.028 120.593 379.018 337.946 173.576 118.24 280.927 133.6
internal_count=25407 22867 2540 11159 6289 2292 1772 795 11708 4870 3508 2001 520 2523 2273 977 601 1507 698
is_linear=0
shrinkage=0.01


Tree=30
num_leaves=20
num_cat=0
split_feature=5 5 3 1 4 4 0 1 2 3 4 1 0 2 3 3 2 1 1
split_gain=492.304 164.496 158.349 74.8567 47.4802 30.3399 25.0908 24.2417 21.4976 17.2527 15.337 14.1743 12.8961 11.2595 10.866 8.40655 7.30702 5.71487 5.49253
threshold=106.72494512677743 501.50367183420047 374.30103880172578 175372.03179924135 2400.265685467039 1852.8935413902536 1005219.6691894521 196772.03179924135 285.69019200424418 534.01187567011141 2232.2234827082043 180572.03179924135 995619.66918945208 851.08024002878096 1200.7117729956055 606.601946619454 591.00972803231627 185172.03179924135 170772.03179924135
decision_type=2 2 2 2 2 2 2 2 2 2 2 2 2 2 2 2 2 2 2
left_child=2 3 -1 15 7 6 16 9 -3 17 11 -10 -11 -13 -7 -2 -4 -5 -17
right_child=1 8 5 4 -6 14 -8 -9 10 12 -12 13 -14 -15 -16 18 -18 -19 -20
leaf_value=0.023281963760141952 0.0013203345480007564 0.0029577962816375752 0.0093945663341116169 0.004752045276087925 -0.001047799936046084 0.0072054950479909655 0.014500167297089077 -0.0017637792236476183 -0.0029061788227726015 0.00061262729693230451 -0.004153589568450358 0.0050711789495055106 0.0042020765368616262 -0.001606791121394349 0.00065195387886609311 -0.002465515833213422 0.0047341575287249554 0.0092426408465963415 -0.00043969041852138618
leaf_weight=79.652173951268196 92.265781730413437 53.005879938602448 71.028566509485245 44.248250707983971 280.7516760379076 41.08008386194706 71.920196160674095 74.951425820589066 422.39687243103981 121.89699664711952 1157.2599752694368 43.837660893797874 559.55927138030529 59.540433838963509 65.862000420689583 479.935322239995 63.917455822229385 78.826089277863503 185.58767087757587
leaf_count=206 555 343 317 225 1749 223 291 450 2878 735 8070 275 3061 388 351 3187 304 400 1170
internal_value=0 -0.0010825 0.0106901 0.000936059 0.00253264 0.00749398 0.00972963 0.0036756 -0.00331267 0.00418234 -0.00351015 -0.0020939 0.00356001 0.00122501 0.00316939 -0.00150843 0.00718715 0.00762816 -0.00190059
internal_weight=0 3654.06 393.46 1918.02 1160.23 313.808 206.866 879.482 1736.04 804.531 1683.03 525.775 681.456 103.378 106.942 757.789 134.946 123.074 665.523
internal_count=25178 23486 1692 11532 6620 1486 912 4871 11954 4421 11611 3541 3796 663 574 4912 621 625 4357
is_linear=0
shrinkage=0.01


Tree=31
num_leaves=20
num_cat=0
split_feature=5 5 3 1 4 4 1 2 0 3 4 1 0 3 2 3 2 1 1
split_gain=482.692 163.431 150.399 73.9688 46.7668 26.69 23.8554 21.3673 20.0965 16.8197 15.3342 14.0869 12.6615 11.4186 11.0957 8.34072 6.96712 5.53657 5.46439
threshold=106.72494512677743 501.50367183420047 414.41338116934077 175372.03179924135 2400.265685467039 1852.8935413902536 196772.03179924135 285.69019200424418 1005219.6691894521 534.01187567011141 2232.2234827082043 180572.03179924135 995619.66918945208 1200.7117729956055 851.08024002878096 606.601946619454 591.00972803231627 185172.03179924135 170772.03179924135
decision_type=2 2 2 2 2 2 2 2 2 2 2 2 2 2 2 2 2 2 2
left_child=2 3 -1 15 6 8 9 -3 16 17 11 -9 -11 -7 -13 -2 -4 -5 -17
right_child=1 7 5 4 -6 13 -8 10 -10 12 -12 14 -14 -15 -16 18 -18 -19 -20
leaf_value=0.022181990386159419 0.0013120400116754163 0.0029343941594036035 0.0092660783204857634 0.0047059749318598479 -0.0010436924086297393 0.0073982743126899354 -0.0017581264580240367 -0.0029001841730992889 0.013674006669287206 0.00060921079855382821 -0.0041502087986827439 0.0050204081375139842 0.0041636330372271041 0.00064829249387845427 -0.0016013894827585291 -0.0024593436405036979 0.0046896605303741509 0.0091119218927107042 -0.00043769983465857755
leaf_weight=86.563046425580978 92.38768370449543 53.162893801927567 70.264532417058945 44.459020748734474 280.45765958726406 40.439570650458336 74.819344192743301 421.17109824717045 71.352468088269234 121.97169809043407 1152.4631557762623 44.060533955693245 561.91552951931953 65.904953256249428 59.444840207695961 478.75348447263241 63.176338866353035 79.558027327060699 185.50609070062637
leaf_count=228 555 343 311 225 1749 218 450 2878 285 735 8070 275 3061 351 388 3187 299 400 1170
internal_value=0 -0.00107832 0.0105232 0.000930507 0.00251363 0.00727952 0.00364386 -0.00330718 0.00939008 0.00414414 -0.00350503 -0.00208789 0.0035297 0.0032151 0.0012174 -0.00150321 0.00709942 0.00753243 -0.00189476
internal_weight=0 3650.13 397.701 1919.83 1163.18 311.138 882.724 1730.3 204.793 807.904 1677.14 524.676 683.887 106.345 103.505 756.647 133.441 124.017 664.26
internal_count=25178 23486 1692 11532 6620 1464 4871 11954 895 4421 11611 3541 3796 569 663 4912 610 625 4357
is_linear=0
shrinkage=0.01


Tree=32
num_leaves=20
num_cat=0
split_feature=5 5 3 1 4 4 1 2 0 3 4 1 0 2 3 3 2 1 1
split_gain=473.348 162.372 143.126 73.0927 46.0662 28.5724 23.4768 21.2381 20.693 16.4003 15.3312 14 12.432 10.9348 9.14349 8.27538 5.87295 5.43631 5.36531
threshold=106.72494512677743 501.50367183420047 374.30103880172578 175372.03179924135 2400.265685467039 1643.0313413678703 196772.03179924135 285.69019200424418 1005219.6691894521 534.01187567011141 2232.2234827082043 180572.03179924135 995619.66918945208 851.08024002878096 1210.4653573332398 606.601946619454 591.00972803231627 170772.03179924135 185172.03179924135
decision_type=2 2 2 2 2 2 2 2 2 2 2 2 2 2 2 2 2 2 2
left_child=2 3 -1 15 6 8 9 -3 16 18 11 -9 -11 -13 -7 -2 -4 -17 -5
right_child=1 7 5 4 -6 14 -8 10 -10 12 -12 13 -14 -15 -16 17 -18 -19 -20
leaf_value=0.022026462493092275 0.0013038085719438148 0.0029112457748179262 0.0093984318173080048 0.0046605663650025496 -0.0010395967365517673 0.0068356757700703246 -0.0017524819021027089 -0.002894184680400206 0.014235703078444149 0.00060581544263054029 -0.0041468165729591552 0.0049703986624914619 0.0041257002136359418 -0.0015959973389650837 0.0013589802801972411 -0.002453171640021777 0.0050733112141432349 -0.00043571744748907419 0.0089842288272208859
leaf_weight=83.3570566624403 92.508981466293335 53.319122508168221 66.136254727840424 44.6687371134758 280.16510294377804 51.688218846917152 74.687918528914452 419.95138901472092 66.661263793706894 122.04602602124214 1147.6901302188635 44.282291829586029 564.26001776754856 59.349723100662231 74.310258165001869 477.5775203704834 59.765931457281113 185.42491398751736 80.286267027258873
leaf_count=206 555 343 286 225 1749 272 450 2878 258 735 8070 275 3061 388 391 3187 279 1170 400
internal_value=0 -0.00107415 0.0103606 0.000924993 0.00249482 0.00730806 0.00361252 -0.00330169 0.0097306 0.00410644 -0.00349991 -0.00208188 0.00349976 0.00120984 0.00360568 -0.001498 0.00734529 -0.00188894 0.00743861
internal_weight=0 3646.22 401.919 1921.63 1166.11 318.562 885.949 1724.59 192.563 811.261 1671.27 523.583 686.306 103.632 125.998 755.511 125.902 663.002 124.955
internal_count=25178 23486 1692 11532 6620 1486 4871 11954 823 4421 11611 3541 3796 663 663 4912 565 4357 625
is_linear=0
shrinkage=0.01


Tree=33
num_leaves=20
num_cat=0
split_feature=5 5 3 1 4 4 1 2 0 3 4 1 0 3 2 3 2 1 5
split_gain=464.26 161.32 136.267 72.2285 45.3783 25.1763 23.1056 21.11 18.5779 15.9939 15.328 13.9136 12.2076 10.9788 10.7768 8.21053 6.56347 5.4083 5.3327
threshold=106.72494512677743 501.50367183420047 414.41338116934077 175372.03179924135 2400.265685467039 1852.8935413902536 196772.03179924135 285.69019200424418 1005219.6691894521 534.01187567011141 2232.2234827082043 180572.03179924135 995619.66918945208 1200.7117729956055 851.08024002878096 606.601946619454 591.00972803231627 170772.03179924135 1547.2097495725427
decision_type=2 2 2 2 2 2 2 2 2 2 2 2 2 2 2 2 2 2 2
left_child=2 3 -1 15 6 8 9 -3 16 -5 11 -9 -11 -7 -13 -2 -4 -17 -12
right_child=1 7 5 4 -6 13 -8 10 -10 12 18 14 -14 -15 -16 17 -18 -19 -20
leaf_value=0.021026563462248873 0.0012956395552538341 0.0028883470066743918 0.0090085535896699889 0.0073466561251892852 -0.0010355128353084447 0.0072235306312814296 -0.0017468456314025411 -0.002888180215476965 0.013180287136650513 0.00060244104080635656 -0.0035467718552141376 0.0049211341050927034 0.0040882685045930227 0.00063651755820674522 -0.001590614749604763 -0.0024470005622447993 0.0045970318288680798 -0.00043374310707675013 -0.0049254187095293164
leaf_weight=90.410985201597214 92.629670470952988 53.474573999643326 71.559388801455498 125.88823141157627 279.87399357557297 41.019301384687424 74.557143837213516 418.73775047063828 73.29382349550724 122.1199849396944 648.30678233504295 44.502940446138382 566.59279353916645 66.043471649289131 59.255076542496681 476.40734422206879 63.788282468914986 185.34413558244705 494.63394762575626
leaf_count=228 555 343 311 625 1749 218 450 2878 285 735 4529 275 3061 351 388 3187 299 1170 3541
internal_value=0 -0.00106999 0.0102023 0.000919517 0.0024762 0.0071024 0.00358156 -0.00329619 0.0091253 0.00406925 -0.00349477 -0.00207588 0.00347017 0.00316022 0.00120235 -0.00149281 0.00692944 -0.00188313 -0.00414341
internal_weight=0 3642.32 406.115 1923.41 1169.03 315.704 889.158 1718.91 208.641 814.601 1665.44 522.496 688.713 107.063 103.758 754.381 135.348 661.751 1142.94
internal_count=25178 23486 1692 11532 6620 1464 4871 11954 895 4421 11611 3541 3796 569 663 4912 610 4357 8070
is_linear=0
shrinkage=0.01


Tree=34
num_leaves=20
num_cat=0
split_feature=5 5 3 1 4 4 1 0 2 3 4 1 0 2 3 3 2 1 5
split_gain=455.418 160.274 129.813 71.3759 44.7027 26.9922 22.7418 21.5148 20.9828 15.6002 15.3245 13.8277 11.9881 10.6216 9.9814 8.14616 6.46794 5.38036 5.34703
threshold=106.72494512677743 501.50367183420047 374.30103880172578 175372.03179924135 2400.265685467039 1852.8935413902536 196772.03179924135 1005219.6691894521 285.69019200424418 534.01187567011141 2232.2234827082043 180572.03179924135 995619.66918945208 851.08024002878096 1200.7117729956055 606.601946619454 591.00972803231627 170772.03179924135 1547.2097495725427
decision_type=2 2 2 2 2 2 2 2 2 2 2 2 2 2 2 2 2 2 2
left_child=2 3 -1 15 6 7 9 16 -3 -5 11 -10 -11 -13 -7 -2 -4 -17 -12
right_child=1 8 5 4 -6 14 -8 -9 10 12 18 13 -14 -15 -16 17 -18 -19 -20
leaf_value=0.020889022648171895 0.0012875322256971496 0.0028656940084803625 0.0088704918670678267 0.0072565318430219206 -0.0010314409303551905 0.0068538134594148779 -0.0017412175576534061 0.013460022131307153 -0.0028821708698255522 0.00059908748788054563 -0.0035417297420153098 0.0048725985008501536 0.0040513283572776735 -0.0015852417983195206 0.00063295265546357339 -0.002440828907258369 0.0045464670429330983 -0.00043177687818810647 -0.0049252198966570591
leaf_weight=87.024205908179283 92.749762669205666 53.629250347614288 73.718890815973282 126.81649422645569 279.58433133363724 42.302378088235855 74.427017658948898 75.980108484625816 417.53009712696075 122.19357845187187 646.0114768743515 44.722484976053238 568.91391958296299 59.160898417234421 66.08552311360836 475.24302965402603 65.178630754351616 185.26376390457153 492.20362129807472
leaf_count=206 555 343 317 625 1749 223 450 291 2878 735 4529 275 3061 388 351 3187 304 1170 3541
internal_value=0 -0.00106584 0.0100479 0.00091408 0.00245776 0.00712947 0.00355097 0.00918173 -0.00329068 0.00403254 -0.00348962 -0.00206988 0.00344094 0.0011949 0.00306087 -0.00148762 0.00684141 -0.00187732 -0.00414
internal_weight=0 3638.45 410.29 1925.19 1171.94 323.266 892.351 214.878 1713.26 817.924 1659.63 521.413 691.107 103.883 108.388 753.257 138.898 660.507 1138.22
internal_count=25178 23486 1692 11532 6620 1486 4871 912 11954 4421 11611 3541 3796 663 574 4912 621 4357 8070
is_linear=0
shrinkage=0.01


Tree=35
num_leaves=20
num_cat=0
split_feature=5 5 3 1 4 4 1 2 0 4 3 1 0 2 3 3 2 5 1
split_gain=446.812 159.234 123.871 70.5347 44.0392 23.7264 22.3851 20.8567 16.9052 15.3208 15.2187 13.7422 11.7734 10.4692 8.64645 8.08227 6.88622 5.36135 5.35249
threshold=106.72494512677743 501.50367183420047 414.41338116934077 175372.03179924135 2400.265685467039 1975.7233457026725 196772.03179924135 285.69019200424418 1005219.6691894521 2232.2234827082043 534.01187567011141 180572.03179924135 995619.66918945208 851.08024002878096 1200.7117729956055 606.601946619454 591.00972803231627 1547.2097495725427 170772.03179924135
decision_type=2 2 2 2 2 2 2 2 2 2 2 2 2 2 2 2 2 2 2
left_child=2 3 -1 15 6 8 10 -3 16 11 -5 -9 -12 -13 -7 -2 -4 -11 -17
right_child=1 7 5 4 -6 14 -8 9 -10 17 12 13 -14 -15 -16 18 -18 -19 -20
leaf_value=0.0199764133338481 0.0012794857419310324 0.0028432831815331633 0.0087883434738652341 0.007168160704967389 -0.0010273806920249231 0.006631011434366325 -0.0017355978772366223 -0.0028761568433602869 0.012509326544336227 -0.0035366770673397208 0.00059575459840817521 0.0048247762368113963 0.0040148707112868335 -0.001579878486093099 0.00056105735885857871 -0.0024346583569210978 0.0043911975804321384 -0.0049250189388490694 -0.00042981875668526371
leaf_weight=94.21758146584034 92.869260191917419 53.783156558871269 75.613286480307579 127.74008964002132 279.29610475897789 37.941290318965912 74.297536477446556 416.32842260599136 77.824665069580078 643.72749976813793 122.26680445671082 44.940931439399719 571.22345051169395 59.067189201712608 61.517190158367157 474.08445431292057 67.32890772819519 489.7853781580925 185.18378660082817
leaf_count=228 555 343 325 625 1749 200 450 2878 297 4529 735 275 3061 388 327 3187 315 3541 1170
internal_value=0 -0.0010617 0.00989747 0.000908681 0.00243951 0.00693202 0.00352076 -0.00328516 0.00875903 -0.00348446 0.00399631 -0.00206389 0.00341206 0.00118751 0.00287662 -0.00148245 0.00671719 -0.00413657 -0.00187151
internal_weight=0 3634.59 414.443 1926.96 1174.82 320.225 895.528 1707.63 220.767 1653.85 821.23 520.337 693.49 104.008 99.4585 752.138 142.942 1133.51 659.268
internal_count=25178 23486 1692 11532 6620 1464 4871 11954 937 11611 4421 3541 3796 663 527 4912 640 8070 4357
is_linear=0
shrinkage=0.01


Tree=36
num_leaves=20
num_cat=0
split_feature=5 5 3 1 4 4 1 2 1 3 4 3 1 0 3 2 3 5 4
split_gain=438.435 158.2 118.18 69.7048 43.3874 23.0624 22.0353 20.7316 17.4635 16.7713 15.3169 14.8488 13.6572 11.5633 10.3381 10.3195 8.01886 5.37566 5.3291
threshold=106.72494512677743 501.50367183420047 414.41338116934077 175372.03179924135 2400.265685467039 1852.8935413902536 196772.03179924135 285.69019200424418 176172.03179924135 1129.3214648678502 2232.2234827082043 534.01187567011141 180572.03179924135 995619.66918945208 1200.7117729956055 851.08024002878096 606.601946619454 1547.2097495725427 780.7137259536986
decision_type=2 2 2 2 2 2 2 2 2 2 2 2 2 2 2 2 2 2 2
left_child=2 3 -1 16 6 8 11 -3 -4 -10 12 -5 -9 -13 -7 -14 -2 -12 -18
right_child=1 7 5 4 -6 14 -8 10 9 -11 17 13 15 -15 -16 -17 18 -19 -20
leaf_value=0.019483099959995691 0.001271500139772103 0.0028211112660418329 0.0043432555198167104 0.0070814931222859777 -0.0010233323210124821 0.0069714594373174411 -0.00172998656854418 -0.0028701377824278331 0.0074743367727770002 0.014153897179801509 -0.0035316136775302223 0.00059244228063691571 0.0047776525273396341 0.0039788865155870688 0.00062333966001136467 -0.0015745248278699923 0.00030067512043413839 -0.004924817161550442 -0.0022395417152441099
leaf_weight=96.118635728955269 92.988158226013184 53.936294749379158 63.378785863518715 128.65904070436954 279.00930857658386 41.885474741458893 74.16869780421257 415.13273160159588 80.384625136852264 70.607616618275642 641.4548626691103 122.33966715633869 45.1582852602005 573.5214491635561 66.199184700846672 58.973944202065468 96.837989404797554 487.37912552058697 561.19783310592175
leaf_count=228 555 343 299 625 1749 218 450 2878 321 275 4529 735 275 3061 351 388 630 3541 3727
internal_value=0 -0.00105758 0.00975077 0.000903318 0.00242144 0.00684972 0.00349091 -0.00327964 0.00874869 0.0105979 -0.00347929 0.00396055 -0.0020579 0.00338351 0.00308339 0.00118018 -0.00147728 -0.00413314 -0.00186572
internal_weight=0 3630.76 418.574 1928.72 1177.7 322.456 898.689 1702.04 214.371 150.992 1648.1 824.52 519.265 695.861 108.085 104.132 751.024 1128.83 658.036
internal_count=25178 23486 1692 11532 6620 1464 4871 11954 895 596 11611 4421 3541 3796 569 663 4912 8070 4357
is_linear=0
shrinkage=0.01


Tree=37
num_leaves=20
num_cat=0
split_feature=5 5 3 1 4 4 1 2 0 4 3 1 0 2 3 3 5 1 2
split_gain=430.276 157.172 112.867 68.8859 42.7472 24.9251 21.6923 20.6075 17.3474 15.3128 14.49 13.5726 11.3577 10.1724 8.16552 7.95593 5.38997 5.3329 5.11813
threshold=106.72494512677743 501.50367183420047 374.30103880172578 175372.03179924135 2400.265685467039 1643.0313413678703 196772.03179924135 285.69019200424418 1005219.6691894521 2232.2234827082043 534.01187567011141 180572.03179924135 995619.66918945208 851.08024002878096 1210.4653573332398 606.601946619454 1547.2097495725427 170772.03179924135 591.00972803231627
decision_type=2 2 2 2 2 2 2 2 2 2 2 2 2 2 2 2 2 2 2
left_child=2 3 -1 15 6 8 10 -3 18 11 -5 -9 -12 -13 -7 -2 -11 -17 -4
right_child=1 7 5 4 -6 14 -8 9 -10 16 12 13 -14 -15 -16 17 -18 -19 -20
leaf_value=0.01937486686258328 0.0012635743328044261 0.0027991744142048286 0.0087692686315692988 0.0069964812606286573 -0.0010192957119538777 0.0064136189875445525 -0.0017243837482255242 -0.0028641141190077751 0.013042968577621612 -0.0035265391545836171 0.00058915030581300153 0.0047312123404656334 0.0039433671429928291 -0.00156918090109025 0.0013025470490849414 -0.0024236855522867728 -0.0049246146863159502 -0.00041969525445726888 0.0048028221463813385
leaf_weight=92.437692567706108 93.10646864771843 54.088669538497925 69.165750607848167 129.57337237894535 278.72393418848515 53.605298548936844 74.040498211979866 413.94293914735317 71.076277375221252 639.19352054595947 122.4121690839529 45.374552339315414 575.80797402560711 58.881160527467728 74.979260474443436 472.03809739649296 484.98475785553455 184.77141462266445 61.420815587043762
leaf_count=206 555 343 286 625 1749 272 450 2878 258 4529 735 275 3061 388 391 3187 3541 1170 279
internal_value=0 -0.00105346 0.00960764 0.000897992 0.00240354 0.00687376 0.00346142 -0.0032741 0.00906747 -0.00347411 0.00392525 -0.00205191 0.0033553 0.0011729 0.00343329 -0.00147213 -0.00412969 -0.00185993 0.00690367
internal_weight=0 3626.94 422.685 1930.47 1180.56 330.247 901.834 1696.47 201.663 1642.38 827.794 518.199 698.22 104.256 128.585 749.916 1124.18 656.81 130.587
internal_count=25178 23486 1692 11532 6620 1486 4871 11954 823 11611 4421 3541 3796 663 663 4912 8070 4357 565
is_linear=0
shrinkage=0.01


Tree=38
num_leaves=20
num_cat=0
split_feature=5 5 3 1 4 4 1 2 1 4 1 3 1 0 2 3 3 5 1
split_gain=422.33 156.151 107.898 68.0778 42.1183 21.8612 21.3559 20.4843 15.7468 15.3085 14.3525 14.1421 13.4886 11.1566 10.0279 8.15112 7.89346 5.40427 5.30503
threshold=106.72494512677743 501.50367183420047 414.41338116934077 175372.03179924135 2400.265685467039 1975.7233457026725 196772.03179924135 285.69019200424418 176172.03179924135 2232.2234827082043 187372.03179924135 534.01187567011141 180572.03179924135 995619.66918945208 851.08024002878096 1200.7117729956055 606.601946619454 1547.2097495725427 170772.03179924135
decision_type=2 2 2 2 2 2 2 2 2 2 2 2 2 2 2 2 2 2 2
left_child=2 3 -1 16 6 8 11 -3 -4 12 -10 -5 -9 -13 -14 -7 -2 -11 -18
right_child=1 7 5 4 -6 15 -8 9 10 17 -12 13 14 -15 -16 -17 18 -19 -20
leaf_value=0.018565135985001098 0.0012557080201694439 0.0027774691097639677 0.0043291861345937923 0.0069130791103702172 -0.0010152709053049642 0.0064011953467281012 -0.0017187893762702485 -0.0028580858014730613 0.012903338146946669 -0.0035214544572396006 0.0068944789240103221 0.0005858785216222343 0.0046854417988686486 0.0039083039914981701 -0.001563846729516098 0.00054681616903262014 -0.0024175165552727247 -0.0049244110335650423 -0.00041778693607062635
leaf_weight=99.868306383490562 93.224192291498184 54.240285038948059 66.702247321605682 130.48310881853104 278.43997991085052 38.708377495408058 73.912933439016342 412.75905953347683 85.622230440378189 636.94334691762924 74.196911528706551 122.48430797457695 45.589737609028816 578.0830771625042 58.788838028907776 61.676112234592438 470.89540821313858 482.60226231813431 184.69388392567635
leaf_count=228 555 343 313 625 1749 200 450 2878 320 4529 304 735 275 3061 388 327 3187 3541 1170
internal_value=0 -0.00104936 0.00946801 0.000892702 0.00238582 0.00668888 0.00343228 -0.00326856 0.00841037 -0.00346892 0.0101137 0.00389041 -0.00204593 0.00332742 0.00116567 0.00280427 -0.00146698 -0.00412623 -0.00185415
internal_weight=0 3623.14 426.774 1932.22 1183.4 326.906 904.963 1690.92 226.521 1636.68 159.819 831.05 517.138 700.567 104.379 100.384 748.813 1119.55 655.589
internal_count=25178 23486 1692 11532 6620 1464 4871 11954 937 11611 624 4421 3541 3796 663 527 4912 8070 4357
is_linear=0
shrinkage=0.01


Tree=39
num_leaves=20
num_cat=0
split_feature=5 5 3 1 4 4 1 2 4 1 2 3 1 1 2 3 0 3 5
split_gain=414.587 155.135 103.158 67.2804 41.5004 21.2585 21.026 20.3621 15.3039 15.2364 13.9443 18.2099 13.7889 13.4049 9.88599 7.9917 7.92352 7.83147 5.41855
threshold=106.72494512677743 501.50367183420047 414.41338116934077 175372.03179924135 2400.265685467039 1975.7233457026725 196772.03179924135 285.69019200424418 2232.2234827082043 176172.03179924135 1126.1409011053663 534.01187567011141 187372.03179924135 180572.03179924135 851.08024002878096 1200.7117729956055 1014819.6691894521 606.601946619454 1547.2097495725427
decision_type=2 2 2 2 2 2 2 2 2 2 2 2 2 2 2 2 2 2 2
left_child=2 3 -1 17 6 9 10 -3 13 -4 11 -5 -11 -9 -15 -7 -12 -2 -10
right_child=1 7 5 4 -6 15 -8 8 18 12 16 -13 -14 14 -16 -17 -18 -19 -20
leaf_value=0.018132309568207997 0.0012479004860999931 0.0027559920462591715 0.0042890331617561452 0.0082256662778242423 -0.0010112579227229055 0.0063286649822735233 -0.0017132035460704954 -0.0028520530781726196 -0.003516358945872336 0.012674247118948856 -0.00010041465034854257 0.0037640206833692335 0.0068129893338136419 0.0046403270492973705 -0.0015585223396654799 0.00054380259605499141 0.0049869444580447923 -0.0018483751425145054 -0.0049242061961994946
leaf_weight=101.73969356715679 93.341325685381889 54.391145512461662 66.991639673709869 109.16104277968407 278.15743272006512 38.956952080130577 73.786002263426781 411.58105254173279 634.70433105528355 86.734201639890671 119.20816874504089 564.72752729058266 74.710227727890015 45.80384673178196 58.69697342813015 61.709846302866936 41.194447606801987 654.37513530254364 480.23159256577492
leaf_count=228 555 343 313 518 1749 200 450 2878 4529 320 666 3030 304 275 388 327 207 4357 3541
internal_value=0 -0.00104527 0.00933171 0.000887449 0.00236828 0.00661107 0.00340348 -0.003263 -0.00346372 0.00829825 0.00385601 0.00448675 0.00996188 -0.00203996 0.0011585 0.00278248 0.00120612 -0.00146185 -0.00412275
internal_weight=0 3619.36 430.843 1933.95 1186.23 329.103 908.077 1685.41 1631.02 228.436 834.291 673.889 161.444 516.082 104.501 100.667 160.403 747.716 1114.94
internal_count=25178 23486 1692 11532 6620 1464 4871 11954 11611 937 4421 3548 624 3541 663 527 873 4912 8070
is_linear=0
shrinkage=0.01


Tree=40
num_leaves=20
num_cat=0
split_feature=5 5 3 2 1 0 4 3 0 4 1 5 1 3 2 0 2 1 1
split_gain=503.065 114.511 93.1862 69.2776 66.167 47.8098 27.0553 24.9163 19.7418 18.9332 15.191 14.9883 13.5727 13.2768 12.0984 11.4636 8.822 8.2162 7.76771
threshold=150.01738503927854 529.37721586324017 534.01187567011141 440.57266604641563 173772.03179924135 1013819.6691894521 2490.4660297010169 1189.1422329029133 997819.66918945208 3036.4867985573087 196372.03179924135 91.399148044012477 175772.03179924135 845.57700957028339 475.92569424638003 988819.66918945208 683.52202208042411 150972.03179924135 169772.03179924135
decision_type=2 2 2 2 2 2 2 2 2 2 2 2 2 2 2 2 2 2 2
left_child=2 4 3 -1 17 7 10 8 -4 14 13 -10 -9 -6 -3 -15 -14 -2 -19
right_child=1 9 5 -5 6 -7 -8 12 11 -11 -12 -13 16 15 -16 -17 -18 18 -20
leaf_value=0.020018840411737765 0.0022443513108288161 0.001344207877512711 0.0044724829651707843 0.0077701227592647526 0.00491440742383415 0.015800220641689615 -0.0010662623699157672 -6.651682607339465e-05 0.01463716288183646 -0.0044105845307101472 -0.0017866807893758038 0.006796599049232621 0.0066485212788548144 -0.0018446348556828674 -0.0026806395452561959 0.0026555282265750234 0.001736879866409172 -0.0032871642922999568 -0.00070234198708721903
leaf_weight=93.657343164086342 37.446927681565285 83.992848873138428 113.36744113266468 91.080575868487358 248.98128962516785 42.858366772532463 261.56591559946537 106.13682632148266 47.441679552197456 846.43717649579048 72.345876678824425 50.159609362483025 87.822208240628242 64.077544972300529 673.89764179289341 485.47630140185356 62.661007791757584 428.90620069205761 159.49295899271965
leaf_count=268 253 540 587 289 1301 177 1670 581 177 6166 445 242 391 395 4743 2669 313 2908 1042
internal_value=0 -0.00145074 0.00789403 0.0139799 0.000311993 0.00569147 0.00175411 0.00476492 0.00731085 -0.00338264 0.0026012 0.0106077 0.0026719 0.00299873 -0.00223459 0.00213081 0.00460332 -0.00229747 -0.00258652
internal_weight=0 3362.62 695.185 184.738 1758.29 510.447 1132.45 467.589 210.969 1604.33 870.881 97.6013 256.62 798.535 757.89 549.554 150.483 625.846 588.399
internal_count=25157 22132 3025 557 10683 2468 6480 2291 1006 11449 4810 419 1285 4365 5283 3064 704 4203 3950
is_linear=0
shrinkage=0.01


Tree=41
num_leaves=20
num_cat=0
split_feature=5 5 3 2 1 0 4 3 4 0 1 3 2 1 0 1 2 1 0
split_gain=494.777 113.891 89.7345 65.7645 65.5266 46.2192 26.6989 21.1287 18.935 16.4263 14.9832 13.0134 12.0215 11.9182 11.3167 8.15636 7.87309 7.74163 7.65602
threshold=150.01738503927854 529.37721586324017 534.01187567011141 440.57266604641563 173772.03179924135 1010819.6691894521 2490.4660297010169 1189.1422329029133 3036.4867985573087 997819.66918945208 196372.03179924135 845.57700957028339 475.92569424638003 175772.03179924135 988819.66918945208 150972.03179924135 689.10891963705524 169772.03179924135 1011819.6691894521
decision_type=2 2 2 2 2 2 2 2 2 2 2 2 2 2 2 2 2 2 2
left_child=2 4 3 -1 15 7 10 9 12 -4 11 18 -3 -9 -13 -2 -15 -17 -6
right_child=1 8 5 -5 6 -7 -8 13 -10 -11 -12 14 -14 16 -16 17 -18 -19 -20
leaf_value=0.019523649036021086 0.0022281874267794785 0.0013357314877795138 0.0044303644570410942 0.0076715463270704432 0.0038902135039447267 0.014227588352675515 -0.00106210216791856 4.492601376161071e-05 -0.0044081300097014373 0.010120959811592405 -0.0017809956160285913 -0.0018388720149572085 -0.0026745054814849229 0.0063938345290801401 0.0026353162713380141 -0.0032816371524165182 0.0017175317409097045 -0.00069934640833789116 0.0080018567336864726
leaf_weight=95.551145851612091 37.531065791845322 84.105829983949661 113.8756106197834 91.791037663817406 190.82964041829109 55.748209983110428 261.28717072308064 103.77627874910831 842.71210503578186 91.470611870288849 72.216732561588287 63.959455236792564 672.09357187151909 87.150284066796303 486.76721234619617 427.49862965941429 61.346161589026451 159.38097985088825 59.378256320953369
leaf_count=268 253 540 587 289 1017 230 1670 569 6166 389 445 395 4743 387 2669 2908 306 1042 284
internal_value=0 -0.00144565 0.00779265 0.0137165 0.000310324 0.00563085 0.00174231 0.00458358 -0.00337727 0.00696522 0.00258152 0.00297487 -0.00222848 0.00264496 0.0021157 -0.00229133 0.00446198 -0.00258036 0.00486597
