tree
version=v3
num_class=1
num_tree_per_iteration=1
label_index=0
max_feature_idx=6
objective=poisson
feature_names=x y bar liquor gas pharmacy retail
feature_infos=[1008819.579365307:1029419.579365307] [824500.81532862748:854900.81532862748] [8.3626475261888:13810.406911118484] [61.694758320684137:13580.810349297069] [38.061350062148826:11443.386013427706] [13.343253588984183:9404.9608667910907] [50.519289623030609:9923.9887830107764]
tree_sizes=643 652 650 654 652 653 654 650 653 656 658 658 655 660 659 660 656 659 664 660 653 653 649 647 661 660 661 658 659 656 656 663 659 660 660 659 659 660 662 656 655 655 656 656 666 665 659 661 662 658 661 662 663 660 659 658 665 663 659 657 656 660 653 659 659 661 657 658 667 668 659 661 657 658 658 661 666 667 663 663 661 661 660 660 656 657 667 662 658 655 665 668 658 667 664 664 662 664 663 664 663 665 660 660 655 657 661 663 669 669 656 662 657 662 665 666 662 665 670 670 661 663 661 661 667 667 662 664 661 662 669 668 663 664 671 670 663 658 664 664 670 668 668 669 668 667 660 661 662 661 665 665 662 663 670 670 664 668 670 670 660 661 662 665 666 668 663 669 663 668 657 660 666 666 667 669 664 665 665 665 666 663 673 670 662 659 661 658 662 668 663 665 663 658 667 668 666 668 667 665 664 664 669 671 661 659 666 667 663 665 669 666 668 669 661 661 661 661 658 661 667 668 666 666 664 661 664 666 669 668 670 671 668 669 665 663 665 664 654 657 671 670 670 670 668 669 667 661 659 659 669 666 665 666 668 669 668 667 670 668 665 662 673 672 665 663 667 668 666 665 670 668 659 662 669 667 672 671 666 665 660 660 670 671 670 673 662 663 663 666 668 668 666 665 668 669 666 663 668 670 667 663 664 663 661 659 661 662 664 663 659 659 670 672 669 670 668 664 667 664 665 665 667 662 670 668 657 666 670 671 666 665 673 670 660 662 664 661 667 668 663 664 663 668 661 661 668 666 669 671 663 666 666 669 664 665 669 667 669 670 673 671 662 663 668 665 666 665 657 659 659 656 670 669 663 657 666 668 667 666 663 665 667 668 670 669 662 662 661 665 665 667 668 671 664 667 669 666 662 666 665 662 663 665 668 665 657 656 662 661 666 667 667 669 667 663 668 669 671 664 673 670 664 667 668 670 672 675 662 660 668 667 667 671 668 667 660 659 665 667 662 664 665 667 662 664 668 669 661 664 665 669 670 669 668 669 669 668 668 666 674 674 670 668 669 668 660 658 663 665 666 665 664 663 668 669 668 672 668 668 663 663 668 667 660 664 667 669 656 663 668 667 662 659 663 661 669 669 673 671 669 669 667 669 669 670 669 665 665 662 664 667 670 673 661 663 657 657 662 664 666 665 656 660 669 665 667 669 661 665 671 668 662 662 664 663 660 662 669 671 662 659 666 666 672 671 667 671 665 666 661 666 664 669 665 665 660 663 663 663 671 667 669 667 668 669 661 664 671 669 668 668 665 664 666 666 667 666 665 667 659 659 672 668 671 668 667 666 670 672 666 664 669 670 667 666 664 661 667 668 674 674 668 666 666 669 659 655 670 669 664 668 664 666 666 663 661 663 668 666 667 667 664 666 662 664 666 668 672 668 665 665 662 660 657 660 665 665 672 673 671 674 664 664 668 665 666 666 663 663 664 663 670 674 665 663 666 665 667 666 661 661 665 666 661 659 673 671 666 668 658 662 658 662 668 667 668 670 670 672 667 666 667 666 661 661 673 670 667 667 668 667 669 663 665 668 670 669 674 673 669 668 663 663 660 661 670 669 665 666 665 661 667 667 651 657 660 667 669 669 665 667 659 662 669 669 661 666 669 670 667 667 668 670 661 661 666 667 665 663 665 664 669 666 668 670 668 666 670 668 662 661 668 669 667 666 663 666 669 670 658 662 663 663 668 671 666 668 671 669 668 667 671 671 664 666 661 663 668 667 668 670 672 673 669 669 666 666 665 668 667 667 665 664 667 668 657 657 665 670 663 662 669 668 663 669 662 662 667 667 665 668 669 671 665 664 665 666 664 670 669 669 662 660 668 668 663 663 667 670 666 663 665 671 669 670 660 663 665 665 668 670 671 670 668 668 664 663 668 666 664 667 674 673 672 672 665 666 664 669 665 662 664 662 660 661 672 672 670 670 661 658 667 664 673 674 666 668 670 670 660 660 673 675 665 666 664 665 667 669 669 671 669 665 661 664 660 660 666 664 668 667 669 663 665 668 667 666 661 664 659 661 670 670 663 662 668 670 669 668 669 668 668 668 665 663 664 663 667 668 665 667 666 669 666 666 663 661 659 659 661 659 665 665 666 664 664 660 661 661 669 668 663 663 667 668 669 666 662 663 669 670 669 666 666 666 667 666 668 668 663 662 656 660 659 660 659 664 659 663 658 660 672 674 664 664 666 663 661 660 666 668 665 667 665 664 660 663 663 665

Tree=0
num_leaves=5
num_cat=0
split_feature=3 2 4 5
split_gain=99.3104 53.4265 42.5186 24.8627
threshold=620.91045096049027 918.07508139414779 1892.6851533959973 476.87217407617669
decision_type=2 2 2 2
left_child=1 2 -1 -2
right_child=3 -3 -4 -5
leaf_value=-3.4719165148920266 -3.5415345129918734 -3.5501047709748805 -3.5338744171650185 -3.5639333471382679
leaf_weight=1.8852883279323567 5.0274355411529532 9.2550517916679365 2.6851076185703278 346.89305233955383
leaf_count=33 88 162 47 6072
internal_value=-3.56243 -3.53629 -3.50832 -3.56361
internal_weight=0 13.8254 4.5704 351.92
internal_count=6402 242 80 6160
is_linear=0
shrinkage=1


Tree=1
num_leaves=5
num_cat=0
split_feature=3 2 4 5
split_gain=95.8634 48.1119 35.2698 24.1708
threshold=620.91045096049027 918.07508139414779 1892.6851533959973 476.87217407617669
decision_type=2 2 2 2
left_child=1 2 -1 -2
right_child=3 -3 -4 -5
leaf_value=0.082248226154777546 0.020357630940848161 0.012110288333020674 0.027608864827950465 -0.0015013579377192166
leaf_weight=2.0638869479298583 5.1335749626159659 9.3697983026504499 2.762878842651844 346.37082526087761
leaf_count=33 88 162 47 6072
internal_value=0 0.0253232 0.0509722 -0.00118212
internal_weight=0 14.1966 4.82677 351.504
internal_count=6402 242 80 6160
is_linear=0
shrinkage=0.01


Tree=2
num_leaves=5
num_cat=0
split_feature=2 6 4 3
split_gain=158.192 109.856 101.87 43.731
threshold=253.04566435168564 254.38026359067953 2559.4973292126238 655.27644273351063
decision_type=2 2 2 2
left_child=2 -2 -1 -3
right_child=1 3 -4 -5
leaf_value=0.1271669992389699 0.081461894907687765 0.015135492432013965 0.0095907754998211369 -0.0018126437177714179
leaf_weight=1.5893095284700387 1.6198501102626313 15.91933239251375 1.373944543302059 348.85093438997865
leaf_count=26 28 266 24 6121
internal_value=0 -0.000708096 0.0726515 -0.00107299
internal_weight=0 366.39 2.96325 364.77
internal_count=6465 6415 50 6387
is_linear=0
shrinkage=0.01


Tree=3
num_leaves=5
num_cat=0
split_feature=2 6 4 3
split_gain=145.438 100.404 81.5018 42.7686
threshold=253.04566435168564 254.38026359067953 2559.4973292126238 655.27644273351063
decision_type=2 2 2 2
left_child=2 -2 -1 -3
right_child=1 3 -4 -5
leaf_value=0.11138856411259945 0.07470046545347063 0.0148335392516521 0.0094518334755692209 -0.0018069228261432292
leaf_weight=1.8048304915428155 1.7573298662900914 16.162112392485142 1.3871851339936254 348.21915502101183
leaf_count=26 28 266 24 6121
internal_value=0 -0.000705171 0.0670889 -0.00106884
internal_weight=0 366.139 3.19202 364.381
internal_count=6465 6415 50 6387
is_linear=0
shrinkage=0.01


Tree=4
num_leaves=5
num_cat=0
split_feature=3 5 2 3
split_gain=63.2273 66.9645 70.3207 27.6173
threshold=620.91045096049027 864.35213898989662 1555.8372598672383 2348.2207761133154
decision_type=2 2 2 2
left_child=1 2 -1 -2
right_child=3 -3 -4 -5
leaf_value=0.10984267702384527 0.0025530732576102811 0.0077087452698617878 0.019412314431775168 -0.0034651892644015411
leaf_weight=1.4807262197136872 110.38810170069337 11.83469472080469 2.0510155633091927 246.5575729124248
leaf_count=22 1937 190 34 4340
internal_value=0 0.0191126 0.0573264 -0.001604
internal_weight=0 15.3664 3.53174 356.946
internal_count=6523 246 56 6277
is_linear=0
shrinkage=0.01


Tree=5
num_leaves=5
num_cat=0
split_feature=3 5 6 3
split_gain=61.5178 60.7806 60.366 27.4128
threshold=620.91045096049027 864.35213898989662 2353.5903464841927 2348.2207761133154
decision_type=2 2 2 2
left_child=1 2 -1 -2
right_child=3 -3 -4 -5
leaf_value=0.10793884174174899 0.0025339014349644359 0.0076114152588700407 0.024015962760836469 -0.0034599801297244921
leaf_weight=1.328554138541221 110.67028905451298 11.926278114318846 2.4153076037764549 245.70467859879136
leaf_count=20 1937 190 36 4340
internal_value=0 0.0186459 0.053797 -0.00159861
internal_weight=0 15.6701 3.74386 356.375
internal_count=6523 246 56 6277
is_linear=0
shrinkage=0.01


Tree=6
num_leaves=5
num_cat=0
split_feature=3 6 3 5
split_gain=155.498 54.5336 59.3569 22.2174
threshold=620.91045096049027 649.58299359039279 187.67749774589956 1425.4940684919404
decision_type=2 2 2 2
left_child=1 -1 -3 -2
right_child=3 2 -4 -5
leaf_value=0.083160087427595744 0.0052215555796739851 0.080395937281872207 0.016763539393613244 -0.0023681023607076048
leaf_weight=1.7021094858646417 44.172175124287605 1.6400780752301205 13.806184418499468 304.10925071313977
leaf_count=24 770 25 213 5373
internal_value=0 0.0294397 0.02352 -0.00140551
internal_weight=0 17.1484 15.4463 348.281
internal_count=6405 262 238 6143
is_linear=0
shrinkage=0.01


Tree=7
num_leaves=5
num_cat=0
split_feature=3 3 5 6
split_gain=149.613 49.1993 55.5093 54.8273
threshold=620.91045096049027 279.63576896703688 525.24895857787067 3143.1486353091195
decision_type=2 2 2 2
left_child=1 3 -3 -1
right_child=-2 2 -4 -5
leaf_value=0.088309289280761261 -0.0014005176300327976 0.070547094821524339 0.011743844668318895 0.0095504988620310205
leaf_weight=2.4658230915665658 347.79336090385914 1.8539866730570782 11.969097673892973 1.377756632864475
leaf_count=35 6143 25 182 20
internal_value=0 0.0284304 0.0196307 0.0600777
internal_weight=0 17.6667 13.8231 3.84358
internal_count=6405 262 207 55
is_linear=0
shrinkage=0.01


Tree=8
num_leaves=5
num_cat=0
split_feature=3 2 6 5
split_gain=152.707 91.2119 47.1006 37.2373
threshold=339.27635455854823 680.81461302741491 374.72676852224976 411.90732330150325
decision_type=2 2 2 2
left_child=1 -1 -2 -4
right_child=2 -3 3 -5
leaf_value=0.11664522184754192 0.039008527246479498 0.026821132152346716 0.028650344250324214 -0.0014300544090046991
leaf_weight=1.5623577162623394 2.9562668316066256 4.0897240936756134 4.1646590717136851 347.8704879283905
leaf_count=20 46 60 67 6132
internal_value=0 0.0516505 -0.000740399 -0.0010742
internal_weight=0 5.65208 354.991 352.035
internal_count=6325 80 6245 6199
is_linear=0
shrinkage=0.01


Tree=9
num_leaves=5
num_cat=0
split_feature=3 2 6 2
split_gain=143.504 73.9394 44.9244 36.7937
threshold=339.27635455854823 680.81461302741491 374.72676852224976 1701.3887704557194
decision_type=2 2 2 2
left_child=1 -1 -2 -4
right_child=2 -3 3 -5
leaf_value=0.10325594625235032 0.037326176818981385 0.025979901996569521 0.0045698992429164236 -0.0029251773146107165
leaf_weight=1.755653679370879 3.0738652572035781 4.2008993104100227 87.040851462632418 264.61823024973273
leaf_count=20 46 60 1512 4687
internal_value=0 0.0487565 -0.00073732 -0.00107003
internal_weight=0 5.95655 354.733 351.659
internal_count=6325 80 6245 6199
is_linear=0
shrinkage=0.01


Tree=10
num_leaves=5
num_cat=0
split_feature=3 3 0 0
split_gain=127.046 42.7461 23.1964 15.8367
threshold=279.63576896703688 2397.535433373555 1017319.5793653071 1016719.5793653071
decision_type=2 2 2 2
left_child=2 3 -1 -2
right_child=1 -3 -4 -5
leaf_value=0.073985432150347655 0.0010369455667172923 -0.0029691700817358847 0.025651878375806347 0.0081589282120107937
leaf_weight=2.533207692205905 69.967365019023418 240.39871354401112 1.633040629327297 56.381892669945955
leaf_count=31 1205 4286 19 962
internal_value=0 -0.000494117 0.0550402 0.00421505
internal_weight=0 366.748 4.16625 126.349
internal_count=6503 6453 50 2167
is_linear=0
shrinkage=0.01


Tree=11
num_leaves=5
num_cat=0
split_feature=3 3 1 2
split_gain=119.024 42.2903 21.6822 15.6625
threshold=279.63576896703688 2397.535433373555 840200.81532862759 1002.3129327606968
decision_type=2 2 2 2
left_child=2 3 -1 -2
right_child=1 -3 -4 -5
leaf_value=0.071230179797006438 0.011207843436572509 -0.0029632328084411605 0.026453672326874299 0.0024208392651708754
leaf_weight=2.4935681000351897 25.349802043288946 239.68598422780633 1.9096405580639837 101.53394439071417
leaf_count=28 417 4286 22 1750
internal_value=0 -0.000491943 0.0518109 0.00417637
internal_weight=0 366.57 4.40321 126.884
internal_count=6503 6453 50 2167
is_linear=0
shrinkage=0.01


Tree=12
num_leaves=5
num_cat=0
split_feature=3 6 3 2
split_gain=74.6513 56.9835 28.3038 19.8552
threshold=279.63576896703688 254.38026359067953 1278.2245020014404 1669.4799176218069
decision_type=2 2 2 2
left_child=3 -2 -3 -1
right_child=1 2 -4 -5
leaf_value=0.066173192127325933 0.054410330977945363 0.0055385195841943496 -0.002350179976754619 0.019186228310961919
leaf_weight=1.9679769352078431 1.852594606578349 53.311132278293371 309.67171543464065 1.6561719477176664
leaf_count=20 25 881 5517 20
internal_value=0 -0.00090923 -0.00119157 0.044701
internal_weight=0 364.835 362.983 3.62415
internal_count=6463 6423 6398 40
is_linear=0
shrinkage=0.01


Tree=13
num_leaves=5
num_cat=0
split_feature=3 6 3 4
split_gain=70.7409 53.5322 27.9673 17.9193
threshold=279.63576896703688 254.38026359067953 1278.2245020014404 514.29378714881329
decision_type=2 2 2 2
left_child=-1 -2 3 -3
right_child=1 2 -4 -5
leaf_value=0.042516723551198565 0.051265971383419318 0.031978564685978442 -0.0023440253913415681 0.0042190145647867747
leaf_weight=3.7908641621470442 1.9561876207590092 2.4360919632017604 308.94478515535593 51.171123862266541
leaf_count=40 25 35 5517 846
internal_value=0 -0.000905588 -0.00118708 0.0054805
internal_weight=0 364.508 362.552 53.6072
internal_count=6463 6423 6398 881
is_linear=0
shrinkage=0.01


Tree=14
num_leaves=5
num_cat=0
split_feature=6 3 3 2
split_gain=125.44 64.7815 23.3429 18.6277
threshold=254.38026359067953 620.91045096049027 2946.5628729024174 918.07508139414779
decision_type=2 2 2 2
left_child=-1 3 -3 -2
right_child=1 2 -4 -5
leaf_value=0.077831457137305368 0.031373593787366476 0.0015566272058362535 -0.0036876476814345972 0.010201711784012942
leaf_weight=2.0532067716121665 6.6043933108449009 145.65011579170823 203.41018319502473 11.208127364516256
leaf_count=24 76 2546 3670 158
internal_value=0 -0.000550154 -0.0014994 0.0180517
internal_weight=0 366.873 349.06 17.8125
internal_count=6474 6450 6216 234
is_linear=0
shrinkage=0.01


Tree=15
num_leaves=5
num_cat=0
split_feature=6 3 3 2
split_gain=114.932 63.1129 23.196 17.3654
threshold=254.38026359067953 620.91045096049027 2946.5628729024174 918.07508139414779
decision_type=2 2 2 2
left_child=-1 3 -3 -2
right_child=1 2 -4 -5
leaf_value=0.071631621046509206 0.030251194516686498 0.0015464821021045087 -0.0036829253826534485 0.010047763561483859
leaf_weight=2.2193943262100211 6.8148813247680691 145.8770138733089 202.66146088019013 11.323054559528826
leaf_count=24 76 2546 3670 158
internal_value=0 -0.000547789 -0.00149421 0.0176387
internal_weight=0 366.676 348.538 18.1379
internal_count=6474 6450 6216 234
is_linear=0
shrinkage=0.01


Tree=16
num_leaves=5
num_cat=0
split_feature=6 3 5 3
split_gain=159.057 43.7967 26.4849 16.8025
threshold=254.38026359067953 550.8660663112787 2954.347682295182 187.67749774589956
decision_type=2 2 2 2
left_child=-1 3 -3 -2
right_child=1 2 -4 -5
leaf_value=0.074109367001282775 0.04007290168204266 0.002212459849320828 -0.0033273121898407089 0.011626743968065551
leaf_weight=2.9086229875683776 2.4423410594463375 154.63243324309587 195.29568702727556 13.861603505909441
leaf_count=30 24 2716 3525 182
internal_value=0 -0.000132852 -0.0008793 0.015888
internal_weight=0 366.232 349.928 16.3039
internal_count=6477 6447 6241 206
is_linear=0
shrinkage=0.01


Tree=17
num_leaves=5
num_cat=0
split_feature=6 3 3 5
split_gain=146.129 42.9226 25.103 18.9596
threshold=254.38026359067953 1278.2245020014404 187.67749774589956 2820.4969132927104
decision_type=2 2 2 2
left_child=-1 2 -2 -3
right_child=1 3 -4 -5
leaf_value=0.068461033206749136 0.038303752667076522 0.0015982721002957524 0.0062011520031277469 -0.0035647436388509695
leaf_weight=3.132367603480815 2.542200230062007 112.73398721590638 58.2071911431849 192.70442244783044
leaf_count=30 24 1998 925 3500
internal_value=0 -0.000132268 0.00754456 -0.00165913
internal_weight=0 366.188 60.7494 305.438
internal_count=6477 6447 949 5498
is_linear=0
shrinkage=0.01


Tree=18
num_leaves=5
num_cat=0
split_feature=3 6 3 4
split_gain=82.4994 35.8347 20.8752 26.2526
threshold=435.75274764309398 254.38026359067953 2348.2207761133154 388.57778051652991
decision_type=2 2 2 2
left_child=-1 -2 -3 -4
right_child=1 2 3 -5
leaf_value=0.026611152610561496 0.046351025984073334 0.0017308709979550173 0.041572517177683163 -0.0036771657022809058
leaf_weight=10.767328701913355 1.5589412748813618 117.96812969818711 1.2892587482929219 232.79500985145569
leaf_count=121 14 2002 23 4237
internal_value=0 -0.00148746 -0.00169929 -0.00342795
internal_weight=0 353.611 352.052 234.084
internal_count=6397 6276 6262 4260
is_linear=0
shrinkage=0.01


Tree=19
num_leaves=5
num_cat=0
split_feature=3 6 3 4
split_gain=79.7003 33.9757 20.739 25.1108
threshold=435.75274764309398 254.38026359067953 2348.2207761133154 388.57778051652991
decision_type=2 2 2 2
left_child=-1 -2 -3 -4
right_child=1 2 3 -5
leaf_value=0.025781934160851023 0.044026719819750863 0.0017192897487634427 0.039677463571656635 -0.0036724180980050058
leaf_weight=11.05770620703697 1.6329005584120739 118.17249441891909 1.3439861796796311 231.9405588619411
leaf_count=121 14 2002 23 4237
internal_value=0 -0.00148232 -0.00169376 -0.00342267
internal_weight=0 353.09 351.457 233.285
internal_count=6397 6276 6262 4260
is_linear=0
shrinkage=0.01


Tree=20
num_leaves=5
num_cat=0
split_feature=3 3 1 3
split_gain=41.78 20.232 24.6091 26.3914
threshold=2326.8347792689869 620.91045096049027 839800.81532862759 513.51872115036224
decision_type=2 2 2 2
left_child=1 2 -1 -4
right_child=-2 -3 3 -5
leaf_value=0.0034481612308563713 -0.0026067313563190369 0.0027659999664234498 0.014284525344945715 0.050973284108671198
leaf_weight=10.696440130472185 237.37649240344763 112.52153866738081 6.2336436882615072 2.8602514863014221
leaf_count=129 4343 1920 68 37
internal_value=0 0.00440594 0.0137301 0.025824
internal_weight=0 132.312 19.7903 9.0939
internal_count=6497 2154 234 105
is_linear=0
shrinkage=0.01


Tree=21
num_leaves=5
num_cat=0
split_feature=3 3 1 3
split_gain=41.2933 19.6081 23.3251 23.8259
threshold=2326.8347792689869 620.91045096049027 839800.81532862759 513.51872115036224
decision_type=2 2 2 2
left_child=1 2 -1 -4
right_child=-2 -3 3 -5
leaf_value=0.003419198252038104 -0.0026005737876018541 0.0027446431734571525 0.014011497188239568 0.048193335244537241
leaf_weight=10.733386941254141 236.7585159689188 112.8332050293684 6.3233274146914464 3.0098277404904366
leaf_count=129 4343 1920 68 37
internal_value=0 0.00436449 0.0134728 0.0250347
internal_weight=0 132.9 20.0665 9.33316
internal_count=6497 2154 234 105
is_linear=0
shrinkage=0.01


Tree=22
num_leaves=5
num_cat=0
split_feature=3 2 5 6
split_gain=117.279 39.8389 38.4625 61.1514
threshold=620.91045096049027 1650.9422434240521 1263.2998777190894 3599.6540686741232
decision_type=2 2 2 2
left_child=1 2 3 -1
right_child=-2 -3 -4 -5
leaf_value=0.085604166845315355 -0.0011178744760578945 0.0066574162062549829 0.01821540704514572 0.021285848385996196
leaf_weight=2.8707070946693438 350.83355788141489 9.4637746065855008 7.3335098922252655 3.0474215447902679
leaf_count=23 6279 121 84 28
internal_value=0 0.0223284 0.03352 0.0524847
internal_weight=0 22.7154 13.2516 5.91813
internal_count=6535 256 135 51
is_linear=0
shrinkage=0.01


Tree=23
num_leaves=5
num_cat=0
split_feature=3 2 5 6
split_gain=113.585 37 34.5385 55.9882
threshold=620.91045096049027 1650.9422434240521 1129.8797611462503 3599.6540686741232
decision_type=2 2 2 2
left_child=1 2 3 -1
right_child=-2 -3 -4 -5
leaf_value=0.086348001397515417 -0.0011135705282479588 0.0065802920860839201 0.019306130173059186 0.022154272239782734
leaf_weight=2.5187853798270252 350.44158922508359 9.5269891619682294 8.2399529665708524 2.9498388841748238
leaf_count=18 6279 121 91 26
internal_value=0 0.0217174 0.0322371 0.0517212
internal_weight=0 23.2356 13.7086 5.46862
internal_count=6535 256 135 44
is_linear=0
shrinkage=0.01


Tree=24
num_leaves=5
num_cat=0
split_feature=6 3 3 2
split_gain=89.1556 65.3053 20.638 20.5107
threshold=254.38026359067953 581.78183806563186 2348.2207761133154 350.13471838631807
decision_type=2 2 2 2
left_child=-1 3 -3 -2
right_child=1 2 -4 -5
leaf_value=0.048512229345949391 0.041265019253717006 0.0018922524631329388 -0.0032566275485155609 0.012914261835220582
leaf_weight=3.7398498803377143 3.0282794684171703 116.65029043331742 234.02412955462933 16.219135105609894
leaf_count=30 24 1990 4320 193
internal_value=0 -0.000559517 -0.00154388 0.0173748
internal_weight=0 369.922 350.674 19.2474
internal_count=6557 6527 6310 217
is_linear=0
shrinkage=0.01


Tree=25
num_leaves=5
num_cat=0
split_feature=6 3 3 3
split_gain=84.1262 63.6697 20.4933 19.8599
threshold=254.38026359067953 581.78183806563186 2348.2207761133154 279.63576896703688
decision_type=2 2 2 2
left_child=-1 3 -3 -2
right_child=1 2 -4 -5
leaf_value=0.045979812476391636 0.033056971095052644 0.0018792875024090214 -0.0032510521389961756 0.010678247818311929
leaf_weight=3.9257510751485816 5.5229985117912319 116.87123114988208 233.26324156671762 14.062808714807032
leaf_count=30 44 1990 4320 173
internal_value=0 -0.000557115 -0.0015386 0.0169888
internal_weight=0 369.72 350.134 19.5858
internal_count=6557 6527 6310 217
is_linear=0
shrinkage=0.01


Tree=26
num_leaves=5
num_cat=0
split_feature=3 5 2 3
split_gain=94.0304 88.7522 42.6991 28.4741
threshold=279.63576896703688 324.99975115465639 1650.9422434240521 2946.5628729024174
decision_type=2 2 2 2
left_child=-1 2 -2 -3
right_child=1 3 -4 -5
leaf_value=0.034482920652739335 0.078960035721723582 0.0021493895076718644 0.011858601342633062 -0.0034814511879345091
leaf_weight=7.8582924455404273 2.0255966484546657 161.62484780699015 1.7831187546253202 202.10160367563367
leaf_count=61 22 2705 27 3759
internal_value=0 -0.000476487 0.0475453 -0.000979341
internal_weight=0 367.535 3.80872 363.726
internal_count=6574 6513 49 6464
is_linear=0
shrinkage=0.01


Tree=27
num_leaves=5
num_cat=0
split_feature=3 5 2 3
split_gain=89.9487 83.8424 36.7398 28.2575
threshold=279.63576896703688 324.99975115465639 1650.9422434240521 2946.5628729024174
decision_type=2 2 2 2
left_child=-1 2 -2 -3
right_child=1 3 -4 -5
leaf_value=0.033145797872850012 0.072588117778895414 0.0021341124618114897 0.011660265279770727 -0.0034762742495657627
leaf_weight=8.1339955404400808 2.1920218542218204 161.9726174287498 1.8043898977339266 201.39922010153532
leaf_count=61 22 2705 27 3759
internal_value=0 -0.000474447 0.045079 -0.00097545
internal_weight=0 367.368 3.99641 363.372
internal_count=6574 6513 49 6464
is_linear=0
shrinkage=0.01


Tree=28
num_leaves=5
num_cat=0
split_feature=3 6 0 5
split_gain=43.9175 29.3121 22.9072 17.0505
threshold=279.63576896703688 4278.6041811907007 1014519.5793653071 234.10326734450285
decision_type=2 2 2 2
left_child=2 3 -1 -2
right_child=1 -3 -4 -5
leaf_value=0.044126005688677625 0.035396161326141054 -0.0043384557864212534 0.0080696270672490026 0.0014190339184009238
leaf_weight=3.259196199476718 1.4865462295711029 127.51089764013886 3.8356853500008583 228.66497145220637
leaf_count=25 20 2357 28 3969
internal_value=0 -0.000492361 0.0246329 0.00163849
internal_weight=0 357.662 7.09488 230.152
internal_count=6399 6346 53 3989
is_linear=0
shrinkage=0.01


Tree=29
num_leaves=5
num_cat=0
split_feature=3 6 0 5
split_gain=42.4311 29.1148 20.9865 16.2408
threshold=279.63576896703688 4278.6041811907007 1014519.5793653071 234.10326734450285
decision_type=2 2 2 2
left_child=2 3 -1 -2
right_child=1 -3 -4 -5
leaf_value=0.042006876116178142 0.033992489756450993 -0.0043357277852454383 0.007964859045974609 0.001409980008734404
leaf_weight=3.4062317386269561 1.5401065945625294 126.95889660716057 3.866763100028038 228.98968581855297
leaf_count=25 20 2357 28 3969
internal_value=0 -0.000490187 0.0239081 0.00162765
internal_weight=0 357.489 7.27299 230.53
internal_count=6399 6346 53 3989
is_linear=0
shrinkage=0.01


Tree=30
num_leaves=5
num_cat=0
split_feature=3 5 6 5
split_gain=74.3262 50.733 45.0952 30.2294
threshold=279.63576896703688 234.10326734450285 254.38026359067953 1425.4940684919404
decision_type=2 2 2 2
left_child=3 -2 -3 -1
right_child=1 2 -4 -5
leaf_value=0.054195374891999014 0.045912238708743072 0.035162245132783015 -0.00096381856949876962 0.012233885714532612
leaf_weight=3.3805924430489531 2.3585790246725074 3.4888271987438193 359.81698990985751 3.4884250834584236
leaf_count=21 29 25 6437 26
internal_value=0 -0.000316781 -0.0006169 0.0328853
internal_weight=0 365.664 363.306 6.86902
internal_count=6538 6491 6462 47
is_linear=0
shrinkage=0.01


Tree=31
num_leaves=5
num_cat=0
split_feature=3 5 6 3
split_gain=71.1788 48.0112 43.1677 28.6988
threshold=279.63576896703688 234.10326734450285 254.38026359067953 2946.5628729024174
decision_type=2 2 2 2
left_child=-1 -2 -3 -4
right_child=1 2 3 -5
leaf_value=0.031652706684377446 0.043629125026167566 0.033775771642641908 0.0021773104542564497 -0.0035047283996625478
leaf_weight=7.1002246290445319 2.4693909958004943 3.6136843264102927 160.99309514462948 198.4772662781179
leaf_count=47 29 25 2696 3741
internal_value=0 -0.00031537 -0.000614243 -0.000959959
internal_weight=0 365.553 363.084 359.47
internal_count=6538 6491 6462 6437
is_linear=0
shrinkage=0.01


Tree=32
num_leaves=5
num_cat=0
split_feature=6 3 2 5
split_gain=102.757 54.0675 37.7504 14.3106
threshold=254.38026359067953 2348.2207761133154 253.04566435168564 324.99975115465639
decision_type=2 2 2 2
left_child=-1 2 -2 -4
right_child=1 -3 3 -5
leaf_value=0.051344369300961555 0.036705785727775463 -0.0032055482493474796 0.025738327405622596 0.0033956963381223029
leaf_weight=3.9069282263517371 3.599570531398057 227.23338398709893 2.9311969950795165 130.3586153909564
leaf_count=26 37 4269 32 2081
internal_value=0 -0.000214708 0.00475002 0.00388704
internal_weight=0 364.123 136.889 133.29
internal_count=6445 6419 2150 2113
is_linear=0
shrinkage=0.01


Tree=33
num_leaves=5
num_cat=0
split_feature=6 3 2 5
split_gain=96.6105 53.4589 35.7066 13.7052
threshold=254.38026359067953 2348.2207761133154 253.04566435168564 324.99975115465639
decision_type=2 2 2 2
left_child=-1 2 -2 -4
right_child=1 -3 3 -5
leaf_value=0.048526128551840284 0.035203926714576658 -0.0031998964326076284 0.024958136745379535 0.0033673511951030949
leaf_weight=4.1127659380435935 3.7341504581272593 226.50614417344332 3.0076203644275656 130.80202619731426
leaf_count=26 37 4269 32 2081
internal_value=0 -0.000213758 0.00470379 0.00385264
internal_weight=0 364.05 137.544 133.81
internal_count=6445 6419 2150 2113
is_linear=0
shrinkage=0.01


Tree=34
num_leaves=5
num_cat=0
split_feature=5 3 2 6
split_gain=65.9806 49.3025 18.8979 13.931
threshold=234.10326734450285 2348.2207761133154 1002.3129327606968 1124.5717087684495
decision_type=2 2 2 2
left_child=-1 2 3 -2
right_child=1 -3 -4 -5
leaf_value=0.04785466512025402 0.031018483388856516 -0.0033411551438763242 0.0020841023738676387 0.0086387877588898227
leaf_weight=2.8398055881261817 3.0568855665624133 233.88963747397065 106.38365134969354 30.871818494051695
leaf_count=29 24 4417 1697 435
internal_value=0 -0.000529746 0.00415665 0.0106551
internal_weight=0 374.202 140.312 33.9287
internal_count=6602 6573 2156 459
is_linear=0
shrinkage=0.01


Tree=35
num_leaves=5
num_cat=0
split_feature=5 3 2 6
split_gain=62.3039 48.7993 18.3944 13.1097
threshold=234.10326734450285 2348.2207761133154 1002.3129327606968 1124.5717087684495
decision_type=2 2 2 2
left_child=-1 2 3 -2
right_child=1 -3 -4 -5
leaf_value=0.045386484591119859 0.029919437879765517 -0.0033357175637367883 0.0020694248424715633 0.0085217663595005509
leaf_weight=2.9790076836943618 3.1531914360821238 233.10947924479842 106.60559679195285 31.1396689042449
leaf_count=29 24 4417 1697 435
internal_value=0 -0.000527444 0.0041187 0.0104893
internal_weight=0 374.008 140.898 34.2929
internal_count=6602 6573 2156 459
is_linear=0
shrinkage=0.01


Tree=36
num_leaves=5
num_cat=0
split_feature=3 2 4 6
split_gain=71.8673 27.0868 25.4466 22.0797
threshold=581.78183806563186 514.49692100139964 2679.2709191340132 4425.1417550382739
decision_type=2 2 2 2
left_child=1 -1 -3 -2
right_child=3 2 -4 -5
leaf_value=0.033579642468606966 0.00051378024544765962 0.0032877093725310023 0.031842175026265539 -0.004796082461687892
leaf_weight=6.7452758923172977 233.59227380529046 13.327578254044058 4.0751979053020468 117.80605190247297
leaf_count=44 4103 140 44 2242
internal_value=0 0.016568 0.00997429 -0.00126635
internal_weight=0 24.1481 17.4028 351.398
internal_count=6573 228 184 6345
is_linear=0
shrinkage=0.01


Tree=37
num_leaves=5
num_cat=0
split_feature=3 2 4 6
split_gain=70.0674 25.2409 24.0748 21.983
threshold=581.78183806563186 514.49692100139964 2679.2709191340132 4425.1417550382739
decision_type=2 2 2 2
left_child=1 -1 -3 -2
right_child=3 2 -4 -5
leaf_value=0.032306788625729353 0.00051096566446323893 0.0032606186367769765 0.030688591153609238 -0.0047952662756173218
leaf_weight=6.9756256863474873 233.71231906116009 13.371467590332033 4.2070492133498183 117.24239925295115
leaf_count=44 4103 140 44 2242
internal_value=0 0.0162118 0.00982493 -0.00126167
internal_weight=0 24.5541 17.5785 350.955
internal_count=6573 228 184 6345
is_linear=0
shrinkage=0.01


Tree=38
num_leaves=5
num_cat=0
split_feature=5 3 3 6
split_gain=59.7104 48.0392 20.1666 15.5734
threshold=234.10326734450285 2326.8347792689869 187.67749774589956 374.72676852224976
decision_type=2 2 2 2
left_child=-1 2 -2 -3
right_child=1 3 -4 -5
leaf_value=0.042651132227881521 0.028274803661826633 0.025348337074293636 0.0043221190205574647 -0.0028280216157795476
leaf_weight=3.3601455539464942 3.6100370213389388 1.9792710915207852 133.50600013136864 219.84895380958915
leaf_count=29 21 22 2065 4201
internal_value=0 0.000299588 0.00495275 -0.00257662
internal_weight=0 358.944 137.116 221.828
internal_count=6338 6309 2086 4223
is_linear=0
shrinkage=0.01


Tree=39
num_leaves=5
num_cat=0
split_feature=3 5 3 6
split_gain=57.929 48.4644 19.3784 17.7316
threshold=2326.8347792689869 234.10326734450285 279.63576896703688 3143.1486353091195
decision_type=2 2 2 2
left_child=1 -1 3 -3
right_child=-2 2 -4 -5
leaf_value=0.048220446436662588 -0.0024898531646573179 0.036514376997943895 0.0040456810920634426 0.0042980791159972697
leaf_weight=2.6322568655014029 222.13248359039426 3.6161805167794219 130.94329873472452 3.2383656427264214
leaf_count=19 4233 21 2046 19
internal_value=0 0.00571562 0.00490368 0.0212941
internal_weight=0 140.43 137.798 6.85455
internal_count=6338 2105 2086 40
is_linear=0
shrinkage=0.01


Tree=40
num_leaves=5
num_cat=0
split_feature=3 6 2 5
split_gain=73.2698 29.2952 26.3536 28.7431
threshold=620.91045096049027 454.69304585553726 1736.6946580329663 1105.2380681556472
decision_type=2 2 2 2
left_child=2 -2 3 -1
right_child=1 -3 -4 -5
leaf_value=0.04315139980421101 0.019852206113344244 -0.0016695273252823346 0.0042397632933810362 0.014423959951968735
leaf_weight=5.4034672901034382 6.4469183199107638 333.70488891378045 10.862933591008185 9.7989599332213384
leaf_count=30 65 6105 119 96
internal_value=0 -0.00126162 0.0161349 0.0246347
internal_weight=0 340.152 26.0654 15.2024
internal_count=6415 6170 245 126
is_linear=0
shrinkage=0.01


Tree=41
num_leaves=5
num_cat=0
split_feature=3 6 2 5
split_gain=71.4588 28.5165 24.9307 26.1855
threshold=620.91045096049027 454.69304585553726 1736.6946580329663 1105.2380681556472
decision_type=2 2 2 2
left_child=2 -2 3 -1
right_child=1 -3 -4 -5
leaf_value=0.041119233652886264 0.019364371132570283 -0.0016640195241819662 0.0042008164034614791 0.014146289279006441
leaf_weight=5.6417383477091816 6.5761827901005736 333.14822344854474 10.909087650477884 9.9413240030407888
leaf_count=30 65 6105 119 96
internal_value=0 -0.00125696 0.015795 0.0239117
internal_weight=0 339.724 26.4922 15.5831
internal_count=6415 6170 245 126
is_linear=0
shrinkage=0.01


Tree=42
num_leaves=5
num_cat=0
split_feature=3 2 6 5
split_gain=55.8454 30.2548 26.153 26.1246
threshold=620.91045096049027 482.78977646885693 591.04112383908489 4252.2310099162087
decision_type=2 2 2 2
left_child=1 -1 3 -2
right_child=2 -3 -4 -5
leaf_value=0.033067527262177147 0.0074576591987860564 0.008303191847466829 -0.0012321781699444867 0.049774066294227273
leaf_weight=6.3102464303374317 7.2443282306194288 22.609012454748154 329.43415068462491 1.8268203772604463
leaf_count=35 91 223 6040 20
internal_value=0 0.0137068 -0.000770941 0.0159797
internal_weight=0 28.9193 338.505 9.07115
internal_count=6409 258 6151 111
is_linear=0
shrinkage=0.01


Tree=43
num_leaves=5
num_cat=0
split_feature=3 2 6 3
split_gain=54.5535 28.359 25.5275 24.8201
threshold=620.91045096049027 514.49692100139964 591.04112383908489 1995.0101563550086
decision_type=2 2 2 2
left_child=1 -1 3 -2
right_child=2 -3 -4 -5
leaf_value=0.031138752442923284 0.0022602452864778477 0.0079831216205618859 -0.0012275747785066638 0.035760544135147163
leaf_weight=6.924324348568919 5.5354906022548658 22.395595706999302 329.02847420051694 3.6831149645149708
leaf_count=38 64 220 6040 47
internal_value=0 0.0134517 -0.000767738 0.0156446
internal_weight=0 29.3199 338.247 9.21861
internal_count=6409 258 6151 111
is_linear=0
shrinkage=0.01


Tree=44
num_leaves=5
num_cat=0
split_feature=6 4 2 6
split_gain=36.2333 26.0006 16.5669 19.8461
threshold=4235.9387244801628 225.72306652210276 1002.3129327606968 1707.2910548941857
decision_type=2 2 2 2
left_child=1 -1 -3 -4
right_child=-2 2 3 -5
leaf_value=0.037305166766576123 -0.0040946406621769306 0.0081908083826673691 0.0063659879836613685 -0.00080575722500837905
leaf_weight=2.1291182637214652 126.26082802191377 38.763633292168379 52.065678812563419 149.03502959758043
leaf_count=19 2412 548 822 2648
internal_value=0 0.00251369 0.00220487 0.00105103
internal_weight=0 241.993 239.864 201.101
internal_count=6449 4037 4018 3470
is_linear=0
shrinkage=0.01


Tree=45
num_leaves=5
num_cat=0
split_feature=6 4 2 6
split_gain=35.9218 24.6766 16.2477 22.5924
threshold=4235.9387244801628 225.72306652210276 1251.8870223406432 1550.9466461813386
decision_type=2 2 2 2
left_child=1 -1 -3 -4
right_child=-2 2 3 -5
leaf_value=0.035757291533936621 -0.0040910661078257639 0.0070008547311159186 0.0072699146361185343 -0.0010876609450767968
leaf_weight=2.2100454531610003 125.7448958568275 54.317362125962973 41.681079167872667 144.39718007668853
leaf_count=19 2412 793 647 2578
internal_value=0 0.00249481 0.00218902 0.000784416
internal_weight=0 242.606 240.396 186.078
internal_count=6449 4037 4018 3225
is_linear=0
shrinkage=0.01


Tree=46
num_leaves=5
num_cat=0
split_feature=3 6 2 6
split_gain=52.301 21.1754 15.7615 15.3123
threshold=1300.0687332819841 254.38026359067953 253.04566435168564 3483.9193796463474
decision_type=2 2 2 2
left_child=1 -1 -3 -2
right_child=3 2 -4 -5
leaf_value=0.036674342373174858 0.00054568444691841043 0.024922073090448228 0.0052726839367119071 -0.0040391596170086998
leaf_weight=2.401525765657424 132.4494307115674 4.3495825231075278 66.415739085525274 161.86582468450069
leaf_count=10 2356 24 918 3129
internal_value=0 0.00747147 0.00648043 -0.00197586
internal_weight=0 73.1668 70.7653 294.315
internal_count=6437 952 942 5485
is_linear=0
shrinkage=0.01


Tree=47
num_leaves=5
num_cat=0
split_feature=3 5 6 2
split_gain=51.5006 20.1275 15.244 11.2954
threshold=1300.0687332819841 324.99975115465639 3483.9193796463474 253.04566435168564
decision_type=2 2 2 2
left_child=1 -1 -2 -3
right_child=2 3 -4 -5
leaf_value=0.027628479442127644 0.00054267773406558749 0.022251992577850561 -0.0040354090607953412 0.0050227845580294687
leaf_weight=4.6020271107554427 132.52172500267625 4.0414660945534697 161.21334156021476 65.073939971625805
leaf_count=32 2356 22 3129 898
internal_value=0 0.00737858 -0.00196996 0.00603025
internal_weight=0 73.7174 293.735 69.1154
internal_count=6437 952 5485 920
is_linear=0
shrinkage=0.01


Tree=48
num_leaves=5
num_cat=0
split_feature=3 6 3 5
split_gain=48.7185 33.6074 18.8748 16.3154
threshold=2630.4400503403949 254.38026359067953 581.78183806563186 411.90732330150325
decision_type=2 2 2 2
left_child=1 -1 -3 -2
right_child=3 2 -4 -5
leaf_value=0.032780279603140422 0.030835434425062935 0.010977229931549204 0.0018101001667760669 -0.0034596777573605401
leaf_weight=3.9739170521497718 1.3965978175401677 26.970944114029408 134.29844845831394 205.81935042142868
leaf_count=20 20 228 2224 4013
internal_value=0 0.00405115 0.00334323 -0.00322853
internal_weight=0 165.243 161.269 207.216
internal_count=6505 2472 2452 4033
is_linear=0
shrinkage=0.01


Tree=49
num_leaves=5
num_cat=0
split_feature=3 6 3 5
split_gain=48.1949 31.9546 18.3871 15.7679
threshold=2630.4400503403949 254.38026359067953 581.78183806563186 411.90732330150325
decision_type=2 2 2 2
left_child=1 -1 -3 -2
right_child=3 2 -4 -5
leaf_value=0.03156301160077149 0.029748333148349092 0.01080317596571416 0.001797846084616018 -0.0034544578927801816
leaf_weight=4.1063417643308631 1.4403333403170098 27.268641456961632 134.54176218062639 205.10851304978132
leaf_count=20 20 228 2224 4013
internal_value=0 0.00401455 0.00331544 -0.00322292
internal_weight=0 165.917 161.81 206.549
internal_count=6505 2472 2452 4033
is_linear=0
shrinkage=0.01


Tree=50
num_leaves=5
num_cat=0
split_feature=3 4 5 5
split_gain=35.06 15.1857 12.1216 20.8595
threshold=2946.5628729024174 3396.8812058928811 1425.4940684919404 1211.0339137245194
decision_type=2 2 2 2
left_child=1 2 3 -1
right_child=-2 -3 -4 -5
leaf_value=0.0053372303982536853 -0.0033637524536785884 -0.0030176985954968156 0.0022760916891738912 0.022876242840196345
leaf_weight=37.852745790034533 187.25416238605976 35.931443136185408 99.420808456838131 8.2608724199235422
leaf_count=473 3690 595 1585 119
internal_value=0 0.0028042 0.00424159 0.0084792
internal_weight=0 181.466 145.534 46.1136
internal_count=6462 2772 2177 592
is_linear=0
shrinkage=0.01


Tree=51
num_leaves=5
num_cat=0
split_feature=3 4 5 4
split_gain=34.7428 14.9744 11.8209 20.0064
threshold=2946.5628729024174 3396.8812058928811 1425.4940684919404 2794.4307797451484
decision_type=2 2 2 2
left_child=1 2 3 -1
right_child=-2 -3 -4 -5
leaf_value=0.0059847686552021995 -0.0033583542825051998 -0.0030118107600620126 0.0022596270963029068 0.026435464749347798
leaf_weight=41.093557324260473 186.62534414976835 35.823176339268684 99.647356893867254 5.41378554329276
leaf_count=514 3690 595 1585 78
internal_value=0 0.00278234 0.00420251 0.00836538
internal_weight=0 181.978 146.155 46.5073
internal_count=6462 2772 2177 592
is_linear=0
shrinkage=0.01


Tree=52
num_leaves=5
num_cat=0
split_feature=3 6 5 2
split_gain=50.4347 31.0482 25.6163 23.794
threshold=620.91045096049027 254.38026359067953 2874.9387283101992 2355.4793940750465
decision_type=2 2 2 2
left_child=3 -2 -3 -1
right_child=1 2 -4 -5
leaf_value=0.016839134690328633 0.023818796017542904 0.0023921517577489607 -0.0032114392599410149 -0.0025558897053687166
leaf_weight=26.599418893456459 5.2111110091209403 144.06079288944602 188.09701758623123 8.2988814115524274
leaf_count=186 28 2505 3637 83
internal_value=0 -0.000401117 -0.000781095 0.012227
internal_weight=0 337.369 332.158 34.8983
internal_count=6439 6170 6142 269
is_linear=0
shrinkage=0.01


Tree=53
num_leaves=5
num_cat=0
split_feature=3 6 2 4
split_gain=49.3036 30.3298 22.9405 22.5705
threshold=620.91045096049027 3005.3157265763625 2355.4793940750465 2877.5654541285289
decision_type=2 2 2 2
left_child=2 -2 3 -1
right_child=1 -3 -4 -5
leaf_value=0.013469872203490446 0.0032800043178847793 -0.0028436897411607143 -0.0025497222557336586 0.044239415445078423
leaf_weight=24.409128978848461 134.61304873228073 202.62342013791203 8.2776975184679014 2.6419935300946227
leaf_count=164 2289 3881 83 22
internal_value=0 -0.000399324 0.0120174 0.016475
internal_weight=0 337.236 35.3288 27.0511
internal_count=6439 6170 269 186
is_linear=0
shrinkage=0.01


Tree=54
num_leaves=5
num_cat=0
split_feature=6 2 4 3
split_gain=52.4203 25.9932 27.5561 17.3309
threshold=591.04112383908489 2272.5023113731086 225.72306652210276 1995.0101563550086
decision_type=2 2 2 2
left_child=3 2 -2 -1
right_child=1 -3 -4 -5
leaf_value=0.011511501327840292 0.042427212800193223 -0.0032459802267452466 0.001786824095244546 0.035907646177979376
leaf_weight=9.7102967835962755 1.6880106553435315 209.31780874356627 143.64673192799091 4.1591740660369387
leaf_count=83 14 3966 2308 47
internal_value=0 -0.000990131 0.00225885 0.0188274
internal_weight=0 354.653 145.335 13.8695
internal_count=6418 6288 2322 130
is_linear=0
shrinkage=0.01


Tree=55
num_leaves=5
num_cat=0
split_feature=6 2 4 3
split_gain=50.9874 25.7864 26.0361 16.0477
threshold=591.04112383908489 2272.5023113731086 225.72306652210276 1995.0101563550086
decision_type=2 2 2 2
left_child=3 2 -2 -1
right_child=1 -3 -4 -5
leaf_value=0.011322909659055807 0.040458516204386549 -0.0032403884870324585 0.0017747690001284164 0.034466014016750902
leaf_weight=9.8227227553725225 1.761169210076331 208.63946937769651 143.90363233909011 4.3112338595092288
leaf_count=83 14 3966 2308 47
internal_value=0 -0.000986223 0.00224248 0.0183822
internal_weight=0 354.304 145.665 14.134
internal_count=6418 6288 2322 130
is_linear=0
shrinkage=0.01


Tree=56
num_leaves=5
num_cat=0
split_feature=3 6 6 2
split_gain=39.708 24.4406 15.5499 15.8881
threshold=581.78183806563186 254.38026359067953 2700.1602551826386 982.95799824735684
decision_type=2 2 2 2
left_child=-1 -2 -3 -4
right_child=1 2 3 -5
leaf_value=0.011332590620255501 0.022475467277797138 0.0017137684003426148 0.0050053214348675084 -0.0037613127093548068
leaf_weight=28.223553620278835 4.3729675561189643 112.28181152418256 23.066490199416876 199.24612259864807
leaf_count=217 22 1933 383 3870
internal_value=0 -0.00101267 -0.00131965 -0.00285171
internal_weight=0 338.967 334.594 222.313
internal_count=6425 6208 6186 4253
is_linear=0
shrinkage=0.01


Tree=57
num_leaves=5
num_cat=0
split_feature=3 6 6 2
split_gain=38.9119 23.7141 15.4339 15.7562
threshold=581.78183806563186 254.38026359067953 2700.1602551826386 982.95799824735684
decision_type=2 2 2 2
left_child=-1 -2 -3 -4
right_child=1 2 3 -5
leaf_value=0.01114892979946997 0.021865588963911532 0.0017023309306510132 0.0049555372812846912 -0.0037567735483527097
leaf_weight=28.545218750834465 4.4723648577928534 112.47440097481012 23.182234901934862 198.49809991568327
leaf_count=217 22 1933 383 3870
internal_value=0 -0.0010087 -0.00131485 -0.00284568
internal_weight=0 338.627 334.155 221.68
internal_count=6425 6208 6186 4253
is_linear=0
shrinkage=0.01


Tree=58
num_leaves=5
num_cat=0
split_feature=2 5 3 6
split_gain=40.3625 56.1475 24.3291 19.5357
threshold=1164.2860095630701 234.10326734450285 279.63576896703688 1550.9466461813386
decision_type=2 2 2 2
left_child=1 -1 -3 -2
right_child=3 2 -4 -5
leaf_value=0.062374107661112621 0.0042760496824375644 0.023523593789885881 0.0033307980866283033 -0.0027779475413376897
leaf_weight=1.7820028141140927 46.527215637266636 6.6691361665725699 56.649363063275814 251.38197928294539
leaf_count=9 672 22 842 4746
internal_value=0 0.00701562 0.00545764 -0.00167626
internal_weight=0 65.1005 63.3185 297.909
internal_count=6291 873 864 5418
is_linear=0
shrinkage=0.01


Tree=59
num_leaves=5
num_cat=0
split_feature=2 5 2 6
split_gain=39.7489 51.5446 23.7825 19.3456
threshold=1164.2860095630701 234.10326734450285 253.04566435168564 1550.9466461813386
decision_type=2 2 2 2
left_child=1 -1 -3 -2
right_child=3 2 -4 -5
leaf_value=0.058302150479560493 0.0042366151778975977 0.023129852399183418 0.0032937235501122688 -0.002771861231164934
leaf_weight=1.8966933265328396 46.726594012230635 6.762599427253007 56.903643276542425 250.68462095409632
leaf_count=9 672 50 814 4746
internal_value=0 0.00693111 0.00540071 -0.00167075
internal_weight=0 65.5629 63.6662 297.411
internal_count=6291 873 864 5418
is_linear=0
shrinkage=0.01


Tree=60
num_leaves=5
num_cat=0
split_feature=3 5 3 6
split_gain=44.0525 26.018 18.3402 11.8662
threshold=2397.535433373555 234.10326734450285 279.63576896703688 2863.5595869443009
decision_type=2 2 2 2
left_child=1 -1 -3 -2
right_child=3 2 -4 -5
leaf_value=0.032672923980237252 0.0014051803045313485 0.015606858804242119 0.0028095703879975121 -0.004001314581617242
leaf_weight=3.1882013007998458 54.936143144965172 12.152019791305063 142.7574988566339 155.51478371396661
leaf_count=18 1025 52 2139 3164
internal_value=0 0.00439545 0.00381347 -0.00259
internal_weight=0 158.098 154.91 210.451
internal_count=6398 2209 2191 4189
is_linear=0
shrinkage=0.01


Tree=61
num_leaves=5
num_cat=0
split_feature=3 5 3 6
split_gain=43.5183 24.7206 17.7568 11.8099
threshold=2397.535433373555 234.10326734450285 279.63576896703688 2863.5595869443009
decision_type=2 2 2 2
left_child=1 -1 -3 -2
right_child=3 2 -4 -5
leaf_value=0.031463027641094217 0.0013962340794741884 0.015288275481047322 0.0027877554090428754 -0.0039974473980797032
leaf_weight=3.2940896227955809 55.013392683118582 12.343162372708319 143.15915030613542 154.89376323670149
leaf_count=18 1025 52 2139 3164
internal_value=0 0.00435426 0.00378 -0.00258385
internal_weight=0 158.796 155.502 209.907
internal_count=6398 2209 2191 4189
is_linear=0
shrinkage=0.01


Tree=62
num_leaves=5
num_cat=0
split_feature=3 2 6 3
split_gain=37.2353 19.3 16.8563 42.4366
threshold=2326.8347792689869 482.78977646885693 3542.2787235158917 279.63576896703688
decision_type=2 2 2 2
left_child=1 2 3 -1
right_child=-2 -3 -4 -5
leaf_value=0.050624484034906311 -0.0030007130099413445 0.0021620801266069144 0.0032568779138684007 0.0058385409836095147
leaf_weight=3.4178601801395434 218.81391272693872 133.27846623584628 8.5129867978394014 5.5532961376011372
leaf_count=8 4360 1952 63 60
internal_value=0 0.00345799 0.0133364 0.0229012
internal_weight=0 150.763 17.4841 8.97116
internal_count=6443 2083 131 68
is_linear=0
shrinkage=0.01


Tree=63
num_leaves=5
num_cat=0
split_feature=3 2 5 3
split_gain=36.8611 18.7401 16.4032 23.8935
threshold=2326.8347792689869 482.78977646885693 828.5220676841376 279.63576896703688
decision_type=2 2 2 2
left_child=1 2 -1 -4
right_child=-2 -3 3 -5
leaf_value=-0.0049658530900746432 -0.0029948072692941247 0.0021466855931391838 0.036002998639861145 0.0084846267624532744
leaf_weight=3.9185418188571957 218.15830498933792 133.56693647801876 4.8817574679851523 8.9216148369014245
leaf_count=17 4360 1952 13 101
internal_value=0 0.00342868 0.0130909 0.0182169
internal_weight=0 151.289 17.7219 13.8034
internal_count=6443 2083 131 114
is_linear=0
shrinkage=0.01


Tree=64
num_leaves=5
num_cat=0
split_feature=2 6 5 5
split_gain=37.511 37.9394 20.0988 13.9516
threshold=1002.3129327606968 2286.2243793741427 234.10326734450285 1381.2173513031282
decision_type=2 2 2 2
left_child=3 2 -2 -1
right_child=1 -3 -4 -5
leaf_value=0.015359020761561414 0.032946121544933947 -0.0034285423479119299 0.0034582811590991146 0.004232640432662315
leaf_weight=17.220279175788164 2.3739201202988616 227.67031985148787 87.8428550735116 32.614036228507757
leaf_count=166 10 4394 1373 492
internal_value=0 -0.00125384 0.00423421 0.00807737
internal_weight=0 317.887 90.2168 49.8343
internal_count=6435 5777 1383 658
is_linear=0
shrinkage=0.01


Tree=65
num_leaves=5
num_cat=0
split_feature=2 6 5 5
split_gain=36.8847 37.5798 19.1013 13.434
threshold=1002.3129327606968 2286.2243793741427 234.10326734450285 1381.2173513031282
decision_type=2 2 2 2
left_child=3 2 -2 -1
right_child=1 -3 -4 -5
leaf_value=0.015049235711643632 0.031717420100440832 -0.0034232625575877328 0.0034291983776741208 0.0041937888352152801
leaf_weight=17.486807331442833 2.453434243798255 226.89108109101653 88.147166553884745 32.752372175455093
leaf_count=166 10 4394 1373 492
internal_value=0 -0.00124922 0.00419523 0.00797226
internal_weight=0 317.492 90.6006 50.2392
internal_count=6435 5777 1383 658
is_linear=0
shrinkage=0.01


Tree=66
num_leaves=5
num_cat=0
split_feature=3 5 4 4
split_gain=40.4527 18.0241 17.4699 15.5187
threshold=620.91045096049027 411.90732330150325 3396.8812058928811 2717.712445752943
decision_type=2 2 2 2
left_child=1 -1 -2 -3
right_child=2 3 -4 -5
leaf_value=0.02968932441331576 0.00069699861781089326 0.0037201379550306493 -0.003861024080569386 0.020988583460577998
leaf_weight=4.039800412952899 185.41894837468863 25.328140363097194 153.86997805535793 6.5499399676918975
leaf_count=17 3218 182 3059 55
internal_value=0 0.00979003 -0.0013701 0.00726826
internal_weight=0 35.9179 339.289 31.8781
internal_count=6531 254 6277 237
is_linear=0
shrinkage=0.01


Tree=67
num_leaves=5
num_cat=0
split_feature=3 4 5 4
split_gain=39.7236 17.3757 17.0237 14.878
threshold=620.91045096049027 3396.8812058928811 411.90732330150325 2717.712445752943
decision_type=2 2 2 2
left_child=2 -2 -1 -4
right_child=1 -3 3 -5
leaf_value=0.028675558764328028 0.00069305299698665761 -0.0038567502098868734 0.003687884959516506 0.020449513166039015
leaf_weight=4.1615375876426688 185.54823035374284 153.2770267277956 25.422539919614792 6.6888668015599242
leaf_count=17 3218 3059 182 55
internal_value=0 -0.00136518 0.00964559 0.00717936
internal_weight=0 338.825 36.2729 32.1114
internal_count=6531 6277 254 237
is_linear=0
shrinkage=0.01


Tree=68
num_leaves=5
num_cat=0
split_feature=6 4 5 1
split_gain=29.7427 18.6808 15.2098 11.4553
threshold=4425.1417550382739 225.72306652210276 2854.0074895271268 841400.81532862759
decision_type=2 2 2 2
left_child=1 -1 3 -3
right_child=-2 2 -4 -5
leaf_value=0.025296229064959132 -0.0045905321787685985 0.0054537688201315151 -0.0014792981309492551 -0.00029848247127194278
leaf_weight=3.3044652864336959 106.57551902905107 97.892227657139301 108.99010821431875 53.563348591327667
leaf_count=28 2197 1387 1961 924
internal_value=0 0.00166921 0.00136944 0.00341944
internal_weight=0 263.75 260.446 151.456
internal_count=6497 4300 4272 2311
is_linear=0
shrinkage=0.01


Tree=69
num_leaves=5
num_cat=0
split_feature=6 4 5 1
split_gain=29.5424 18.0265 15.3675 11.5634
threshold=4468.6173917790438 225.72306652210276 2854.0074895271268 841400.81532862759
decision_type=2 2 2 2
left_child=1 -1 3 -3
right_child=-2 2 -4 -5
leaf_value=0.024540313685057061 -0.0046752001970092414 0.0054015895129970928 -0.0015185590979430769 -0.00034432072560721305
leaf_weight=3.3891220316290847 103.21584959700704 99.349477481096983 110.23138868063688 54.094612151384354
leaf_count=28 2142 1402 1991 934
internal_value=0 0.00162431 0.00132976 0.00337595
internal_weight=0 267.065 263.675 153.444
internal_count=6497 4355 4327 2336
is_linear=0
shrinkage=0.01


Tree=70
num_leaves=5
num_cat=0
split_feature=6 3 2 4
split_gain=45.7926 33.7592 13.8675 11.5927
threshold=254.38026359067953 2946.5628729024174 253.04566435168564 225.72306652210276
decision_type=2 2 2 2
left_child=-1 2 -2 -4
right_child=1 -3 3 -5
leaf_value=0.0250673747725907 0.016614941091552135 -0.0033257535158787714 0.023967027829166754 0.0019305606232966573
leaf_weight=7.3252199292182913 6.9506246931850901 176.81853732839227 2.4193926826119414 179.80359936878085
leaf_count=30 37 3657 20 2727
internal_value=0 -0.00018433 0.00275193 0.00222314
internal_weight=0 365.992 189.174 182.223
internal_count=6471 6441 2784 2747
is_linear=0
shrinkage=0.01


Tree=71
num_leaves=5
num_cat=0
split_feature=6 3 2 4
split_gain=44.2055 33.4499 13.435 11.1576
threshold=254.38026359067953 2946.5628729024174 253.04566435168564 225.72306652210276
decision_type=2 2 2 2
left_child=-1 2 -2 -4
right_child=1 -3 3 -5
leaf_value=0.024323878165763681 0.016259340030323421 -0.0033202898051786361 0.023281836085055723 0.0019172595385469392
leaf_weight=7.5111647844314566 7.0670736171305171 176.23146045207977 2.4780788123607627 180.15105639398098
leaf_count=30 37 3657 20 2727
internal_value=0 -0.000183487 0.00273066 0.00220715
internal_weight=0 365.928 189.696 182.629
internal_count=6471 6441 2784 2747
is_linear=0
shrinkage=0.01


Tree=72
num_leaves=5
num_cat=0
split_feature=3 6 2 3
split_gain=29.9178 19.7289 21.78 18.6865
threshold=2630.4400503403949 591.04112383908489 4121.645278913873 279.63576896703688
decision_type=2 2 2 2
left_child=3 2 -2 -1
right_child=1 -3 -4 -5
leaf_value=0.014685959261392729 -0.00019531289729349881 -0.0033909395460131955 0.05021669896851267 0.0018563408722653994
leaf_weight=12.212614044547079 2.0961986817419525 190.48666417971253 1.4497336186468599 161.23845447972417
leaf_count=50 24 3944 19 2387
internal_value=0 -0.00295588 0.0204153 0.00275967
internal_weight=0 194.033 3.54593 173.451
internal_count=6424 3987 43 2437
is_linear=0
shrinkage=0.01


Tree=73
num_leaves=5
num_cat=0
split_feature=3 6 2 3
split_gain=29.6351 19.2533 20.0865 18.1456
threshold=2630.4400503403949 591.04112383908489 4121.645278913873 279.63576896703688
decision_type=2 2 2 2
left_child=3 2 -2 -1
right_child=1 -3 -4 -5
leaf_value=0.014399462099375333 -0.00019438118956383214 -0.0033855900641520361 0.047514040879310729 0.0018436883124471749
leaf_weight=12.393291622400282 2.0957893468439575 189.8418304361403 1.5243933498859403 161.5380453132093
leaf_count=50 24 3944 19 2387
internal_value=0 -0.00294995 0.0198948 0.00273834
internal_weight=0 193.462 3.62018 173.931
internal_count=6424 3987 43 2437
is_linear=0
shrinkage=0.01


Tree=74
num_leaves=5
num_cat=0
split_feature=3 3 0 5
split_gain=34.2791 17.5666 14.114 18.0863
threshold=2946.5628729024174 581.78183806563186 1013719.5793653071 4186.9302209267889
decision_type=2 2 2 2
left_child=1 -1 -3 -4
right_child=-2 2 3 -5
leaf_value=0.0099891557395198199 -0.0030506748472228585 -0.0036311269811877371 0.0026649550196885235 0.02389340297669202
leaf_weight=30.758925430476665 177.52916456013918 37.46087097749114 115.32199407741427 4.1581114232540122
leaf_count=217 3689 620 1826 61
internal_value=0 0.0030789 0.00172456 0.00340374
internal_weight=0 187.7 156.941 119.48
internal_count=6413 2724 2507 1887
is_linear=0
shrinkage=0.01


Tree=75
num_leaves=5
num_cat=0
split_feature=3 0 3 4
split_gain=33.9344 17.3013 15.9144 13.2038
threshold=2946.5628729024174 1013519.5793653071 279.63576896703688 225.72306652210276
decision_type=2 2 2 2
left_child=1 -1 -3 -4
right_child=-2 2 3 -5
leaf_value=-0.0027409317202528949 -0.0030448232734354348 0.018167477961967472 0.028949076048717572 0.0034672544890413772
leaf_weight=40.450869005173445 176.98840827867389 8.2132573425769788 2.063987784087657 137.55309029296041
leaf_count=623 3689 33 17 2051
internal_value=0 0.00305407 0.00463975 0.00384396
internal_weight=0 188.281 147.83 139.617
internal_count=6413 2724 2101 2068
is_linear=0
shrinkage=0.01


Tree=76
num_leaves=5
num_cat=0
split_feature=5 6 0 4
split_gain=33.1901 24.4597 10.9027 12.9039
threshold=234.10326734450285 4278.6041811907007 1021519.5793653071 5379.8524436545231
decision_type=2 2 2 2
left_child=-1 2 3 -2
right_child=1 -3 -4 -5
leaf_value=0.024540344284835286 0.0034597842476292158 -0.0042533656864528211 -0.0036172602665032337 -0.0029165678074225898
leaf_weight=5.4225896224379531 169.72009976953268 112.28271737322211 37.075684200972319 39.038000904023647
leaf_count=30 2564 2353 720 722
internal_value=0 -0.000386338 0.0013799 0.0022674
internal_weight=0 358.117 245.834 208.758
internal_count=6389 6359 4006 3286
is_linear=0
shrinkage=0.01


Tree=77
num_leaves=5
num_cat=0
split_feature=5 6 0 4
split_gain=32.0739 24.2966 10.7944 12.7403
threshold=234.10326734450285 4278.6041811907007 1021519.5793653071 5379.8524436545231
decision_type=2 2 2 2
left_child=-1 2 3 -2
right_child=1 -3 -4 -5
leaf_value=0.023825064765042484 0.0034306837195236086 -0.0042503288712870228 -0.003612373168711356 -0.0029105822072287386
leaf_weight=5.5573080927133551 170.30831170454621 111.80615011230111 36.941814109683037 38.924310076981783
leaf_count=30 2564 2353 720 722
internal_value=0 -0.000384599 0.00137112 0.00225099
internal_weight=0 357.981 246.174 209.233
internal_count=6389 6359 4006 3286
is_linear=0
shrinkage=0.01


Tree=78
num_leaves=5
num_cat=0
split_feature=3 4 3 0
split_gain=30.9331 11.3905 9.96235 7.24863
threshold=2946.5628729024174 225.72306652210276 581.78183806563186 1013919.5793653071
decision_type=2 2 2 2
left_child=1 -1 -3 -4
right_child=-2 2 3 -5
leaf_value=0.021495233965217568 -0.0035950298452716222 0.0068272498930454896 -0.0027654555957615308 0.0021600290076624271
leaf_weight=3.023307390511035 175.07728274539113 33.918129988014698 40.901701986789703 110.86346884444356
leaf_count=20 3692 237 680 1728
internal_value=0 0.0022411 0.0019276 0.000832579
internal_weight=0 188.707 185.683 151.765
internal_count=6357 2665 2645 2408
is_linear=0
shrinkage=0.01


Tree=79
num_leaves=5
num_cat=0
split_feature=3 4 3 0
split_gain=30.6854 10.9902 9.76913 7.17523
threshold=2946.5628729024174 225.72306652210276 581.78183806563186 1013919.5793653071
decision_type=2 2 2 2
left_child=1 -1 -3 -4
right_child=-2 2 3 -5
leaf_value=0.020932516230164285 -0.0035900927222645468 0.006747009713909128 -0.0027593620629247769 0.0021446534893487337
leaf_weight=3.0889975801110259 174.44900763034821 34.150489754974842 40.78874634578824 111.10319581255317
leaf_count=20 3692 237 680 1728
internal_value=0 0.00222491 0.0019143 0.000827739
internal_weight=0 189.131 186.042 151.892
internal_count=6357 2665 2645 2408
is_linear=0
shrinkage=0.01


Tree=80
num_leaves=5
num_cat=0
split_feature=3 6 5 6
split_gain=31.5039 14.5341 13.7253 8.91056
threshold=620.91045096049027 649.58299359039279 2522.5773206633717 808.35656817813094
decision_type=2 2 2 2
left_child=1 -1 -2 -4
right_child=2 -3 3 -5
leaf_value=0.025940097583766974 0.0011875030401474183 0.0061490499743514252 0.0071423831742800023 -0.0034644284777886189
leaf_weight=4.2063095942139617 125.1349649913609 31.489253424108028 8.258841320872305 193.14989817887545
leaf_count=17 2087 226 113 3917
internal_value=0 0.0084812 -0.0014135 -0.00302949
internal_weight=0 35.6956 326.544 201.409
internal_count=6360 243 6117 4030
is_linear=0
shrinkage=0.01


Tree=81
num_leaves=5
num_cat=0
split_feature=3 6 5 6
split_gain=30.9838 13.8132 13.6338 8.8166
threshold=620.91045096049027 649.58299359039279 2522.5773206633717 808.35656817813094
decision_type=2 2 2 2
left_child=1 -1 -2 -4
right_child=2 -3 3 -5
leaf_value=0.025148704252080645 0.0011802002805953817 0.0060809137091656093 0.0070562095478953618 -0.0034592178525707151
leaf_weight=4.3168491795659056 125.28365172818303 31.683478958904743 8.3180402889847738 192.4819013401866
leaf_count=17 2087 226 113 3917
internal_value=0 0.00836736 -0.00140848 -0.00302362
internal_weight=0 36.0003 326.084 200.8
internal_count=6360 243 6117 4030
is_linear=0
shrinkage=0.01


Tree=82
num_leaves=5
num_cat=0
split_feature=3 4 6 2
split_gain=37.0961 29.2334 21.8424 12.6365
threshold=2397.535433373555 225.72306652210276 254.38026359067953 646.70342671549179
decision_type=2 2 2 2
left_child=2 -2 -1 -3
right_child=1 3 -4 -5
leaf_value=0.023604126062944521 0.07210389276702095 0.012348256151822256 0.0028743352283719941 -0.0034472211346699634
leaf_weight=5.2502664029598227 0.51901040971279044 5.1980728060007086 159.43494611606002 197.54621990025043
leaf_count=17 8 90 2181 4152
internal_value=0 -0.00285037 0.00353521 -0.00304225
internal_weight=0 203.263 164.685 202.744
internal_count=6448 4250 2198 4242
is_linear=0
shrinkage=0.01


Tree=83
num_leaves=5
num_cat=0
split_feature=3 4 6 4
split_gain=36.7031 27.0858 20.9822 12.4835
threshold=2397.535433373555 225.72306652210276 254.38026359067953 769.68358664174491
decision_type=2 2 2 2
left_child=2 -2 -1 -3
right_child=1 3 -4 -5
leaf_value=0.022937653276283942 0.066742474884112946 0.013974762909352366 0.0028518322826838085 -0.0033994475600883762
leaf_weight=5.3756685703992835 0.55781526491045852 4.2237274423241606 159.89387541264296 197.90533969551325
leaf_count=17 8 76 2181 4166
internal_value=0 -0.00284435 0.00350516 -0.00303639
internal_weight=0 202.687 165.27 202.129
internal_count=6448 4250 2198 4242
is_linear=0
shrinkage=0.01


Tree=84
num_leaves=5
num_cat=0
split_feature=5 2 6 6
split_gain=34.5027 20.8226 24.8003 14.1624
threshold=2708.6587958825417 400.29737833495341 3542.2787235158917 254.38026359067953
decision_type=2 2 2 2
left_child=1 2 -1 -3
right_child=-2 3 -4 -5
leaf_value=0.028904838682778534 -0.0032323736118376922 0.020716199006797657 0.0019665664882204882 0.0014048860368873462
leaf_weight=6.4952910616993886 196.13731683418155 3.8937698453664771 7.2124890685081482 153.82830586656928
leaf_count=42 3897 15 57 2456
internal_value=0 0.00290909 0.014731 0.00188163
internal_weight=0 171.43 13.7078 157.722
internal_count=6467 2570 99 2471
is_linear=0
shrinkage=0.01


Tree=85
num_leaves=5
num_cat=0
split_feature=5 2 6 6
split_gain=34.1835 20.2116 23.4528 13.6876
threshold=2708.6587958825417 400.29737833495341 3542.2787235158917 254.38026359067953
decision_type=2 2 2 2
left_child=1 2 -1 -3
right_child=-2 3 -4 -5
leaf_value=0.027939825814735756 -0.0032267613558790782 0.020189637900543213 0.0019529466941623939 0.0013959421617410581
leaf_weight=6.6857760660350305 195.50435268133879 3.9752752780914298 7.2266868501901627 154.04456869140267
leaf_count=42 3897 15 57 2456
internal_value=0 0.00288607 0.0144412 0.00186873
internal_weight=0 171.932 13.9125 158.02
internal_count=6467 2570 99 2471
is_linear=0
shrinkage=0.01


Tree=86
num_leaves=5
num_cat=0
split_feature=6 6 4 0
split_gain=29.9785 23.7074 12.0409 15.6398
threshold=254.38026359067953 3869.1475772552217 4053.3589224800603 1021519.5793653071
decision_type=2 2 2 2
left_child=-1 2 3 -2
right_child=1 -3 -4 -5
leaf_value=0.020512908660378006 0.0043259651240949541 -0.0035283849200649026 -0.0024774551474015544 -0.0038816876242006855
leaf_weight=7.0647076070308676 144.21289518103004 139.13352022692561 52.242448672652245 27.671055022627115
leaf_count=25 2052 2845 1015 538
internal_value=0 -0.000286008 0.0017268 0.00300464
internal_weight=0 363.26 224.126 171.884
internal_count=6475 6450 3605 2590
is_linear=0
shrinkage=0.01


Tree=87
num_leaves=5
num_cat=0
split_feature=6 2 6 1
split_gain=29.5276 19.4983 14.9973 9.15847
threshold=1550.9466461813386 1301.7841624078394 254.38026359067953 844600.81532862759
decision_type=2 2 2 2
left_child=2 -2 -1 -4
right_child=1 -3 3 -5
leaf_value=0.019995588692327093 0.0035113673860506425 -0.0025018313211276205 0.0072759560920582448 -0.0017854679222949344
leaf_weight=7.211121901869773 69.598284471780062 239.44593679532409 38.393018312752247 15.721366826444862
leaf_count=25 964 4728 499 259
internal_value=0 -0.00114763 0.00644865 0.00464342
internal_weight=0 309.044 61.3255 54.1144
internal_count=6475 5692 783 758
is_linear=0
shrinkage=0.01


Tree=88
num_leaves=5
num_cat=0
split_feature=2 6 2 5
split_gain=28.5387 18.2057 12.736 13.2929
threshold=982.95799824735684 3235.9974881334474 253.04566435168564 476.87217407617669
decision_type=2 2 2 2
left_child=2 -2 -1 -4
right_child=1 -3 3 -5
leaf_value=0.019489091116473727 0.00092223841598259746 -0.0038583223482065955 0.023151981177248544 0.00302692710418758
leaf_weight=6.5426443219184867 156.24757296219468 162.52370076626539 3.5564616546034804 42.538390196859837
leaf_count=45 2517 3402 25 563
internal_value=0 -0.0015151 0.00643287 0.00457968
internal_weight=0 318.771 52.6375 46.0949
internal_count=6552 5919 633 588
is_linear=0
shrinkage=0.01


Tree=89
num_leaves=5
num_cat=0
split_feature=2 6 2 5
split_gain=28.1264 18.1061 12.2285 12.7598
threshold=982.95799824735684 3235.9974881334474 253.04566435168564 476.87217407617669
decision_type=2 2 2 2
left_child=2 -2 -1 -4
right_child=1 -3 3 -5
leaf_value=0.01901710051005397 0.0009168107046086543 -0.0038540409054348985 0.02250847557067805 0.003002770139282311
leaf_weight=6.671405103057622 156.3917372263968 161.89783921837807 3.6397613361477843 42.667345799505711
leaf_count=45 2517 3402 25 563
internal_value=0 -0.00150988 0.00635949 0.00453593
internal_weight=0 318.29 52.9785 46.3071
internal_count=6552 5919 633 588
is_linear=0
shrinkage=0.01


Tree=90
num_leaves=5
num_cat=0
split_feature=3 5 0 0
split_gain=32.805 14.1925 13.9898 19.3881
threshold=894.67524097186686 2708.6587958825417 1016919.5793653071 1020719.5793653071
decision_type=2 2 2 2
left_child=-1 2 -2 -4
right_child=1 -3 3 -5
leaf_value=0.0064823106955176025 -0.0030576422593339486 -0.0034558867529321351 0.0082256838035040386 -0.001985926407194596
leaf_weight=59.39817213639617 52.40511242672801 178.81193608790636 41.693398397415876 33.557873472571373
leaf_count=520 933 3733 673 587
internal_value=0 -0.00163761 0.000909294 0.00367187
internal_weight=0 306.468 127.656 75.2513
internal_count=6446 5926 2193 1260
is_linear=0
shrinkage=0.01


Tree=91
num_leaves=5
num_cat=0
split_feature=3 5 0 0
split_gain=32.333 14.1106 13.8298 19.0062
threshold=894.67524097186686 2708.6587958825417 1016919.5793653071 1020719.5793653071
decision_type=2 2 2 2
left_child=-1 2 -2 -4
right_child=1 -3 3 -5
leaf_value=0.0064083401906378738 -0.0030517987201831853 -0.0034506594739393175 0.0081176195739822987 -0.0019800026314548006
leaf_weight=59.784460157155991 52.245120968669653 178.19504997506738 42.037769328802824 33.491296030580997
leaf_count=520 933 3733 673 587
internal_value=0 -0.00163218 0.000903877 0.00364011
internal_weight=0 305.969 127.774 75.5291
internal_count=6446 5926 2193 1260
is_linear=0
shrinkage=0.01


Tree=92
num_leaves=5
num_cat=0
split_feature=3 2 6 2
split_gain=26.2899 11.2372 9.22669 7.40194
threshold=2946.5628729024174 400.29737833495341 2700.1602551826386 350.13471838631807
decision_type=2 2 2 2
left_child=1 3 -2 -1
right_child=2 -3 -4 -5
leaf_value=0.0071675258725527888 0.0016219496780952888 0.0017159982883222125 -0.0041477702855709023 0.024567796054623506
leaf_weight=12.36259090900421 34.913006339222193 182.58412893489003 134.46073052659631 3.0473715253174296
leaf_count=85 675 2633 3031 24
internal_value=0 0.0024081 -0.00295846 0.0106085
internal_weight=0 197.994 169.374 15.41
internal_count=6448 2742 3706 109
is_linear=0
shrinkage=0.01


Tree=93
num_leaves=5
num_cat=0
split_feature=3 2 6 6
split_gain=26.0455 10.9616 9.18568 7.05258
threshold=2946.5628729024174 400.29737833495341 2700.1602551826386 4278.6041811907007
decision_type=2 2 2 2
left_child=1 -1 -2 -3
right_child=2 3 -4 -5
leaf_value=0.010443768948926428 0.0016112733197005537 0.0024310090425860094 -0.0041443700191559994 -0.0036033735784658017
leaf_weight=15.574684515595434 34.969679579138756 160.87903086841106 133.90417417883873 22.018681094050407
leaf_count=109 675 2247 3031 386
internal_value=0 0.00239033 -0.00295252 0.00170454
internal_weight=0 198.472 168.874 182.898
internal_count=6448 2742 3706 2633
is_linear=0
shrinkage=0.01


Tree=94
num_leaves=5
num_cat=0
split_feature=6 4 0 6
split_gain=21.5676 15.8672 13.6801 10.6854
threshold=4166.8898520662397 5431.6898568991883 1020919.5793653071 374.72676852224976
decision_type=2 2 2 2
left_child=1 2 3 -1
right_child=-2 -3 -4 -5
leaf_value=0.015510696063324128 -0.0039255873371146881 -0.004699146091944442 -0.0024104122185422704 0.0031577404407114791
leaf_weight=7.3254530131816855 115.35515785962343 37.49433059990406 46.958629708737135 158.79672070592642
leaf_count=38 2506 712 867 2315
internal_value=0 0.00129973 0.00235531 0.00370247
internal_weight=0 250.575 213.081 166.122
internal_count=6438 3932 3220 2353
is_linear=0
shrinkage=0.01


Tree=95
num_leaves=5
num_cat=0
split_feature=6 4 0 6
split_gain=21.4175 15.7265 13.4952 10.344
threshold=4166.8898520662397 5431.6898568991883 1020919.5793653071 374.72676852224976
decision_type=2 2 2 2
left_child=1 2 3 -1
right_child=-2 -3 -4 -5
leaf_value=0.015195540713424105 -0.0039214956179612417 -0.0046978898316290298 -0.0024042451242782779 0.0031321286533707538
leaf_weight=7.4399616941809645 114.90320936217904 37.318552527576685 46.845576576888561 159.29895217716694
leaf_count=38 2506 712 867 2315
internal_value=0 0.00129154 0.00233805 0.0036704
internal_weight=0 250.903 213.584 166.739
internal_count=6438 3932 3220 2353
is_linear=0
shrinkage=0.01


Tree=96
num_leaves=5
num_cat=0
split_feature=5 6 3 2
split_gain=34.1485 23.922 17.7248 17.5208
threshold=234.10326734450285 3005.3157265763625 187.67749774589956 858.12394069342633
decision_type=2 2 2 2
left_child=-1 2 -2 -3
right_child=1 3 -4 -5
leaf_value=0.022998196713291393 0.022458832374890207 0.0055039228787226255 0.0020579420989472884 -0.003618226792654413
leaf_weight=6.4368359297513953 4.3756198883056632 23.878256987780333 159.45795412361622 178.09091320633888
leaf_count=30 17 266 2469 3736
internal_value=0 -0.000236528 0.0026028 -0.00253974
internal_weight=0 365.803 163.834 201.969
internal_count=6518 6488 2486 4002
is_linear=0
shrinkage=0.01


Tree=97
num_leaves=5
num_cat=0
split_feature=5 6 2 3
split_gain=33.0402 23.689 17.3587 17.0767
threshold=234.10326734450285 3005.3157265763625 858.12394069342633 187.67749774589956
decision_type=2 2 2 2
left_child=-1 3 -3 -2
right_child=1 2 -4 -5
leaf_value=0.022362412853919128 0.021849771071536902 0.0054464562907068359 -0.0036133418208079901 0.0020435023787704417
leaf_weight=6.5865870043635359 4.4750030785799018 24.010043360292912 177.44770655781031 159.78644693642855
leaf_count=30 17 266 3736 2469
internal_value=0 -0.000235448 -0.00253358 0.00258309
internal_weight=0 365.719 201.458 164.261
internal_count=6518 6488 4002 2486
is_linear=0
shrinkage=0.01


Tree=98
num_leaves=5
num_cat=0
split_feature=6 3 2 4
split_gain=26.231 11.3617 11.0412 19.5742
threshold=4098.5882984196323 1522.3315436880241 2947.9909256497263 2779.0520606780597
decision_type=2 2 2 2
left_child=1 2 3 -1
right_child=-2 -3 -4 -5
leaf_value=0.0036018975534955569 -0.0038680006185689742 0.00019061965707830615 -0.0035327672598443743 0.016120634034685347
leaf_weight=61.85987738147378 118.4130084104836 151.26619408279657 13.955899000167845 15.649832949042318
leaf_count=683 2577 2766 170 186
internal_value=0 0.00187297 0.00465525 0.00612953
internal_weight=0 242.732 91.4656 77.5097
internal_count=6382 3805 1039 869
is_linear=0
shrinkage=0.01


Tree=99
num_leaves=5
num_cat=0
split_feature=6 3 2 4
split_gain=26.0232 11.1728 10.8526 18.8824
threshold=4098.5882984196323 1522.3315436880241 2947.9909256497263 2779.0520606780597
decision_type=2 2 2 2
left_child=1 2 3 -1
right_child=-2 -3 -4 -5
leaf_value=0.0035710929185821983 -0.0038637458686978368 0.00018963682960884286 -0.0035276955545176058 0.015783431718190945
leaf_weight=62.083092041313648 117.95587269961834 151.29503080621362 13.90668300539255 15.904162663966416
leaf_count=683 2577 2766 170 186
internal_value=0 0.00186011 0.0046104 0.00606159
internal_weight=0 243.189 91.8939 77.9873
internal_count=6382 3805 1039 869
is_linear=0
shrinkage=0.01


Tree=100
num_leaves=5
num_cat=0
split_feature=3 6 4 2
split_gain=32.9768 18.13 15.0727 10.5176
threshold=655.27644273351063 4647.1802829544495 225.72306652210276 1570.7064307619667
decision_type=2 2 2 2
left_child=3 2 -2 -1
right_child=1 -3 -4 -5
leaf_value=0.012932564148709221 0.030375016604437959 -0.0046255652592467333 0.00047174766552928794 0.0030954240838446351
leaf_weight=24.024470552802086 1.697751112282275 88.160617314279079 235.39793903753161 19.847971670329571
leaf_count=128 17 2042 4141 161
internal_value=0 -0.00075379 0.000685873 0.00848222
internal_weight=0 325.256 237.096 43.8724
internal_count=6489 6200 4158 289
is_linear=0
shrinkage=0.01


Tree=101
num_leaves=5
num_cat=0
split_feature=3 6 4 2
split_gain=32.3858 18.035 14.4576 10.1599
threshold=655.27644273351063 4647.1802829544495 225.72306652210276 1570.7064307619667
decision_type=2 2 2 2
left_child=3 2 -2 -1
right_child=1 -3 -4 -5
leaf_value=0.012702582197856385 0.029317676419452585 -0.0046239872310910842 0.00046918309346909501 0.0030705095745949752
leaf_weight=24.337186202406883 1.7501115277409542 87.753770790994167 235.50901374965906 19.909504741430283
leaf_count=128 17 2042 4141 161
internal_value=0 -0.000750636 0.00068198 0.00836848
internal_weight=0 325.013 237.259 44.2467
internal_count=6489 6200 4158 289
is_linear=0
shrinkage=0.01


Tree=102
num_leaves=5
num_cat=0
split_feature=3 6 3 6
split_gain=29.3631 20.3658 23.7199 10.5503
threshold=2348.2207761133154 762.88487576720536 5709.2920946356398 254.38026359067953
decision_type=2 2 2 2
left_child=3 2 -2 -1
right_child=1 -3 -4 -5
leaf_value=0.017183573855653382 0.00011373485624594873 -0.0027881597608545782 0.039674295146680472 0.0030007705904849676
leaf_weight=5.4177473485469809 3.9373272955417624 192.86462333425879 2.4641495384275913 164.43603476509452
leaf_count=19 48 4222 32 2166
internal_value=0 -0.00220572 0.015342 0.00345315
internal_weight=0 199.266 6.40148 169.854
internal_count=6487 4302 80 2185
is_linear=0
shrinkage=0.01


Tree=103
num_leaves=5
num_cat=0
split_feature=3 6 3 6
split_gain=29.0246 19.9512 22.2165 10.2002
threshold=2348.2207761133154 762.88487576720536 5709.2920946356398 254.38026359067953
decision_type=2 2 2 2
left_child=3 2 -2 -1
right_child=1 -3 -4 -5
leaf_value=0.016806219409709798 0.00011315716566412509 -0.0027820795615637823 0.037937903118658939 0.0029769004175480567
leaf_weight=5.5116480588912955 3.9377750828862181 192.32763351872563 2.5638781003654003 164.93021073564887
leaf_count=19 48 4222 32 2166
internal_value=0 -0.00219966 0.0150291 0.0034241
internal_weight=0 198.829 6.50165 170.442
internal_count=6487 4302 80 2185
is_linear=0
shrinkage=0.01


Tree=104
num_leaves=5
num_cat=0
split_feature=3 6 5 5
split_gain=39.483 30.5687 23.4001 19.3813
threshold=894.67524097186686 591.04112383908489 4252.2310099162087 234.10326734450285
decision_type=2 2 2 2
left_child=3 2 -2 -1
right_child=1 -3 -4 -5
leaf_value=0.026659359623555052 0.0081718361845494799 -0.0020311221638475391 0.046338870811629199 0.0056524348271610866
leaf_weight=4.7430511862039557 9.134026385843752 296.44967528432608 1.9491382762789715 59.33159951493144
leaf_count=14 82 5855 17 508
internal_value=0 -0.00142152 0.0148841 0.00720745
internal_weight=0 307.533 11.0832 64.0747
internal_count=6476 5954 99 522
is_linear=0
shrinkage=0.01


Tree=105
num_leaves=5
num_cat=0
split_feature=3 6 5 5
split_gain=38.862 29.9163 21.5984 18.4396
threshold=894.67524097186686 591.04112383908489 4252.2310099162087 234.10326734450285
decision_type=2 2 2 2
left_child=3 2 -2 -1
right_child=1 -3 -4 -5
leaf_value=0.025827390576138146 0.0080649147357291975 -0.0020251553205848623 0.044015709947164375 0.0055925848018534745
leaf_weight=4.8711983859539023 9.2089738734066469 295.84815939888358 2.0415845140814772 59.667917180806398
leaf_count=14 82 5855 17 508
internal_value=0 -0.00141651 0.0145887 0.00711984
internal_weight=0 307.099 11.2506 64.5391
internal_count=6476 5954 99 522
is_linear=0
shrinkage=0.01


Tree=106
num_leaves=5
num_cat=0
split_feature=3 4 0 6
split_gain=27.2381 21.7947 12.0662 11.6892
threshold=2397.535433373555 323.23943748104313 1014119.5793653071 591.04112383908489
decision_type=2 2 2 2
left_child=2 -2 -1 -3
right_child=1 3 -4 -5
leaf_value=-0.001436133144115925 0.04285289423608106 0.013157092296543082 0.0044686850796492048 -0.0033068160095148604
leaf_weight=48.162461657077074 1.0456150174140919 4.4142934866249552 122.95249494537711 186.85538457706571
leaf_count=670 13 42 1553 4157
internal_value=0 -0.00267794 0.0028067 -0.00292685
internal_weight=0 192.315 171.115 191.27
internal_count=6435 4212 2223 4199
is_linear=0
shrinkage=0.01


Tree=107
num_leaves=5
num_cat=0
split_feature=3 4 0 6
split_gain=26.9676 20.9443 11.877 11.5636
threshold=2397.535433373555 388.57778051652991 1014119.5793653071 591.04112383908489
decision_type=2 2 2 2
left_child=2 -2 -1 -3
right_child=1 3 -4 -5
leaf_value=-0.0014310603229052846 0.034115314983390571 0.012920208762006226 0.0044266191568338416 -0.0033511670776691527
leaf_weight=48.09334359690547 1.5352662838995446 4.4727565422654143 123.50316026806831 185.79464197903872
leaf_count=670 20 42 1553 4150
internal_value=0 -0.00267183 0.00278489 -0.00296866
internal_weight=0 191.803 171.597 190.267
internal_count=6435 4212 2223 4192
is_linear=0
shrinkage=0.01


Tree=108
num_leaves=5
num_cat=0
split_feature=5 6 1 2
split_gain=35.9695 19.2843 10.8053 10.9096
threshold=234.10326734450285 4166.8898520662397 829800.81532862759 4814.7581558791089
decision_type=2 2 2 2
left_child=-1 2 -2 -4
right_child=1 -3 3 -5
leaf_value=0.022569219958436519 -0.0041224058840822406 -0.0040362715867345439 0.0026957779858957694 -0.0036816826563119682
leaf_weight=6.9002904221415511 35.568321384489536 107.57528178021312 193.1703577041626 31.148514498025179
leaf_count=29 600 2416 2817 594
internal_value=0 -0.000475599 0.000998273 0.00181022
internal_weight=0 367.462 259.887 224.319
internal_count=6456 6427 4011 3411
is_linear=0
shrinkage=0.01


Tree=109
num_leaves=5
num_cat=0
split_feature=5 6 1 2
split_gain=34.8331 19.1606 10.7125 10.7927
threshold=234.10326734450285 4166.8898520662397 829800.81532862759 4814.7581558791089
decision_type=2 2 2 2
left_child=-1 2 -2 -4
right_child=1 -3 3 -5
leaf_value=0.021954735241561326 -0.0041189216577952456 -0.0040325117739670024 0.0026751517614886622 -0.0036769459940530049
leaf_weight=7.0577953085303298 35.421996131539345 107.14195502176881 193.69180445000529 31.034046489745378
leaf_count=29 600 2416 2817 594
internal_value=0 -0.000473488 0.000992297 0.00179794
internal_weight=0 367.29 260.148 224.726
internal_count=6456 6427 4011 3411
is_linear=0
shrinkage=0.01


Tree=110
num_leaves=5
num_cat=0
split_feature=3 6 3 5
split_gain=24.1443 16.4623 24.5614 33.231
threshold=581.78183806563186 591.04112383908489 1995.0101563550086 3207.693264582846
decision_type=2 2 2 2
left_child=-1 2 -2 -4
right_child=1 -3 3 -5
leaf_value=0.007640863922068343 -0.00088042109363365795 -0.001209163130676533 0.008135896074713083 0.062516120202118663
leaf_weight=38.074940517544746 7.3431647494435293 316.76822649687529 3.0530275069177151 1.7782526537775991
leaf_count=232 56 6185 27 20
internal_value=0 -0.000770593 0.0106406 0.0281517
internal_weight=0 328.943 12.1744 4.83128
internal_count=6520 6288 103 47
is_linear=0
shrinkage=0.01


Tree=111
num_leaves=5
num_cat=0
split_feature=4 0 6 5
split_gain=23.9688 14.9551 12.5053 11.9855
threshold=3396.8812058928811 1021319.5793653071 374.72676852224976 234.10326734450285
decision_type=2 2 2 2
left_child=1 2 -1 -4
right_child=-2 -3 3 -5
leaf_value=0.02028775729260095 -0.0030458792882211471 -0.0027114697936141108 0.021824449240029704 0.0027444038833892978
leaf_weight=4.3558127135038367 145.83533112332225 48.793832920491695 3.359424576163291 164.71565274149179
leaf_count=20 3136 1011 16 2337
internal_value=0 0.00217621 0.0035593 0.00312577
internal_weight=0 221.225 172.431 168.075
internal_count=6520 3384 2373 2353
is_linear=0
shrinkage=0.01


Tree=112
num_leaves=5
num_cat=0
split_feature=5 3 4 5
split_gain=30.7256 21.4627 11.6165 11.4721
threshold=234.10326734450285 279.63576896703688 1262.6872512619395 1425.4940684919404
decision_type=2 2 2 2
left_child=-1 3 -3 -2
right_child=1 2 -4 -5
leaf_value=0.021902708127462756 0.018868409245687966 0.0030852984963542314 -0.002257452172359758 0.0016633928082538639
leaf_weight=5.9549151286482802 7.9717172533273679 47.198217589408159 295.37725190445781 7.5423360615968704
leaf_count=22 21 669 5656 31
internal_value=0 -0.00100036 -0.00152136 0.010504
internal_weight=0 358.09 342.575 15.5141
internal_count=6399 6377 6325 52
is_linear=0
shrinkage=0.01


Tree=113
num_leaves=5
num_cat=0
split_feature=5 5 3 6
split_gain=30.162 16.9315 19.9267 8.16805
threshold=1349.6078416496141 234.10326734450285 279.63576896703688 4166.8898520662397
decision_type=2 2 2 2
left_child=1 -1 -3 -2
right_child=3 2 -4 -5
leaf_value=0.021320611453358524 -0.00082796165852199539 0.018422910785338701 0.0016084930196047084 -0.004354882213763611
leaf_weight=6.0867827534675589 198.16856569424272 8.1235588341951352 53.237233951687813 98.204358946532011
leaf_count=22 3296 21 723 2337
internal_value=0 0.00541258 0.00383455 -0.00199662
internal_weight=0 67.4476 61.3608 296.373
internal_count=6399 766 744 5633
is_linear=0
shrinkage=0.01


Tree=114
num_leaves=5
num_cat=0
split_feature=3 2 0 3
split_gain=23.7771 13.7695 13.3288 13.2728
threshold=2348.2207761133154 858.12394069342633 1013719.5793653071 339.27635455854823
decision_type=2 2 2 2
left_child=2 -2 -1 -4
right_child=1 -3 3 -5
leaf_value=-0.002134288835817265 0.0090164584338366036 -0.0030307154659309603 0.013490972469440119 0.0032069565693355769
leaf_weight=42.379403594881296 10.012650687247513 180.86569295451045 14.086929492652414 115.0155258923769
leaf_count=561 181 4047 56 1523
internal_value=0 -0.00239877 0.00273175 0.00432909
internal_weight=0 190.878 171.482 129.102
internal_count=6368 4228 2140 1579
is_linear=0
shrinkage=0.01


Tree=115
num_leaves=5
num_cat=0
split_feature=3 2 0 3
split_gain=23.5327 13.5842 13.1316 12.8662
threshold=2348.2207761133154 858.12394069342633 1013719.5793653071 339.27635455854823
decision_type=2 2 2 2
left_child=2 -2 -1 -4
right_child=1 -3 3 -5
leaf_value=-0.0021282390759727503 0.0088909541696291314 -0.0030248417722674122 0.013243644126698441 0.0031807887553718765
leaf_weight=42.289050154387951 10.103337559849022 180.31837023422122 14.278263531625269 115.38496804609895
leaf_count=561 181 4047 56 1523
internal_value=0 -0.00239262 0.0027107 0.00428889
internal_weight=0 190.422 171.952 129.663
internal_count=6368 4228 2140 1579
is_linear=0
shrinkage=0.01


Tree=116
num_leaves=5
num_cat=0
split_feature=3 5 2 0
split_gain=21.641 13.3989 9.11818 5.22771
threshold=2397.535433373555 234.10326734450285 858.12394069342633 1014919.5793653071
decision_type=2 2 2 2
left_child=1 -1 -2 -3
right_child=2 3 -4 -5
leaf_value=0.015445776399300662 0.0062872961278073779 -0.0011685335941614299 -0.003630111415398683 0.0024899140546679778
leaf_weight=6.8588349670171729 9.7750414460897428 60.569041397422552 179.67546395584941 109.98197576031089
leaf_count=19 168 825 4056 1363
internal_value=0 0.00174178 -0.0031184 0.00119066
internal_weight=0 177.41 189.451 170.551
internal_count=6431 2207 4224 2188
is_linear=0
shrinkage=0.01


Tree=117
num_leaves=5
num_cat=0
split_feature=3 5 2 0
split_gain=21.4727 13.0232 9.03207 5.16291
threshold=2397.535433373555 234.10326734450285 858.12394069342633 1014919.5793653071
decision_type=2 2 2 2
left_child=1 -1 -2 -3
right_child=2 3 -4 -5
leaf_value=0.015132925656551754 0.0062167661982227077 -0.0011640936757950826 -0.0036252536481671612 0.0024713729571111324
leaf_weight=6.9655973315238944 9.8366936445236188 60.498305786401033 179.02440742403269 110.25616270303726
leaf_count=19 168 825 4056 1363
internal_value=0 0.00173007 -0.00311264 0.00118333
internal_weight=0 177.72 188.861 170.754
internal_count=6431 2207 4224 2188
is_linear=0
shrinkage=0.01


Tree=118
num_leaves=5
num_cat=0
split_feature=3 2 6 0
split_gain=23.3876 11.5241 11.1054 12.2816
threshold=1362.5477268310085 1025.8686535721911 2883.2182032591791 1010119.5793653071
decision_type=2 2 2 2
left_child=-1 -2 3 -3
right_child=1 2 -4 -5
leaf_value=0.003683392284721294 0.0041859919359469354 0.024467863510913724 -0.0043030282714403081 -0.00037801036306543489
leaf_weight=101.74298063293099 27.316896330565214 2.0384785234928122 150.86942124739289 82.827600192278624
leaf_count=1037 435 41 3481 1442
internal_value=0 -0.00196265 -0.00267515 0.000218786
internal_weight=0 263.052 235.735 84.8661
internal_count=6436 5399 4964 1483
is_linear=0
shrinkage=0.01


Tree=119
num_leaves=5
num_cat=0
split_feature=3 2 6 0
split_gain=23.1252 11.4151 11.0701 11.8665
threshold=1362.5477268310085 1025.8686535721911 2883.2182032591791 1010119.5793653071
decision_type=2 2 2 2
left_child=-1 -2 3 -3
right_child=1 2 -4 -5
leaf_value=0.0036515923249658046 0.0041477625166324548 0.023756421975158079 -0.0043001698995134788 -0.0003762757643590612
leaf_weight=102.11843108013272 27.431484248489141 2.0889709964394561 150.22161909192801 82.796296410262585
leaf_count=1037 435 41 3481 1442
internal_value=0 -0.00195677 -0.00266903 0.000217614
internal_weight=0 262.538 235.107 84.8853
internal_count=6436 5399 4964 1483
is_linear=0
shrinkage=0.01


Tree=120
num_leaves=5
num_cat=0
split_feature=2 6 1 1
split_gain=34.0383 30.2849 10.4535 20.0643
threshold=1976.7379699209403 254.38026359067953 830400.81532862759 833200.81532862759
decision_type=2 2 2 2
left_child=1 -1 -3 -4
right_child=-2 2 3 -5
leaf_value=0.026662106729150245 -0.002173099632897595 -0.0028815539721705734 0.014395194687612661 0.0026648560479121011
leaf_weight=5.6911669373512259 218.42243626713753 23.98887974396348 17.044532060623169 100.90805304050446
leaf_count=12 4464 382 303 1282
internal_value=0 0.004043 0.00313608 0.00435993
internal_weight=0 147.633 141.941 117.953
internal_count=6443 1979 1967 1585
is_linear=0
shrinkage=0.01


Tree=121
num_leaves=5
num_cat=0
split_feature=2 6 1 1
split_gain=33.6252 28.9802 10.3021 19.442
threshold=1976.7379699209403 254.38026359067953 830400.81532862759 833200.81532862759
decision_type=2 2 2 2
left_child=1 -1 -3 -4
right_child=-2 2 3 -5
leaf_value=0.025829981280655723 -0.0021670240692899284 -0.0028755392926183999 0.014118485260330113 0.0026445483744939151
leaf_weight=5.8449464142322531 217.9482950642705 23.919853951781988 17.291665896773338 101.17731734737754
leaf_count=12 4464 382 303 1282
internal_value=0 0.00400646 0.00311062 0.00431928
internal_weight=0 148.234 142.389 118.469
internal_count=6443 1979 1967 1585
is_linear=0
shrinkage=0.01


Tree=122
num_leaves=5
num_cat=0
split_feature=3 3 4 2
split_gain=28.681 16.1264 9.33284 8.16307
threshold=3199.1521684181885 339.27635455854823 2116.7998289090592 3937.7047223470695
decision_type=2 2 2 2
left_child=1 2 -1 -3
right_child=-2 3 -4 -5
leaf_value=0.0047793777260991101 -0.0033151741968922726 0.0021914686879352103 0.017929192027549314 -0.0044770155573991277
leaf_weight=12.313715644180776 145.39473639428616 178.83784582838416 9.6090660840272886 20.456696234643459
leaf_count=53 3442 2565 36 376
internal_value=0 0.00240247 0.0105431 0.00150698
internal_weight=0 221.217 21.9228 199.295
internal_count=6472 3030 89 2941
is_linear=0
shrinkage=0.01


Tree=123
num_leaves=5
num_cat=0
split_feature=3 3 4 2
split_gain=28.4188 15.7355 8.93619 8.08865
threshold=3199.1521684181885 339.27635455854823 2116.7998289090592 3937.7047223470695
decision_type=2 2 2 2
left_child=1 2 -1 -3
right_child=-2 3 -4 -5
leaf_value=0.0047329126228389451 -0.0033096928581663999 0.0021758008397532243 0.017522360155390122 -0.0044748221287511242
leaf_weight=12.372708395123484 144.91352593153715 179.2301929667592 9.7829025387763959 20.365316089242697
leaf_count=53 3442 2565 36 376
internal_value=0 0.00238473 0.0103801 0.00149722
internal_weight=0 221.751 22.1556 199.596
internal_count=6472 3030 89 2941
is_linear=0
shrinkage=0.01


Tree=124
num_leaves=5
num_cat=0
split_feature=6 3 4 6
split_gain=29.6391 20.826 22.3482 8.17258
threshold=254.38026359067953 2348.2207761133154 225.72306652210276 2700.1602551826386
decision_type=2 2 2 2
left_child=-1 -2 -3 -4
right_child=1 2 3 -5
leaf_value=0.015409100177214393 0.0021204558966676384 0.043937079413589049 0.00058686907903360644 -0.0041754581490637812
leaf_weight=12.269966676831244 172.16297053173184 1.0224335752427567 48.624799840152264 139.17094822973013
leaf_count=33 2148 11 937 3346
internal_value=0 -0.000394977 -0.00268853 -0.00294238
internal_weight=0 360.981 188.818 187.796
internal_count=6475 6442 4294 4283
is_linear=0
shrinkage=0.01


Tree=125
num_leaves=5
num_cat=0
split_feature=6 3 4 6
split_gain=28.9026 20.6399 21.2935 8.14478
threshold=254.38026359067953 2348.2207761133154 225.72306652210276 2700.1602551826386
decision_type=2 2 2 2
left_child=-1 -2 -3 -4
right_child=1 2 3 -5
leaf_value=0.015097547447148899 0.0021054455991174883 0.04183494658591403 0.00058361131482732734 -0.0041721510294110854
leaf_weight=12.460499882698057 172.52842210605741 1.0683578215539444 48.653344701975584 138.59105649590492
leaf_count=33 2148 11 937 3346
internal_value=0 -0.000393204 -0.00268242 -0.00293642
internal_weight=0 360.841 188.313 187.244
internal_count=6475 6442 4294 4283
is_linear=0
shrinkage=0.01


Tree=126
num_leaves=5
num_cat=0
split_feature=6 3 2 2
split_gain=25.8588 16.4175 10.5213 11.0241
threshold=4235.9387244801628 581.78183806563186 1002.3129327606968 940.38462548559562
decision_type=2 2 2 2
left_child=1 -1 3 -3
right_child=-2 2 -4 -5
leaf_value=0.00808208711391783 -0.0038920723534988416 0.0039097785393215232 2.9795592678640007e-05 0.021078004691014885
leaf_weight=38.32022500783205 102.44177744910121 32.673731088638306 186.16201191022992 4.2236446589231482
leaf_count=196 2433 440 3296 56
internal_value=0 0.00203546 0.000996685 0.00587503
internal_weight=0 261.38 223.059 36.8974
internal_count=6421 3988 3792 496
is_linear=0
shrinkage=0.01


Tree=127
num_leaves=5
num_cat=0
split_feature=6 5 3 2
split_gain=25.6407 16.1066 9.10266 8.63529
threshold=4235.9387244801628 1381.2173513031282 435.75274764309398 1002.3129327606968
decision_type=2 2 2 2
left_child=1 3 -3 -1
right_child=-2 2 -4 -5
leaf_value=0.011682209739458025 -0.0038878848578464253 0.0090278579633837081 9.5924137702745445e-05 0.0038015497972730219
leaf_weight=21.023466970771551 102.04384245723486 12.148314401507376 187.681117977947 41.061190620064735
leaf_count=142 2433 66 3248 532
internal_value=0 0.00202117 0.000638927 0.00647014
internal_weight=0 261.914 199.829 62.0847
internal_count=6421 3988 3314 674
is_linear=0
shrinkage=0.01


Tree=128
num_leaves=5
num_cat=0
split_feature=3 5 6 4
split_gain=23.6081 11.808 9.80059 7.23815
threshold=2348.2207761133154 234.10326734450285 454.69304585553726 323.23943748104313
decision_type=2 2 2 2
left_child=1 -1 -2 -4
right_child=2 -3 3 -5
leaf_value=0.014843594464178359 0.015026442338420081 0.0016528652596869441 0.022456160725714304 -0.0033417832118296537
leaf_weight=7.0673348754644385 3.001156158745288 170.72791834548116 1.0940115526318539 184.72111900150776
leaf_count=18 24 2109 14 4260
internal_value=0 0.00217719 -0.00290035 -0.00318989
internal_weight=0 177.795 188.816 185.815
internal_count=6425 2127 4298 4274
is_linear=0
shrinkage=0.01


Tree=129
num_leaves=5
num_cat=0
split_feature=3 5 6 4
split_gain=23.4015 11.4735 9.62533 7.10373
threshold=2348.2207761133154 234.10326734450285 701.27410972262385 323.23943748104313
decision_type=2 2 2 2
left_child=1 -1 -2 -4
right_child=2 -3 3 -5
leaf_value=0.014551722529386779 0.010604864109365548 0.0016419344569698375 0.021847230856671944 -0.0034275063395681473
leaf_weight=7.1730219572782508 5.1378494314849368 171.01034192740917 1.1188567727804173 182.01359429955482
leaf_count=18 57 2109 14 4227
internal_value=0 0.00216164 -0.00289436 -0.00327309
internal_weight=0 178.183 188.27 183.132
internal_count=6425 2127 4298 4241
is_linear=0
shrinkage=0.01


Tree=130
num_leaves=5
num_cat=0
split_feature=6 2 5 0
split_gain=19.8191 11.0449 9.51445 11.4344
threshold=4278.6041811907007 4814.7581558791089 3737.2888405095514 1020719.5793653071
decision_type=2 2 2 2
left_child=1 2 3 -1
right_child=-2 -3 -4 -5
leaf_value=0.0045035974794434101 -0.0038385505929330998 -0.0042977663147114702 -0.0017446452558630241 -0.0014090503733089413
leaf_weight=145.73179249092937 97.578074764460325 29.93623324111104 49.670809336006641 42.172708440572023
leaf_count=1801 2323 608 893 766
internal_value=0 0.00142639 0.00214768 0.00317658
internal_weight=0 267.512 237.575 187.905
internal_count=6391 4068 3460 2567
is_linear=0
shrinkage=0.01


Tree=131
num_leaves=5
num_cat=0
split_feature=6 2 5 0
split_gain=19.6698 10.9435 9.38641 11.2502
threshold=4278.6041811907007 4814.7581558791089 3737.2888405095514 1020719.5793653071
decision_type=2 2 2 2
left_child=1 2 3 -1
right_child=-2 -3 -4 -5
leaf_value=0.004461046721581677 -0.0038342150686769189 -0.0042948888606165218 -0.0017390204411899257 -0.0014040351644437224
leaf_weight=146.38959005847573 97.204235002398491 29.807850427925587 49.58422714099288 42.113326638936996
leaf_count=1801 2323 608 893 766
internal_value=0 0.00141724 0.00213239 0.00315073
internal_weight=0 267.895 238.087 188.503
internal_count=6391 4068 3460 2567
is_linear=0
shrinkage=0.01


Tree=132
num_leaves=5
num_cat=0
split_feature=5 6 6 1
split_gain=23.9482 12.1825 22.1421 9.44984
threshold=2854.0074895271268 2241.9791607381399 2199.7480250134568 849800.81532862759
decision_type=2 2 2 2
left_child=1 2 3 -1
right_child=-2 -3 -4 -5
leaf_value=0.0058084367895678314 -0.0028651086220157339 0.00014145516251163872 0.036917067220896577 -0.004080626297624854
leaf_weight=66.825749881565571 171.3678333312273 111.60477777197957 2.1488473005592814 11.296541288495062
leaf_count=736 3682 1808 32 157
internal_value=0 0.00227841 0.00524952 0.00437847
internal_weight=0 191.876 80.2711 78.1223
internal_count=6415 2733 925 893
is_linear=0
shrinkage=0.01


Tree=133
num_leaves=5
num_cat=0
split_feature=5 6 6 1
split_gain=23.7279 11.9684 20.9177 9.29935
threshold=2854.0074895271268 2241.9791607381399 2199.7480250134568 849800.81532862759
decision_type=2 2 2 2
left_child=1 2 3 -1
right_child=-2 -3 -4 -5
leaf_value=0.0057460364776820063 -0.0028590811491069992 0.0001407327737882311 0.035399065723349936 -0.0040770066750353056
leaf_weight=67.215032495558262 170.87754854187369 111.62056586146355 2.2296589128673068 11.250538200139998
leaf_count=736 3682 1808 32 157
internal_value=0 0.00226184 0.00519584 0.00433759
internal_weight=0 192.316 80.6952 78.4656
internal_count=6415 2733 925 893
is_linear=0
shrinkage=0.01


Tree=134
num_leaves=5
num_cat=0
split_feature=2 6 5 1
split_gain=20.3652 13.7447 12.4174 11.9408
threshold=610.43959167102753 1550.9466461813386 2820.4969132927104 837600.81532862759
decision_type=2 2 2 2
left_child=-1 -2 3 -3
right_child=1 2 -4 -5
leaf_value=0.0070275421301667145 0.0034723004599868136 0.0045760135739252809 -0.0036779655784995252 -0.0018234973875107629
leaf_weight=37.520651560276747 62.809950388967991 47.160583935678005 147.52840983867645 76.375824213027954
leaf_count=293 772 765 3387 1293
internal_value=0 -0.000742713 -0.0017194 0.000619545
internal_weight=0 333.875 271.065 123.536
internal_count=6510 6217 5445 2058
is_linear=0
shrinkage=0.01


Tree=135
num_leaves=5
num_cat=0
split_feature=2 6 5 1
split_gain=20.0358 13.5949 12.3533 11.7826
threshold=610.43959167102753 1550.9466461813386 2820.4969132927104 837600.81532862759
decision_type=2 2 2 2
left_child=-1 -2 3 -3
right_child=1 2 -4 -5
leaf_value=0.0069435534253247614 0.0034430514782054305 0.0045324495419803539 -0.0036732199400531496 -0.0018177621087535074
leaf_weight=37.785258367657661 63.028424523770809 47.376886036247015 146.98680256679654 76.236679743975401
leaf_count=293 772 765 3387 1293
internal_value=0 -0.000739599 -0.00171382 0.000616059
internal_weight=0 333.629 270.6 123.614
internal_count=6510 6217 5445 2058
is_linear=0
shrinkage=0.01


Tree=136
num_leaves=5
num_cat=0
split_feature=3 4 5 2
split_gain=31.7985 13.577 12.9301 8.64043
threshold=2397.535433373555 388.57778051652991 476.87217407617669 3376.9108267946203
decision_type=2 2 2 2
left_child=3 -2 -3 -1
right_child=1 2 -4 -5
leaf_value=0.0044830472010688027 0.02727354634708239 0.021108778263688573 -0.0027503243800716445 -0.0024716960618287563
leaf_weight=164.04025470837951 1.5508973971009243 2.3010872118175021 176.03021769225597 20.046853683888912
leaf_count=1885 21 29 4118 297
internal_value=0 -0.00218626 -0.00244246 0.00372568
internal_weight=0 179.882 178.331 184.087
internal_count=6350 4168 4147 2182
is_linear=0
shrinkage=0.01


Tree=137
num_leaves=5
num_cat=0
split_feature=3 4 5 2
split_gain=31.4098 13.1407 12.5994 8.50588
threshold=2397.535433373555 388.57778051652991 476.87217407617669 3376.9108267946203
decision_type=2 2 2 2
left_child=3 -2 -3 -1
right_child=1 2 -4 -5
leaf_value=0.0044407821230743987 0.026406145005266234 0.02056414309916459 -0.00274422251484711 -0.0024655236173407083
leaf_weight=164.77730613201857 1.59377797320485 2.350176651030778 175.54674537107348 19.997365117073059
leaf_count=1885 21 29 4118 297
internal_value=0 -0.00218019 -0.0024363 0.00369334
internal_weight=0 179.491 177.897 184.775
internal_count=6350 4168 4147 2182
is_linear=0
shrinkage=0.01


Tree=138
num_leaves=5
num_cat=0
split_feature=6 2 5 5
split_gain=23.9485 16.5384 11.5476 10.3984
threshold=4278.6041811907007 253.04566435168564 1381.2173513031282 1211.0339137245194
decision_type=2 2 2 2
left_child=1 -1 3 -3
right_child=-2 2 -4 -5
leaf_value=0.014372086008325249 -0.0042184366726207715 0.0031882224108575196 4.4631028060836424e-05 0.014456611130488529
leaf_weight=9.8252455256879312 93.655966054648161 50.281604699790478 207.56477526947856 9.7824868559837324
leaf_count=52 2306 522 3456 141
internal_value=0 0.00162983 0.00116204 0.00502348
internal_weight=0 277.454 267.629 60.0641
internal_count=6477 4171 4119 663
is_linear=0
shrinkage=0.01


Tree=139
num_leaves=5
num_cat=0
split_feature=6 2 5 5
split_gain=23.7691 16.0944 11.3616 10.0632
threshold=4278.6041811907007 253.04566435168564 1381.2173513031282 1211.0339137245194
decision_type=2 2 2 2
left_child=1 -1 3 -3
right_child=-2 2 -4 -5
leaf_value=0.014096147420081653 -0.0042152772414782661 0.0031622668818447738 4.4407409571069941e-05 0.014177847823264931
leaf_weight=9.9674743972718698 93.261716835200787 50.442169345915318 207.57403937727213 9.9249356575310212
leaf_count=52 2306 522 3456 141
internal_value=0 0.00161905 0.00115489 0.00497333
internal_weight=0 277.909 267.941 60.3671
internal_count=6477 4171 4119 663
is_linear=0
shrinkage=0.01


Tree=140
num_leaves=5
num_cat=0
split_feature=6 1 1 0
split_gain=23.7961 13.6322 14.6249 9.91359
threshold=4256.1582437279021 830200.81532862759 850000.81532862759 1021319.5793653071
decision_type=2 2 2 2
left_child=1 -1 3 -3
right_child=-2 2 -4 -5
leaf_value=-0.0037186825202640389 -0.0041311801369293905 0.0044211221416093332 -0.0037061431080042525 -0.0024498736842608762
leaf_weight=40.090748880058527 95.845915503799915 175.77547338604927 31.753341939300299 23.847572542726994
leaf_count=687 2388 2276 628 499
internal_value=0 0.00166478 0.00259758 0.00360029
internal_weight=0 271.467 231.376 199.623
internal_count=6478 4090 3403 2775
is_linear=0
shrinkage=0.01


Tree=141
num_leaves=5
num_cat=0
split_feature=6 1 1 0
split_gain=23.615 13.4898 14.444 9.79666
threshold=4256.1582437279021 830200.81532862759 850000.81532862759 1013519.5793653071
decision_type=2 2 2 2
left_child=1 -1 3 -3
right_child=-2 2 -4 -5
leaf_value=-0.0037140360617609705 -0.004127724721402039 -0.00070706625688621934 -0.0037014657955625973 0.0047129142982615859
leaf_weight=39.941940993070602 95.450777616351843 42.265558067709208 31.635877292603254 158.07798093557358
leaf_count=687 2388 599 628 2176
internal_value=0 0.00165371 0.00257792 0.00356949
internal_weight=0 271.921 231.979 200.344
internal_count=6478 4090 3403 2775
is_linear=0
shrinkage=0.01


Tree=142
num_leaves=5
num_cat=0
split_feature=6 4 0 3
split_gain=20.9239 13.3245 10.3423 9.12604
threshold=4256.1582437279021 4733.1504839426234 1021119.5793653071 1934.8363990231612
decision_type=2 2 2 2
left_child=1 2 3 -1
right_child=-2 -3 -4 -5
leaf_value=0.0016794499713260996 -0.0042608838255814626 -0.0038514663862543163 -0.0023445685020117321 0.0065819554566404204
leaf_weight=124.90024885907769 99.295147094875574 44.867730051279068 41.964158497750759 54.555805999785662
leaf_count=1316 2460 922 820 940
internal_value=0 0.00111779 0.00212474 0.00316984
internal_weight=0 266.288 221.42 179.456
internal_count=6458 3998 3076 2256
is_linear=0
shrinkage=0.01


Tree=143
num_leaves=5
num_cat=0
split_feature=6 4 0 3
split_gain=20.7891 13.2006 10.2096 8.93244
threshold=4256.1582437279021 4733.1504839426234 1021119.5793653071 1934.8363990231612
decision_type=2 2 2 2
left_child=1 2 3 -1
right_child=-2 -3 -4 -5
leaf_value=0.0016682988840241216 -0.0042578737060434456 -0.0038471660674820273 -0.0023384154942496112 0.0065061978908803391
leaf_weight=125.11018879339099 98.872961346060038 44.695256046950817 41.865885961800814 54.916074272245169
leaf_count=1316 2460 922 820 940
internal_value=0 0.00111095 0.00210966 0.00314407
internal_weight=0 266.587 221.892 180.026
internal_count=6458 3998 3076 2256
is_linear=0
shrinkage=0.01


Tree=144
num_leaves=5
num_cat=0
split_feature=6 3 1 1
split_gain=18.9755 10.6748 10.1644 10.4956
threshold=3005.3157265763625 2348.2207761133154 850000.81532862759 840400.81532862759
decision_type=2 2 2 2
left_child=2 -2 3 -1
right_child=1 -3 -4 -5
leaf_value=0.001387072251422469 0.00068712754308202927 -0.0042131973901996557 -0.0040825926186536686 0.007120268046003215
